{"layers":[{"out_depth":1,"out_sx":24,"out_sy":24,"layer_type":"input"},{"sx":5,"sy":5,"stride":1,"in_depth":1,"out_depth":8,"out_sx":24,"out_sy":24,"layer_type":"conv","l1_decay_mul":0,"l2_decay_mul":1,"pad":2,"filters":[{"sx":5,"sy":5,"depth":1,"w":{"0":0.3635480916216274,"1":0.12865492974564488,"2":0.457991020407304,"3":0.29681738928755036,"4":0.34106404550571284,"5":0.1671971879797331,"6":-0.10735706484030012,"7":0.2060698966809143,"8":0.07436207734899664,"9":0.4258774615726774,"10":-0.18212728050800672,"11":-0.11936623047786954,"12":-0.1683354834228464,"13":-0.060507459918707616,"14":0.0403343365552567,"15":-0.38957758262371445,"16":-0.3419988798340007,"17":-0.3844170697938471,"18":-0.29126078859975857,"19":0.0302361967146105,"20":-0.06686218521161055,"21":-0.16429078983390002,"22":-0.17463187745897304,"23":-0.21259547449003988,"24":-0.32552576944221306}},{"sx":5,"sy":5,"depth":1,"w":{"0":-0.017767612405237432,"1":-0.016403666906084753,"2":-0.04560542604798149,"3":-0.017534872712959206,"4":0.0016413365258721427,"5":-0.18485632471655933,"6":-0.20759436434383563,"7":-0.2599555219217924,"8":-0.2116854922666392,"9":-0.2862009631311295,"10":-0.02665718462602813,"11":-0.23021870299583072,"12":-0.3044228128221492,"13":-0.28840357690021035,"14":-0.3633337529565681,"15":0.27239879194362326,"16":0.1455683022358745,"17":0.1936827889664865,"18":0.14714298623508756,"19":0.3029232324058302,"20":0.48386985838827945,"21":0.42813787404615666,"22":0.39601495573339474,"23":0.4101253038066345,"24":0.16676635515600147}},{"sx":5,"sy":5,"depth":1,"w":{"0":-0.02099296162191801,"1":-0.14382132696527827,"2":-0.08898589870361796,"3":-0.26264971222906897,"4":-0.13664493453545773,"5":0.16965536608840964,"6":0.021131119861346533,"7":-0.035238020155971654,"8":-0.02613002952947463,"9":-0.29103383359185153,"10":0.06708104279601908,"11":0.09607305981269834,"12":-0.13444011037516762,"13":-0.2660853796054585,"14":-0.30466082928876687,"15":0.3081183993625395,"16":0.32270782433685186,"17":-0.03645220059462784,"18":-0.17603190918509057,"19":-0.29331872824850386,"20":0.40437775858305186,"21":0.16636127356450037,"22":0.04817351440454598,"23":-0.034121632176746255,"24":-0.23644287370876793}},{"sx":5,"sy":5,"depth":1,"w":{"0":0.04022981800461784,"1":0.4320614391628447,"2":0.22472103863592538,"3":0.022716224846843637,"4":-0.222600424201845,"5":0.038777405300907376,"6":0.45945795438735043,"7":0.3783470861392343,"8":-0.16046008323631503,"9":-0.33632687537865746,"10":0.046153310127870585,"11":0.4217469155941145,"12":0.38655733597229724,"13":-0.2831458133351435,"14":-0.23233315311641398,"15":-0.13790991147433174,"16":0.5809245250075167,"17":0.27380677249659524,"18":-0.2915198030415529,"19":-0.1523902526408934,"20":0.11253481544473444,"21":0.3696154256786918,"22":0.32969220400325855,"23":0.06052495287938768,"24":-0.001890077514126108}},{"sx":5,"sy":5,"depth":1,"w":{"0":0.1172208888460506,"1":0.12290780429084448,"2":-0.2610969368908814,"3":-0.07008279118009841,"4":-0.0890925809886995,"5":0.31633387280310643,"6":-0.16921375640686348,"7":-0.10479016356369561,"8":-0.4396561214469556,"9":-0.42428263338655264,"10":0.3074265453727772,"11":0.05725243997634355,"12":-0.46860147029890165,"13":-0.36900909134141036,"14":-0.07964698844018812,"15":0.34669209913000754,"16":0.7071931969649972,"17":0.5162045558428798,"18":0.21030952266737207,"19":0.014063306232230934,"20":0.1278547790110726,"21":0.4365528377505258,"22":0.582051600779823,"23":0.6261990117721299,"24":0.20769627696874285}},{"sx":5,"sy":5,"depth":1,"w":{"0":-0.2617632559153878,"1":-0.3062457887048914,"2":0.4992470979426166,"3":0.4198215942920997,"4":0.2558767541378138,"5":-0.371896121357225,"6":-0.07350335599654573,"7":0.586599910787952,"8":0.2456600782578239,"9":-0.10427605555290949,"10":-0.22829588110590673,"11":0.45646955069040074,"12":0.6249199039880162,"13":0.0834784751038793,"14":-0.15084834329912014,"15":-0.03145688936416693,"16":0.33394886697120546,"17":0.23948130777595417,"18":-0.0746220111758118,"19":-0.24021645393666616,"20":-0.06062463503722767,"21":0.39049680623519584,"22":0.1161780747880872,"23":0.23886256988945698,"24":-0.09690785436400942}},{"sx":5,"sy":5,"depth":1,"w":{"0":0.0237475810167714,"1":-0.055954870333436914,"2":-0.0998182773168498,"3":0.04925697709003313,"4":-0.04719455489873932,"5":-0.23684954702313998,"6":0.0668799726991062,"7":0.1954841634026965,"8":0.7440447095614936,"9":0.6208600597167224,"10":0.26349347741129,"11":0.23410773818809574,"12":0.3644939843600827,"13":0.34877261859918474,"14":0.5594593166496425,"15":0.025182679539032093,"16":0.18854580380400052,"17":-0.2803783112514644,"18":-0.4993150745215662,"19":-0.010802291250352534,"20":-0.14867692636032254,"21":-0.5292016103218756,"22":-0.5280723819898571,"23":-0.5426149980609319,"24":-0.29466706287555944}},{"sx":5,"sy":5,"depth":1,"w":{"0":-0.23518181156374485,"1":-0.3196328856759472,"2":-0.29200648487772496,"3":-0.19748178511593378,"4":0.1065090512583072,"5":-0.3170110649189079,"6":-0.18932232933290535,"7":-0.1325194071982404,"8":0.1907913083275268,"9":0.22409877984360832,"10":-0.09007165735561973,"11":0.10911379212458398,"12":0.4293803213979363,"13":0.3018466597718621,"14":0.1217675591886531,"15":0.29235418563167304,"16":0.3706398407589563,"17":0.2338470958924488,"18":0.10622330979808871,"19":-0.06694461635308036,"20":0.2073655865733911,"21":0.1638412973036861,"22":-0.08076062686563162,"23":-0.23571979741659205,"24":-0.01925414571411205}}],"biases":{"sx":1,"sy":1,"depth":8,"w":{"0":0.10555150954190326,"1":0.06657411692801252,"2":0.07368012287321313,"3":0.0778394678694783,"4":0.25855505901444736,"5":0.2960147598298787,"6":0.33116330266010285,"7":-0.020963510371776867}}},{"out_depth":8,"out_sx":24,"out_sy":24,"layer_type":"relu"},{"sx":2,"sy":2,"stride":2,"in_depth":8,"out_depth":8,"out_sx":12,"out_sy":12,"layer_type":"pool","pad":0},{"sx":5,"sy":5,"stride":1,"in_depth":8,"out_depth":16,"out_sx":12,"out_sy":12,"layer_type":"conv","l1_decay_mul":0,"l2_decay_mul":1,"pad":2,"filters":[{"sx":5,"sy":5,"depth":8,"w":{"0":0.029033978726622587,"1":0.06422090900712044,"2":-0.0725993477868256,"3":-0.007021064854666227,"4":0.062209269965007905,"5":-0.05307785952011127,"6":-0.007909956197982989,"7":0.012514577048125251,"8":0.02600424133769777,"9":0.019462272071343552,"10":0.06359788034960769,"11":-0.050101565309626464,"12":0.016512127806561312,"13":-0.08357436414802244,"14":-0.07688825099233385,"15":0.02695900326574582,"16":-0.10815347338298091,"17":-0.03493009177218943,"18":-0.01563166638686553,"19":-0.05189385205400236,"20":-0.11222038797428753,"21":-0.08698929151550144,"22":-0.08432778241299216,"23":-0.03944118357836335,"24":-0.07647990116832698,"25":0.05801415138820055,"26":-0.10657553216149247,"27":-0.048683571284440175,"28":-0.12846386847077437,"29":-0.03915300019064084,"30":-0.036559104329945885,"31":-0.07245169994117172,"32":-0.05938903652124398,"33":0.051768658134722596,"34":-0.10050490451423591,"35":0.07440327076219912,"36":-0.02013601034089348,"37":0.1781919642650355,"38":-0.042612136467875525,"39":-0.04387254761367709,"40":-0.014442543983703404,"41":0.015616001424978928,"42":-0.054576080132642854,"43":0.031770235005879825,"44":0.014717893722925071,"45":0.0651620971434474,"46":-0.02145416230305077,"47":0.06671850104444828,"48":0.022332987741877416,"49":-0.005268005132725472,"50":0.0650047780844971,"51":0.06484163404079601,"52":-0.014204812751607027,"53":-0.011640930667433632,"54":-0.015576629822115079,"55":-0.04603307723680288,"56":-0.02581261928700849,"57":0.0033184704686560584,"58":0.0037974946435331202,"59":-0.07075667874339445,"60":-0.04670964091451123,"61":-0.10879055234124084,"62":-0.13859449572249294,"63":-0.059017520834351224,"64":-0.07504120410503669,"65":-0.01121123945799885,"66":-0.13587676809708743,"67":-0.16437459565454776,"68":-0.12600615842148025,"69":0.03859799576826181,"70":-0.07300085847565622,"71":0.08357266639876673,"72":-0.10049422707401263,"73":-0.0917764685906012,"74":-0.06011228283736355,"75":0.1038913763826683,"76":-0.25634664978850347,"77":0.2783547608654083,"78":0.05300578245835036,"79":0.09447166253037827,"80":-0.0007709453825297331,"81":-0.004663514710338603,"82":-0.010107390767512294,"83":0.12405986599483847,"84":-0.03486596038224931,"85":0.09788801535592083,"86":-0.04117487531813655,"87":-0.021002844797351372,"88":-0.011657710636095735,"89":-0.024964227502957848,"90":0.08829292289506632,"91":0.046230224170986954,"92":-0.04974696751032325,"93":-0.07467884770445898,"94":-0.06647346504968235,"95":-0.0834675409084912,"96":-0.013094287403273331,"97":-0.06718637433383191,"98":-0.02990982948477031,"99":-0.06481328332329747,"100":-0.09844468994966578,"101":-0.07907187500274004,"102":-0.028864281624776025,"103":-0.030428899120583202,"104":-0.09151353833252232,"105":-0.14715285050046933,"106":-0.06157170829346584,"107":0.016852558245280484,"108":-0.2093769307635004,"109":0.1608767847490097,"110":-0.14243285095910332,"111":0.005466738713875126,"112":-0.12353461198776984,"113":-0.0614318101650161,"114":-0.031840995262510705,"115":0.2667243363820685,"116":0.018883347633858145,"117":0.2803225754321148,"118":-0.10763045291228283,"119":-0.06531395713683437,"120":0.047059571619515864,"121":-0.0040076380137750185,"122":0.0053278099887049,"123":0.065426587461867,"124":-0.029355130772341288,"125":0.043506734697372776,"126":0.033716363272749565,"127":0.03286622197426974,"128":0.07041034033499781,"129":-0.044829420361127574,"130":-0.011317095224720327,"131":-0.022198291337538565,"132":-0.00456095511877732,"133":-0.02511387496524065,"134":-0.06237299323164836,"135":-0.06401734214244582,"136":0.1230046399523861,"137":-0.10000314126615613,"138":0.04785228669677907,"139":-0.016698809524343185,"140":-0.07353033465887475,"141":-0.0676969562779275,"142":-0.04761908258057944,"143":-0.010722315841392724,"144":-0.04030593152435728,"145":-0.08998139340340908,"146":0.003945207830532983,"147":0.12764606400756404,"148":-0.1095736861453883,"149":0.19405920238575633,"150":0.004949974635883475,"151":-0.02346575469867798,"152":-0.15566639529719362,"153":0.028950607482353573,"154":0.10170735776973078,"155":0.29159414644662257,"156":0.2264014444625077,"157":0.12891612004528108,"158":-0.022481931727263937,"159":-0.11898364527991062,"160":0.12441504749322733,"161":-0.03748896403624804,"162":-0.10327833645129157,"163":-0.03828893975943982,"164":-0.060422406519846504,"165":-0.019717402222864614,"166":-0.0029421317485920713,"167":-0.0244905927669962,"168":0.03737215420970734,"169":-0.017456280921399336,"170":-0.08042537541169095,"171":-0.019109114427584846,"172":-0.04409158036599221,"173":-0.024258014455994143,"174":-0.1482894740682472,"175":0.0052609755877541615,"176":-0.05258223294029159,"177":-0.007686714684745281,"178":0.0029068162762210634,"179":0.08089317299283523,"180":-0.04646033587593803,"181":0.023874619474788614,"182":-0.01990275553830254,"183":0.03582473067566523,"184":0.05160399835921727,"185":-0.016412390283926305,"186":0.02412529580459558,"187":0.11861856922002638,"188":-0.02863968326287171,"189":0.11148716596934441,"190":0.015450982903016665,"191":0.00020865401884465122,"192":-0.0022656436639267863,"193":-0.03258279642205122,"194":0.013269551938416991,"195":0.07957283157907348,"196":-0.023984481727786486,"197":0.050330150919193815,"198":0.09647357630904072,"199":-0.07132574272395678}},{"sx":5,"sy":5,"depth":8,"w":{"0":0.11253259208405407,"1":-0.05716936211814149,"2":0.04952785898414284,"3":0.04560337925539021,"4":-0.054882893833508146,"5":0.0635994791650099,"6":0.07084081546072582,"7":-0.019105386982654692,"8":0.09307012661680776,"9":-0.06594247952520636,"10":-0.018722910184461785,"11":0.01204803751978733,"12":-0.07913959064584052,"13":-0.04564762769114292,"14":-0.0054524287407625716,"15":-0.037748196037129145,"16":0.04714250983480498,"17":-0.05232190338805809,"18":-0.027178571962475844,"19":-0.039818700016947595,"20":-0.08956726468805615,"21":-0.03495915524960572,"22":-0.10891578195390837,"23":-0.04300182845041392,"24":-0.04409356920007653,"25":-0.00047506443451117653,"26":-0.011755032836925099,"27":-0.006996330617568459,"28":-0.03566886696434448,"29":-0.06464985470053942,"30":-0.13556603211426518,"31":-0.06213064149360047,"32":-0.02914744151469188,"33":-0.0012485921750197972,"34":-0.01849131013537256,"35":-0.07035810204399173,"36":-0.03665434457702051,"37":-0.06133194337116662,"38":-0.07578963976161818,"39":-0.028020691639285396,"40":0.04626516989264807,"41":-0.06109346169489118,"42":0.03661504271947874,"43":-0.0018552603940409041,"44":-0.06599916482048031,"45":-0.047756625525153876,"46":0.0035044430960491893,"47":-0.05592961168378972,"48":-0.04108540132019889,"49":-0.04352729735427006,"50":0.0030445841182146606,"51":-0.036755744186623106,"52":-0.0840492105873737,"53":-0.05299053025093911,"54":-0.10987650290053283,"55":-0.04076510594390618,"56":-0.09867922834983357,"57":0.012076606021353534,"58":-0.03420729066088929,"59":-0.061454228952150504,"60":-0.06501755562176555,"61":-0.03338098383314849,"62":-0.12183974313868916,"63":-0.05178361868934937,"64":-0.07350886021744968,"65":0.03979891430591717,"66":0.007329769386341704,"67":-0.027960785022240555,"68":0.021573698072137406,"69":-0.008557283571215567,"70":-0.05347622108765301,"71":0.05894168257300383,"72":-0.07917716667658226,"73":0.15607510156549412,"74":0.025699003318698156,"75":-0.04026988099794648,"76":0.03864097717907149,"77":-0.010970505895453547,"78":-0.07382883326882576,"79":0.07523014694241045,"80":0.027461804531173625,"81":-0.08008928096228772,"82":0.044011063818519984,"83":-0.034320833431992895,"84":-0.07223802767768446,"85":-0.03181359030862652,"86":-0.11329318358849638,"87":-0.04549406705804975,"88":-0.07304626343555085,"89":-0.0756414052082711,"90":-0.020487562242998948,"91":-0.019333508817466233,"92":-0.11689308253926242,"93":-0.049222801517632996,"94":-0.09013777113756075,"95":-0.06605397601121528,"96":-0.1090691418980946,"97":0.008187544885892262,"98":-0.07687815191649651,"99":-0.038796060179472285,"100":-0.09088866357636541,"101":-0.0062493317278248875,"102":-0.094015141546216,"103":-0.04691149267514962,"104":-0.10224621306010878,"105":0.03243783955624808,"106":0.02550281227285763,"107":0.07614498702563985,"108":0.0011348209854480985,"109":0.12868603896426156,"110":-0.05207563953936443,"111":0.012781670013453771,"112":-0.060772532020798874,"113":0.03450246003683022,"114":0.09684270357834876,"115":0.005668952905165643,"116":-0.011950933621623215,"117":0.019403711577648447,"118":0.020717980938043782,"119":0.1663065798536383,"120":-0.04669236804931188,"121":-0.05627500860675189,"122":-0.007028905465291094,"123":-0.02164992785404982,"124":-0.09344758681195318,"125":-0.05480546628152176,"126":-0.06632229593080556,"127":-0.06971886459070831,"128":-0.05954298202847366,"129":-0.051565922042094356,"130":-0.03491400033527034,"131":-0.015642405821074075,"132":-0.030903799166877594,"133":-0.06897968044980544,"134":-0.09060719993811482,"135":-0.06654478656886749,"136":-0.12245038261547554,"137":-0.05602668989639394,"138":-0.09896531982817236,"139":-0.02173614740893732,"140":-0.0351966725066628,"141":0.09816753244235017,"142":-0.13869280056122626,"143":-0.015963211020981454,"144":-0.15259206211718276,"145":-0.037668782888949426,"146":0.007459088622640753,"147":0.24105442506906502,"148":0.020219885511754538,"149":0.20496587229126687,"150":-0.10718485434999471,"151":0.001491052542466418,"152":-0.08600831823875803,"153":0.03398272188079232,"154":0.12382530711195033,"155":0.13775084826803874,"156":0.040295054083557026,"157":0.053485472827122106,"158":-0.09861752265371582,"159":0.07388715267105198,"160":-0.0961315977459036,"161":-0.00753173560328936,"162":-0.026289923358617115,"163":-0.026556793034630394,"164":-0.030982481268036446,"165":-0.06018955434183987,"166":-0.10309916498781949,"167":-0.06550417072555562,"168":-0.09102257717327988,"169":-0.00673876460559575,"170":-0.059233571023026864,"171":-0.045659469166595586,"172":-0.021004111317003978,"173":-0.03624365687328444,"174":-0.07251947142593634,"175":-0.0182054139980834,"176":-0.0953883896761547,"177":-0.042301389431177346,"178":-0.07157004708301835,"179":0.03746934736972349,"180":-0.04438755331181319,"181":0.06603275666792642,"182":-0.03817815597265611,"183":0.06045679669184354,"184":-0.1058386717708421,"185":-0.08576380769181492,"186":0.06329096993645046,"187":0.25841869869367795,"188":0.015389724179904068,"189":0.24722660954265807,"190":-0.09500342774485061,"191":-0.049607938795746494,"192":-0.03017044636379921,"193":0.006576399771174808,"194":0.11008823793440292,"195":0.18193576748342571,"196":0.1726816967683794,"197":-0.015519140392095954,"198":-0.04606192010186439,"199":-0.10007843688535525}},{"sx":5,"sy":5,"depth":8,"w":{"0":0.08472908475435786,"1":-0.1287030212622102,"2":0.08439884160295728,"3":0.024503147589040156,"4":-0.08342844750141205,"5":-0.027061018188138657,"6":0.06741893993933411,"7":-0.07800813437245743,"8":0.15365561431665511,"9":-0.08900662572728912,"10":-0.031780583856402395,"11":-0.021346150643483476,"12":-0.06427819298966342,"13":-0.10972537382186033,"14":0.15644440815387978,"15":-0.07060279945410493,"16":0.16873502436276333,"17":-0.08355926548699337,"18":-0.06861197247426626,"19":-0.06886057906700596,"20":-0.061686010052948825,"21":-0.029118892758210214,"22":0.22875068990077674,"23":-0.03254542436502001,"24":0.13738176949623726,"25":-0.09631827649035431,"26":-0.05988753745571701,"27":-0.030405363859077272,"28":-0.04889197310551227,"29":0.0765348008934394,"30":0.27197467577722184,"31":-0.009234432783368201,"32":0.12416535741052347,"33":-0.15261177479940427,"34":-0.09502996575401476,"35":-0.038198580712626454,"36":-0.1376667790195938,"37":-0.006150071558706849,"38":0.16939213731204725,"39":0.011084367259387247,"40":0.0051236242262188425,"41":0.06846163110546008,"42":0.0061483944958340905,"43":-0.06769405842665105,"44":0.0024257246038552342,"45":-0.11606321515845408,"46":-0.08782275360518049,"47":-0.061962218941822,"48":0.010727808599977937,"49":0.05257424938798736,"50":-0.021190154639931385,"51":-0.10346405256808476,"52":-0.002602722790680045,"53":-0.15023729934330465,"54":-0.09975758233162382,"55":-0.0816733825759046,"56":0.0904634399051757,"57":0.005892608912308136,"58":-0.04980212579220759,"59":-0.14254020647026336,"60":-0.13355401005397607,"61":-0.16330775103561934,"62":-0.04854417797589957,"63":-0.09450890368578631,"64":0.14030777838566647,"65":0.009658776609294243,"66":-0.06039050633757617,"67":-0.10786899026641716,"68":-0.032565956177735146,"69":-0.10093039553005567,"70":-0.059903310632639664,"71":-0.10755341816411162,"72":-0.003984260729237394,"73":0.07576998094160373,"74":-0.10496562511463803,"75":-0.06284494702606798,"76":-0.05212435011560143,"77":-0.09654215302308351,"78":-0.1166507905643767,"79":-0.053679373134853554,"80":-0.10975597734018697,"81":0.2284877135133352,"82":-0.04599638876464955,"83":-0.2288542679922777,"84":0.16556486389792388,"85":-0.09248620485466201,"86":-0.0806542634280668,"87":0.11794564686095671,"88":-0.09078254907586365,"89":0.2740244561658871,"90":-0.006419536022100043,"91":-0.11312978877712779,"92":0.1064013101135517,"93":-0.09886065851996195,"94":-0.11732124660881106,"95":0.12918376687986094,"96":-0.07075517845693312,"97":0.18484587530134175,"98":0.10972990039049531,"99":-0.14438678610132466,"100":0.08353654038941964,"101":-0.1596372883609677,"102":-0.10007587280270264,"103":0.05274181440802246,"104":-0.03507539707252701,"105":0.26391484693710193,"106":0.015584910722152422,"107":-0.19480884848410132,"108":0.13657612135444702,"109":-0.14189677423628397,"110":-0.16106382168772104,"111":0.036686132412785975,"112":-0.11530849105677266,"113":0.2523963948850879,"114":-0.10056200090331598,"115":-0.10766388390747485,"116":0.2155685444426799,"117":-0.018773478006595273,"118":-0.20429720354878667,"119":0.10644410479168365,"120":0.01895328800644195,"121":0.137231899410485,"122":0.05173516004218498,"123":-0.11846385107583741,"124":-0.0026895482050739937,"125":-0.05538832689616979,"126":0.05394214292176616,"127":0.1346590081235547,"128":-0.04998179976329427,"129":-0.022629455155034568,"130":-0.012042340558722048,"131":-0.10398855855485381,"132":0.027530397355356426,"133":-0.03688415053099141,"134":0.09205892115688141,"135":0.13502858901547626,"136":-0.06848534475277569,"137":0.06395635201389865,"138":0.09062636126030872,"139":0.02896677525003082,"140":0.13052172772776144,"141":-0.11542888696469637,"142":-0.03534127108531591,"143":0.09711936675299454,"144":-0.11860192553023481,"145":0.06545254344193265,"146":0.018275236463204704,"147":0.010198785458219452,"148":0.0625986761367023,"149":-0.0200258208719056,"150":-0.10761501686603536,"151":0.050840392172325846,"152":-0.04171700654071342,"153":0.028716916597097606,"154":0.06050346379117375,"155":0.011897682392773517,"156":0.0389137778712914,"157":0.08023039405193144,"158":0.07243189456721855,"159":0.20764049303448595,"160":-0.06043879325713996,"161":-0.036034327547181874,"162":0.02939918079539393,"163":-0.02285648191053035,"164":0.031152251249340592,"165":-0.026032326100119275,"166":0.02960281352037696,"167":0.018818974686422973,"168":-0.05195434468099343,"169":-0.02628362722793645,"170":-0.14003942526035398,"171":-0.06758015319098697,"172":-0.07911815855465906,"173":0.09786054784225733,"174":-0.011765233378847396,"175":-0.009995739915380938,"176":-0.0037904415678055967,"177":-0.05759989340653969,"178":-0.07480664191499671,"179":0.17290389356514332,"180":-0.06873510200372356,"181":0.028398333007758656,"182":-0.0723704635426467,"183":-0.1332942558151619,"184":-0.0448068688755701,"185":-0.034571412171131806,"186":-0.014382158761339267,"187":0.1611570999877975,"188":0.0116973294765062,"189":-0.00574239871119421,"190":-0.050756830199263914,"191":-0.11900544235212963,"192":-0.11092830554103432,"193":-0.09359251592226714,"194":0.03981046480776086,"195":0.1153889970023803,"196":-0.03309586903446833,"197":-0.03330269115337164,"198":-0.10138747824771979,"199":-0.06657919687869499}},{"sx":5,"sy":5,"depth":8,"w":{"0":-0.017229896046864084,"1":0.1904663795314231,"2":0.013729267193289343,"3":0.013837835226135712,"4":0.29469813004736334,"5":-0.011556352803911547,"6":-0.09358672029344477,"7":-0.06316935461954938,"8":-0.03551032164374231,"9":0.3450113909518817,"10":0.10265102542212944,"11":-0.06230601868570656,"12":0.3897504527687335,"13":-0.12311009417219392,"14":-0.17851748606463286,"15":-0.012368391767711113,"16":0.018257097846509765,"17":0.3728471727345028,"18":0.17076361310738222,"19":-0.14617050458336914,"20":0.358808846793394,"21":-0.12841177574978804,"22":-0.09635698069078168,"23":0.08563746912777623,"24":-0.004332211968276433,"25":0.2091455535630897,"26":0.1466105543400327,"27":-0.12972811431320194,"28":0.15264747409662907,"29":-0.12084933575497671,"30":-0.0075657704169136124,"31":0.041732931292291525,"32":-0.05274680404791217,"33":0.06845541643338697,"34":-0.010079983076504331,"35":-0.1177169590467848,"36":-0.11550546187489483,"37":-0.162562512862112,"38":-0.14420607058495005,"39":-0.1098136967670491,"40":0.07187981514541643,"41":0.05394662724981983,"42":-0.11127258387420061,"43":-0.10719792963521978,"44":0.08708283666402199,"45":-0.08578753213781194,"46":0.25173179619707636,"47":-0.036799384406660036,"48":0.05034951861335526,"49":0.1342626189638782,"50":0.018418586356964892,"51":-0.1544833713961118,"52":0.2709491717826514,"53":-0.18484507438715694,"54":0.2734781985029041,"55":0.13940690638870695,"56":-0.024756072985898426,"57":0.12692434418974788,"58":-0.017332359735604312,"59":-0.0705803405267552,"60":0.3529900394512142,"61":-0.06766467080681697,"62":0.060396516539542505,"63":0.1450794636366368,"64":-0.09438035500455255,"65":0.12778419418031722,"66":0.14777210993111584,"67":-0.007913566170336063,"68":0.270452568592735,"69":-0.19817331298620533,"70":0.006951040537104981,"71":0.03894738829516914,"72":-0.18781098024814474,"73":0.12341570723419897,"74":0.15432453743069208,"75":0.04147735109745787,"76":0.09151693228584935,"77":-0.058306322319032725,"78":-0.33627156704672595,"79":0.021271650326933452,"80":0.13752358704502166,"81":-0.09363693464725395,"82":-0.09730657634230674,"83":-0.13150849045798518,"84":-0.02387940194425978,"85":0.02042757553073443,"86":0.2749462346951549,"87":0.10721921992053668,"88":0.2183270148231496,"89":-0.1616503783492789,"90":-0.02621487145967216,"91":-0.10303868602825138,"92":-0.040639160489991805,"93":-0.14791381105150528,"94":0.30546671143759596,"95":0.08258528644973431,"96":0.08120221000472094,"97":-0.1247412148661233,"98":-0.09384040368050155,"99":0.11258715001094954,"100":0.05065228152393355,"101":0.005744846667152923,"102":0.030325436386168043,"103":-0.14426069633483982,"104":-0.010461453157575532,"105":-0.043409142751624386,"106":0.11211486519507852,"107":0.25183357344244206,"108":0.19233128409154165,"109":-0.10776684881957596,"110":-0.12134899880605407,"111":-0.1230255290512564,"112":-0.20596770252023175,"113":-0.034295357456718224,"114":0.15039473214909066,"115":0.18172796161103408,"116":0.1342603357140504,"117":0.013903998333010644,"118":-0.22948380421518286,"119":-0.07153134920122944,"120":-0.031060071246639512,"121":0.007474553929726258,"122":-0.02146398090342534,"123":-0.04467287506873788,"124":0.006161386950555822,"125":-0.01179116904288676,"126":-0.05445689851521782,"127":-0.07939295604382625,"128":-0.0017946095214636131,"129":0.024095363073848193,"130":-0.14874197599537553,"131":-0.10658396968391683,"132":0.06353968692084527,"133":-0.08713159320228196,"134":-0.03911166802521237,"135":-0.12843778133852168,"136":-0.060061449703664206,"137":0.014261490505714266,"138":-0.12679070979727827,"139":0.2095972980404277,"140":0.011276121210814113,"141":0.25595881733313414,"142":-0.034816975793489205,"143":-0.06350105036212983,"144":-0.028361493795761902,"145":-0.06747900183573889,"146":0.04644132282975356,"147":0.35684441690574015,"148":0.00017068818002549676,"149":0.25081666377514117,"150":-0.12920829750735763,"151":-0.06849116323653381,"152":-0.07278827906303927,"153":-0.10384635561336088,"154":0.1248442198114313,"155":0.28224476946686433,"156":-0.012260214576920125,"157":0.047832133872354805,"158":-0.0257737002784966,"159":-0.06911655979566887,"160":-0.1308804704658826,"161":0.11273372015655782,"162":-0.04623581402672798,"163":-0.05224590329340715,"164":0.13404358233395386,"165":-0.06232224497697997,"166":-0.0708039502808681,"167":0.016364749411025285,"168":-0.08879893762333235,"169":0.07059669139648392,"170":-0.07314369537259956,"171":-0.15629630932820673,"172":0.06038345402264575,"173":0.03875941116546083,"174":0.006366480915701842,"175":0.17226188247036814,"176":-0.15333236077370382,"177":0.05968876566399651,"178":-0.12536365856207893,"179":0.06774466754996909,"180":-0.14737966566805544,"181":0.30788119866501734,"182":0.024003916372401034,"183":0.2824568122380626,"184":-0.01589724120250196,"185":-0.14487625606675628,"186":0.08930581092847749,"187":0.4095904714709387,"188":-0.15406137885325455,"189":0.264251094376992,"190":-0.07651322605969756,"191":-0.003330262314339842,"192":-0.04985154327245747,"193":-0.17008880769099666,"194":0.09491511739531916,"195":0.2656792284002567,"196":-0.0925624471296668,"197":0.037813569946910944,"198":-0.07137365503084545,"199":-0.06722547249014083}},{"sx":5,"sy":5,"depth":8,"w":{"0":0.032689907242701294,"1":-0.06549716146634763,"2":0.062468446054558736,"3":0.015428178390357344,"4":-0.050968019289480124,"5":0.00741522519767864,"6":-0.056291408176443215,"7":-0.029777628088784015,"8":-0.035545420829294745,"9":-0.044778951906789585,"10":-0.016611292754596347,"11":-0.045902700392173326,"12":-0.06214638084372807,"13":-0.07267241496491629,"14":-0.07809433782148392,"15":-0.09861989132341531,"16":-0.0335386889610344,"17":-0.009778646969129792,"18":-0.09475802213576433,"19":-0.05818279463719817,"20":-0.07348056043523657,"21":-0.09162788820557888,"22":-0.11805121849012806,"23":-0.06198887652658866,"24":-0.04402399953952588,"25":-0.07764563160029514,"26":-0.007654341468982077,"27":-0.06303881419402575,"28":-0.10458757421033568,"29":-0.13834434316245733,"30":-0.029546985645563777,"31":-0.03327747027506461,"32":0.10537799918106824,"33":-0.16716513626520574,"34":-0.059883021112622885,"35":-0.04651359276377545,"36":-0.08888143414253163,"37":-0.003932548115841783,"38":0.07656357697455103,"39":-0.08992062672243399,"40":-0.06811523851563232,"41":0.00013155371934049358,"42":0.05107880196165471,"43":-0.029353382151878996,"44":-0.045074358117455436,"45":0.00467335078635806,"46":-0.11158257029715489,"47":-0.05891552547438093,"48":-0.04910874047136724,"49":0.05947992735900977,"50":-0.07994067674774047,"51":-0.08723825237169758,"52":-0.0022176411886833786,"53":-0.0886396509137406,"54":-0.11251082247154662,"55":-0.02816772704857233,"56":-0.07702954156415594,"57":0.019549281547096918,"58":-0.08937707651698377,"59":-0.04646549066546833,"60":0.06238141128577684,"61":-0.052133559243276416,"62":-0.09304947783183493,"63":0.019833290751467815,"64":0.0012158594488115146,"65":0.09723319300225204,"66":0.0367634737495576,"67":0.029769838162496943,"68":0.06317543122465386,"69":0.030873371668475914,"70":-0.037845658331688264,"71":0.0303981697559483,"72":0.0487402057093381,"73":0.11605507218862858,"74":0.09760906751607965,"75":-0.07457237087257808,"76":0.07676864314787508,"77":-0.153345339712597,"78":-0.1347481826804447,"79":-0.10761679697835835,"80":-0.0872545591476823,"81":-0.02160155919917831,"82":0.021347586956581465,"83":-0.03820006554196738,"84":-0.012321567990421297,"85":-0.035813203484411436,"86":-0.07477069360688168,"87":-0.04991281960712604,"88":-0.09140403216971366,"89":0.03622732095403441,"90":-0.058476263106982625,"91":-0.019382716770299728,"92":-0.03056073890198781,"93":-0.023702494811034362,"94":-0.01719161033380014,"95":0.04205663423670946,"96":-0.08068390188291906,"97":0.07229922446000468,"98":-0.08978670358184351,"99":-0.02928782477442334,"100":0.11222399594965199,"101":0.02663996300894235,"102":0.15440947897505486,"103":0.03743143938640668,"104":-0.06919158796362616,"105":0.2988789845138662,"106":-0.007991605345433835,"107":-0.050050435082357195,"108":0.2761013001890838,"109":-0.14256103912637552,"110":0.030259224975793923,"111":0.04539062050699414,"112":-0.1399730427816201,"113":0.32405512344928605,"114":0.08962578158981127,"115":-0.10094926588428385,"116":0.4510309492511554,"117":-0.13162913648783572,"118":-0.10086897715522666,"119":0.12459411188909406,"120":-0.03498349831314593,"121":-0.02537519042329229,"122":-0.044124402994706796,"123":-0.0003083457877802564,"124":-0.005196991520402132,"125":0.032143904758838396,"126":-0.010134705899583412,"127":-0.008566636816140921,"128":0.021414733648674644,"129":0.026790444161982896,"130":-0.06397453481075158,"131":0.05840788515641586,"132":-0.05264664730952077,"133":0.021860141847096823,"134":0.057962817073922056,"135":-0.012379614656366915,"136":0.13101183788558907,"137":0.02221824016266223,"138":-0.05041644591147753,"139":-0.035668170591398686,"140":-0.03596303698179218,"141":-0.014497207700030266,"142":0.19857790615543322,"143":0.09892058286825882,"144":0.17679078383861527,"145":0.01330410495430093,"146":-0.08426395768376994,"147":-0.19986368231815332,"148":-0.04007855205435744,"149":-0.13865106476620556,"150":0.3143737372234275,"151":0.08468951010920985,"152":0.11038195040179871,"153":-0.036820551749917385,"154":-0.09077039615088489,"155":-0.14792817368823624,"156":0.09379201024620898,"157":-0.14221268791559624,"158":0.2441433635637669,"159":-0.03086022713476839,"160":-0.06310167394191961,"161":0.05129216052557521,"162":-0.0313070052435391,"163":0.07803833938399335,"164":0.04445771998073998,"165":0.034777307883893424,"166":-0.07291607500641767,"167":0.025278227889182128,"168":-0.0364251543649361,"169":0.003232867356432743,"170":0.06722475104106543,"171":0.10723789836952867,"172":-0.03221736598348288,"173":0.0748297327798986,"174":0.003712749871377768,"175":0.060737469120018955,"176":-0.03483966796645641,"177":-0.08644218172704778,"178":-0.022129664785311545,"179":0.07275387651663362,"180":-0.12228265968165965,"181":-0.010982421660492953,"182":0.04954238177923568,"183":0.022820298499925413,"184":0.11585273708957458,"185":-0.035301802372535725,"186":-0.15805402073700953,"187":-0.1169978181007371,"188":-0.0868104586094765,"189":-0.09600695121055614,"190":0.10970660305823389,"191":-0.00019817817452061004,"192":0.06676497146987896,"193":-0.024190697903236868,"194":-0.21273551556214373,"195":-0.1987723884985488,"196":-0.09147388413722868,"197":-0.10528939594289793,"198":0.11222771459775877,"199":-0.03865833089961959}},{"sx":5,"sy":5,"depth":8,"w":{"0":-0.06378908900365289,"1":-0.013506230116934434,"2":0.0064699597644854836,"3":-0.015295578683151949,"4":0.003159201263096794,"5":0.0031019710340238447,"6":-0.04926039295493742,"7":-0.030341577148771174,"8":0.019294555944182407,"9":-0.06704021754625852,"10":-0.0018466184879868978,"11":0.02552191005127769,"12":-0.06679752427850519,"13":-0.011221168678275948,"14":0.05156557917328274,"15":-0.0429855258222671,"16":0.12645076747755113,"17":-0.08850712228766844,"18":-0.06529925334375267,"19":0.08173075379563687,"20":0.004070056973386434,"21":-0.0012031148083287634,"22":0.20996996982032032,"23":-0.15259117082586163,"24":-0.07568636173304395,"25":0.00022792656914505548,"26":-0.05947456693689601,"27":0.11418122620867904,"28":0.17058863778966463,"29":0.08526936124398582,"30":0.022099678603256432,"31":-0.1617046043375926,"32":-0.17334094212454465,"33":0.22925862876372016,"34":0.11739097097612254,"35":0.15905058550974654,"36":0.4516720822843554,"37":-0.01722742591062542,"38":-0.14471296261048383,"39":0.004260017835004133,"40":-0.09538814537271509,"41":0.009209864016381018,"42":0.0441394324757232,"43":0.03725624109612988,"44":0.025061979107359585,"45":0.022081960179822335,"46":-0.07495450507687802,"47":0.02796938250615275,"48":0.040814801481737405,"49":-0.010551469949206102,"50":-0.0005457880425697327,"51":0.03619935143472609,"52":-0.013708934120216057,"53":-0.037931447764968276,"54":-0.02282171811644571,"55":-0.018654948897078,"56":0.11399728150841705,"57":-0.026136517188164822,"58":-0.019889387910725923,"59":0.0004648095315962533,"60":-0.02155019965411953,"61":-0.09591857611527733,"62":0.11245327984204255,"63":-0.07936445089037893,"64":0.15872092886436973,"65":-0.11734045126541029,"66":-0.09478720928060871,"67":-0.14090711266185874,"68":-0.09271487132819378,"69":-0.11064632613471714,"70":0.2447115563147162,"71":-0.11989416775837633,"72":-0.06969300820408603,"73":-0.0768371572634959,"74":-0.05842039263419667,"75":0.12625441034037863,"76":0.1631335902576008,"77":0.028037124490613595,"78":0.03578908653001693,"79":-0.09342987608205407,"80":0.01033912754897111,"81":-0.06183397965755214,"82":-0.009348499408712761,"83":0.0014809813041212494,"84":-0.07184825842879437,"85":0.037186212545221316,"86":0.03729218616949382,"87":0.005951409338697178,"88":0.0015541744467331892,"89":-0.10446997725375712,"90":-0.04972876959484465,"91":-0.02032681157583061,"92":-0.11215822822225309,"93":-0.030908635019419865,"94":0.026167517952756066,"95":-0.010274261798513078,"96":0.02855001340194003,"97":-0.05390762867256747,"98":-0.03736984078006296,"99":-0.022262901616905563,"100":-0.088415940267764,"101":-0.06543067315112876,"102":-0.09507301097668162,"103":-0.07944894683243665,"104":0.09216143895171838,"105":-0.03527223477823696,"106":-0.12538742361360725,"107":-0.09317132009299127,"108":-0.06743673039328137,"109":-0.057287521082462566,"110":0.04334495768784235,"111":-0.09815169817287223,"112":0.12205056788647611,"113":-0.038732780638301836,"114":-0.11085218651242028,"115":0.11121100180766877,"116":-0.09031710566126229,"117":0.07842320750628515,"118":0.09089726183857327,"119":-0.08767904718391997,"120":0.067196225671006,"121":-0.05005496518505818,"122":-0.018309922576548156,"123":-0.0075402702973501505,"124":-0.07919935899224376,"125":-0.023336198944250975,"126":-0.01925777236251186,"127":-0.04051101611456631,"128":0.037167503893574434,"129":-0.01799807804773125,"130":-0.046280687234866134,"131":-0.04713309478344404,"132":-0.0801253175610745,"133":-0.08407629615180674,"134":-0.0989160501305645,"135":-0.08999305015140492,"136":-0.07660298313207643,"137":-0.011761468888631497,"138":-0.04689324698276265,"139":-0.03940819308263261,"140":-0.07972204320629128,"141":-0.08234396443957578,"142":-0.10618189989485141,"143":-0.0502779927231326,"144":-0.08227552830316004,"145":0.001054892804259325,"146":-0.06838332979800861,"147":-0.03944915618642197,"148":-0.040954938474185874,"149":0.0042508918619734454,"150":0.029608998955671963,"151":0.04455652912027006,"152":0.005190379907860714,"153":-0.011046636292846662,"154":-0.07417892185158835,"155":0.014384608723833386,"156":-0.06118662278757614,"157":0.10396533531396909,"158":0.028370067824664967,"159":0.0689333889224263,"160":-0.02308486859369122,"161":0.02360670563921154,"162":0.0064747791329758985,"163":-0.019754854979806717,"164":-0.02672175391024029,"165":-0.024019658924930288,"166":-0.13228708193794203,"167":-0.040293390392810186,"168":-0.0168161128901135,"169":0.020344440751931425,"170":-0.0038995623387510676,"171":-0.013012107356783927,"172":-0.025461669126166986,"173":-0.0319573063730721,"174":-0.0738248812800488,"175":-0.007603897801407296,"176":-0.07940767765347077,"177":-0.012747049149795289,"178":-0.028587079473459252,"179":-0.006317750012733183,"180":-0.042359428918143156,"181":-0.014592015080139199,"182":-0.04721528376379464,"183":0.044485645816671256,"184":0.0011550101407656603,"185":0.02983943824993563,"186":-0.0033534439226579255,"187":0.02340194218758373,"188":-0.017902590999529466,"189":0.10522915302106627,"190":0.00903372101859784,"191":0.04655023203271972,"192":0.02617012899324335,"193":0.02211295492260515,"194":-0.03974299928273028,"195":0.07112729920358048,"196":0.002083207047215609,"197":0.09563365386731416,"198":0.0023950099621446964,"199":0.02532928634652868}},{"sx":5,"sy":5,"depth":8,"w":{"0":-0.027621268582837012,"1":0.004586130992034951,"2":0.08765961497253533,"3":0.1881027513641244,"4":0.02472336948253697,"5":0.053059616079570195,"6":-0.09720439554763625,"7":-0.039302366349149506,"8":-0.04534074196893845,"9":0.010209547108781233,"10":0.12557837475422506,"11":0.04444802934317491,"12":-0.004128612025017702,"13":-0.06327551944426456,"14":-0.12733547201796522,"15":-0.05805497605742755,"16":-0.08106277746582824,"17":-0.05866822041107662,"18":-0.03194858412603849,"19":-0.04491406876111685,"20":-0.09725632669694854,"21":-0.07712286480058105,"22":-0.12625327061066208,"23":-0.10057285420752693,"24":-0.10025858083195795,"25":0.02886891724296486,"26":-0.055013335238342925,"27":-0.05789128853346153,"28":-0.07432155953883539,"29":-0.07626416717005656,"30":-0.14534477815729605,"31":-0.06606539273148673,"32":-0.11091881167635984,"33":-0.008820312815313008,"34":-0.05014949261482296,"35":-0.09894505917695844,"36":-0.05143751312066047,"37":0.022111687203937257,"38":-0.019751878422106083,"39":0.142701006877969,"40":-0.05134527530548516,"41":-0.0408691948367139,"42":0.06486135455048868,"43":0.23455364327094463,"44":-0.07349666003220903,"45":0.10441563975487736,"46":-0.06336677257128201,"47":0.010444112253623761,"48":-0.04225263927384375,"49":-0.03588001104712282,"50":0.054625642691296675,"51":0.025463412247194332,"52":-0.051525896735101176,"53":-0.056084207113378026,"54":-0.14142604780537624,"55":-0.06591365706637303,"56":-0.14526745924358828,"57":0.031592118636208366,"58":-0.04471051733766293,"59":-0.035960196804346777,"60":-0.0920904938822331,"61":-0.04656022574369005,"62":-0.1865053138180671,"63":-0.06811451645122882,"64":-0.16688048299906005,"65":0.013042426062156607,"66":-0.029031092696007395,"67":-0.044311666433916534,"68":-0.041934747393879465,"69":0.044244249406116785,"70":-0.0912921393800403,"71":0.0673191003667225,"72":-0.08088768924677915,"73":-0.0516425203542569,"74":0.030624669409655393,"75":0.059089424599309076,"76":-0.13318143570005317,"77":0.23791320489390966,"78":0.11685193710305519,"79":0.11528505683460555,"80":-0.042903740810796176,"81":-0.037472033954672315,"82":0.048395672402817703,"83":0.15209186292028457,"84":-0.09774389274597306,"85":0.03028902382354237,"86":-0.04745432295173903,"87":-0.009487443907695922,"88":-0.05997993493905605,"89":0.014655181190967896,"90":0.05405876251590312,"91":-0.002984347248181962,"92":-0.02803600460456351,"93":-0.029419505085603436,"94":-0.16561968080359515,"95":-0.03725702045565584,"96":-0.23343765994560903,"97":0.006708021665350584,"98":-0.11816444017784587,"99":-0.027157422667175815,"100":-0.03777615625312802,"101":0.014864280845705393,"102":-0.17075654304897198,"103":0.03517429176946891,"104":-0.15878222235586412,"105":-0.05042176368276604,"106":0.03981126404333242,"107":0.024402444125039394,"108":-0.1281954455222995,"109":0.1402161131498642,"110":-0.07612909695195585,"111":0.07684770080644342,"112":-0.07985075895513681,"113":-0.07492474907235834,"114":0.04297936269789651,"115":0.1386634004832399,"116":-0.07642168831154547,"117":0.1647565680509896,"118":-0.0524462747383952,"119":0.02457818485326383,"120":-0.03295032654254391,"121":-0.003821440176542633,"122":-0.02860534939191964,"123":0.03943881668046393,"124":-0.01686057701289054,"125":0.016467893868340137,"126":-0.0574714660404524,"127":-0.027979481275838824,"128":-0.1146849546365737,"129":0.02375924713536034,"130":-0.040109386002352025,"131":-0.011910971415306882,"132":0.010450587783959474,"133":-0.021369848996055256,"134":-0.08749990942240583,"135":-0.028852710451839205,"136":-0.15161230507452853,"137":-0.005543749508249229,"138":0.007103555046764269,"139":0.034640803388354464,"140":-0.038434295440845936,"141":0.16223465188025418,"142":-0.03456560540656547,"143":0.07980030567143798,"144":-0.08594264154520533,"145":-0.032357808423236385,"146":0.028262644154244364,"147":0.06522102851498697,"148":-0.06796349242720044,"149":0.2266131910156723,"150":-0.010300221194898202,"151":0.031404563649318123,"152":-0.1137267407458392,"153":0.029027827889287348,"154":-0.007267289880089641,"155":0.14750321330327926,"156":0.06213843912746097,"157":0.07679450460511887,"158":-0.0747660692581442,"159":-0.07255287861776093,"160":-0.04161318302289772,"161":-0.0034790248361453004,"162":-0.058886333607996284,"163":-0.02584405913808715,"164":0.035336281242989424,"165":-0.015678274451417572,"166":-0.046163693291730874,"167":-0.020589551036004638,"168":-0.09752047616015473,"169":0.0006425311876423647,"170":-0.026879235052228775,"171":-0.015901920055915657,"172":0.019990070297961137,"173":0.04755088726581126,"174":-0.055464221195498695,"175":0.018809609219782083,"176":-0.048505117535152,"177":-0.03701699813793846,"178":0.07258286714267767,"179":0.1469292432458353,"180":-0.05885519353257815,"181":0.15918508275431253,"182":-0.040421895744214106,"183":0.05457768907942509,"184":-0.027384426029274312,"185":-0.03225255773857248,"186":0.08651799335424881,"187":0.11776795166453913,"188":0.002014353048583884,"189":0.1500145059989942,"190":0.11636786709229724,"191":-0.04818376274748867,"192":0.00510026340606158,"193":-0.06952097869257534,"194":-0.08110523962134536,"195":-0.04572581445244986,"196":-0.08488731224320685,"197":-0.04825683713122423,"198":0.007386083357448618,"199":-0.07353417347287793}},{"sx":5,"sy":5,"depth":8,"w":{"0":-0.00018595168718509153,"1":-0.000007435336714612986,"2":-0.00012461966979713753,"3":-0.000023566338170942323,"4":-0.000015149022798097588,"5":-0.000008001244815644897,"6":-0.000021769329834133646,"7":-0.0000010050678011407154,"8":-0.00014278469914116114,"9":-0.00000887083355406917,"10":-0.00012264021332117044,"11":0.0000016552765750979796,"12":-0.00000809680540881864,"13":0.0000027391479957369613,"14":-0.000007380646060417272,"15":-0.0000034609119121000102,"16":-0.00011908351106321304,"17":-0.000014169634759691474,"18":-0.00015441883428442358,"19":0.000001013934146122982,"20":-0.000013628244386631053,"21":-0.000005530383000139771,"22":-0.000012396308670011712,"23":-0.0000035917084109331195,"24":-0.000052361055837698156,"25":-0.00001681637748078763,"26":-0.0000283147725478334,"27":-0.000005595976531083711,"28":-0.000008559474914389507,"29":-0.000008922698801088243,"30":-0.000015035059665282368,"31":-0.000003946288050246831,"32":-0.000025559205562034842,"33":-0.00003188906075377014,"34":-0.000019057802479638513,"35":-0.000005764133540961798,"36":-0.0000223328969372031,"37":-0.000009167817851230482,"38":-0.000021326943774409218,"39":-0.000010586886421644894,"40":-0.00011191614568945307,"41":-0.0000073670760259344755,"42":-0.00011860454739210432,"43":-0.000010304315835091768,"44":-0.000010121502812892124,"45":-0.000006228178553046832,"46":-0.00002427641031422469,"47":-7.283717031495839e-7,"48":-0.000073521879679711,"49":-0.000012662976955985311,"50":-0.00012411180400498798,"51":-0.0000059133696425164205,"52":-0.000013239453595621148,"53":-0.000001628292755472894,"54":-0.00002446354294241544,"55":-0.000005708242767857823,"56":-0.00009545845575454289,"57":-0.00002362143836930122,"58":-0.0001704385308693992,"59":-0.0000013999971519407816,"60":-0.000022594847006893423,"61":-0.000004833442513193334,"62":-0.00003682908222441107,"63":-0.000007220206746103082,"64":-0.00004696115465093612,"65":-0.00001803555907523275,"66":-0.000030606305791955456,"67":-0.000002736236213380099,"68":-0.00001288717131434501,"69":-0.000009689211059358677,"70":-0.000031338965475374775,"71":-0.000010216136098428253,"72":-0.00007017768209076968,"73":-0.000019742785938470112,"74":-0.00002527844181651426,"75":-0.00000778178849344811,"76":-0.000020559697021108475,"77":-0.000021009100689825948,"78":-0.00009127750495259904,"79":-0.0000255331217847312,"80":-0.00010906830165371937,"81":-0.000008635622933754314,"82":-0.0001226821201059873,"83":-0.000005246497859509946,"84":-0.0000023038282486914193,"85":-0.000005526718640848422,"86":-0.00003238795665700251,"87":-0.000004370692306392883,"88":-0.00010396413751708502,"89":-0.0000053545839236956095,"90":-0.00013287989596046015,"91":-0.000009711914542518978,"92":-0.00000802196677572973,"93":-0.0000055841367817839865,"94":-0.00003157122105102357,"95":-0.000004730453677206414,"96":-0.00011594171412303961,"97":-0.0000151316482015456,"98":-0.00018432261361527112,"99":-0.000006593462471421839,"100":-0.000025011599505559157,"101":-0.000009574350025522627,"102":-0.000038512773496218634,"103":-0.000009107478206286062,"104":-0.00006022034824099121,"105":-0.000005847789672227163,"106":-0.000034494884824549396,"107":-0.0000027300476450099794,"108":-0.0000025489775773922643,"109":-0.00001239695349040916,"110":-0.000037468026862154686,"111":-0.000013723867604274566,"112":-0.00009175168826511188,"113":-0.0000075292159386366146,"114":-0.000036921211397683654,"115":-0.000008169540581903002,"116":-7.604491222205978e-7,"117":-0.000027145231147865776,"118":-0.00006811424546873177,"119":-0.000012027583791671341,"120":-0.00001448899169965308,"121":-0.000025048054332105843,"122":-0.00003580402597027496,"123":-9.219893128324038e-7,"124":-0.000006748794514294487,"125":1.9504322291862475e-7,"126":-0.00000390992644143262,"127":-0.0000042251640850375285,"128":-0.00001574739020230576,"129":-0.000010014943733633954,"130":-0.00003632175809544162,"131":-0.00000469662302459553,"132":-0.00000833439256767699,"133":-0.000007533448073824203,"134":-0.000007132670697105172,"135":-0.000005450489827092048,"136":-0.00003362392587572712,"137":-0.000017691531115839833,"138":-0.00008557891156725427,"139":-0.000011658490090934731,"140":-0.000025256993483043144,"141":-0.000008329169236590056,"142":-0.000011405239136413884,"143":-0.0000032155217934562193,"144":-0.00003394152781507339,"145":-0.000015894615174947045,"146":-0.000029350818014356,"147":-0.0000034521332601050045,"148":-0.000009407464369218959,"149":-0.000007654247537074233,"150":-0.000010092741717298143,"151":-0.0000030301377546078816,"152":-0.0000306013526821568,"153":-0.00003843137147117428,"154":-0.000027543189083806345,"155":-0.000005841740887109193,"156":-0.000023382721362691607,"157":-0.000007408579376504548,"158":-0.000005028876296426317,"159":-0.000006449948592119327,"160":-0.000009468773603231359,"161":-0.00004067985767970563,"162":-0.000057523897100533465,"163":-0.000004999290933744949,"164":-0.00003723920454898133,"165":-0.000007277355667012557,"166":-0.000005690829501156005,"167":-0.000030994953274934035,"168":-0.000014302786138987847,"169":-0.000025545037379055502,"170":-0.00004049866104920245,"171":-0.000008581122230076124,"172":-0.000024450460429293794,"173":-0.00001080742737168366,"174":-0.000006056214368458811,"175":-0.000009663205923942885,"176":-0.000026934529385180596,"177":-0.00003787545970979886,"178":-0.00009305263038076888,"179":-0.000011074212919861642,"180":-0.00004765935859053384,"181":-0.000006413837101924805,"182":-0.000008001311703523715,"183":-0.000012404586587899587,"184":-0.000023721502514134195,"185":-0.00003996810295117751,"186":-0.000037169136096943695,"187":-0.000004426965329525058,"188":-0.00003194264116052995,"189":-0.000006671501030068506,"190":-0.000015759017995500644,"191":-0.000014650786054867337,"192":-0.000024184257364635955,"193":-0.00003974512453912344,"194":-0.000027760921267018613,"195":-0.000003873884225925803,"196":-0.00004101488853569241,"197":-0.000015834169733487896,"198":-0.00003606399595103974,"199":-0.00002785823477029634}},{"sx":5,"sy":5,"depth":8,"w":{"0":0.04938572217109097,"1":-0.004713357421784417,"2":-0.025179967410389335,"3":0.045958979026703636,"4":0.21383744422150613,"5":0.0702056228063712,"6":0.12251873392937182,"7":0.17659296631483998,"8":-0.05706561258531488,"9":0.04168805479303502,"10":-0.11828311356452549,"11":-0.08886789785512103,"12":0.014738312257399354,"13":0.12565915087792107,"14":0.007092862593907199,"15":0.09051959578885936,"16":-0.06676766133809463,"17":0.025717459147104174,"18":-0.10321955422136579,"19":-0.02142815188908488,"20":0.16790580169331118,"21":-0.01911273130014328,"22":-0.12285194671652933,"23":-0.04169697543648417,"24":-0.08484231726031118,"25":0.03703866464099927,"26":0.0761817263771318,"27":0.06819073063698859,"28":0.1221133741603597,"29":0.04271727533520247,"30":0.05951278165887462,"31":0.04413907802643998,"32":-0.09370144041561433,"33":-0.009339213603702169,"34":0.06272806877265771,"35":0.049003860631970514,"36":0.043757405162761415,"37":0.06253491489421158,"38":-0.05517851860206744,"39":0.019993948481303356,"40":-0.11186192776329644,"41":0.29237549204604985,"42":-0.03874234425681221,"43":0.1861980698822255,"44":0.31823262045966866,"45":0.0950086185193988,"46":-0.08883582885590995,"47":0.07324636135614224,"48":-0.10589242693609205,"49":0.1995550155134863,"50":-0.07350039673016547,"51":0.011185382621414828,"52":0.26602453043863244,"53":0.06748187718359704,"54":-0.08355895877872764,"55":0.1317976072761952,"56":-0.057159411562276115,"57":0.005291137033677647,"58":-0.014395075488074753,"59":-0.07698185270547224,"60":-0.033908395181724255,"61":0.16518932501889927,"62":0.25038911259881735,"63":0.26012430029102834,"64":0.12056905483013612,"65":-0.09298527137163828,"66":0.0532141681392454,"67":0.017601302897283306,"68":-0.0971700527228281,"69":0.13363173332311934,"70":0.20924542568029852,"71":0.17080010515234495,"72":0.10480922820559153,"73":-0.05855452393142815,"74":-0.043924833210479526,"75":0.04023173838909751,"76":-0.02907271687118331,"77":0.022589403013283976,"78":0.0768584658686285,"79":-0.07471723572208633,"80":-0.0025556704977280913,"81":0.06681330076191895,"82":-0.10883772636675974,"83":0.0008452935229262064,"84":0.19602796313779006,"85":-0.06090515783647856,"86":0.418443387315821,"87":0.12204908845179571,"88":0.05279915788600905,"89":-0.00032961991102278034,"90":-0.07491682959537793,"91":-0.1385646924582555,"92":0.06576943314472523,"93":0.06990870409054027,"94":0.4192085727646621,"95":0.20701943060907113,"96":0.11048653245832138,"97":-0.05610689531292529,"98":-0.13611067208659597,"99":-0.0871330130641436,"100":-0.10645325803824082,"101":0.09501873228501155,"102":0.31820040136331235,"103":0.16023451251695092,"104":0.04370711441507962,"105":-0.0942653486787659,"106":-0.023523868177395775,"107":-0.04258030135394349,"108":-0.09117554344898027,"109":-0.05223824339427306,"110":0.038533014143224666,"111":0.015980380718428232,"112":-0.032349586372116115,"113":-0.06444938006067162,"114":-0.03221155623442879,"115":-0.011931721800537379,"116":-0.042901924151201955,"117":-0.04871913256622114,"118":-0.13075797961352426,"119":-0.08667051186488399,"120":0.3038348282077126,"121":0.03152604877215406,"122":-0.16527365240650982,"123":-0.10048159996936559,"124":0.00667541394452729,"125":-0.22793614245269403,"126":0.19541102196633986,"127":-0.19539933855269884,"128":0.23786276560337946,"129":0.028650529740478124,"130":-0.1277566044626478,"131":-0.14527304118704604,"132":0.08585738917434603,"133":-0.17175964366627827,"134":0.1385812926067919,"135":-0.08640650971795183,"136":0.17187681231179766,"137":-0.014136534199019498,"138":-0.04512674959189516,"139":-0.07605755625395275,"140":-0.025201777313423896,"141":-0.12347991844319499,"142":-0.14062179816920906,"143":-0.012254776942053474,"144":0.027791509904417196,"145":-0.059697407132322605,"146":0.009278993964276916,"147":-0.05171382837037271,"148":-0.15079285022876554,"149":-0.13318855471414426,"150":-0.10122736850202786,"151":-0.06378467926642066,"152":-0.12744630206729554,"153":-0.10565747642437044,"154":-0.055332936898366776,"155":-0.018792326601960844,"156":-0.07667127278293007,"157":-0.1417871813914323,"158":-0.16183071600351437,"159":-0.1397778903643548,"160":-0.19177094511698753,"161":0.04642512687270392,"162":-0.015409516430060489,"163":-0.03563810566388471,"164":0.13189581223558536,"165":-0.13001509996815125,"166":-0.25129506199633966,"167":-0.08962910783270295,"168":-0.1873197632545318,"169":0.011542050300265715,"170":0.032094598565361974,"171":0.011575364911968809,"172":0.03896209124015817,"173":0.02400800140622471,"174":-0.16706210710626104,"175":0.022419972293826893,"176":-0.18008532338744176,"177":-0.03155652729131872,"178":0.13871134858610318,"179":0.07826379547276953,"180":-0.036479664216654474,"181":0.019912581831997025,"182":-0.119267557373226,"183":0.05687509546933609,"184":-0.08538769960359613,"185":-0.007476358617370204,"186":0.07070317352402747,"187":-0.004379158486215276,"188":-0.05653473130515288,"189":-0.08801617020632833,"190":-0.10513974935971351,"191":-0.043244764942853085,"192":-0.1127945460559895,"193":-0.045497481050909,"194":-0.04697084713451334,"195":-0.05593764184037235,"196":-0.03662958411624776,"197":-0.0841989451750259,"198":-0.1866279628778703,"199":-0.0880023681747204}},{"sx":5,"sy":5,"depth":8,"w":{"0":-0.07837161454355113,"1":0.1463139963289002,"2":-0.02271002464649766,"3":-0.06323410702502905,"4":0.10278878033643848,"5":-0.14941199233154193,"6":-0.09840565086691737,"7":-0.007078207531257088,"8":0.05030665011550728,"9":0.03367047002900689,"10":-0.006081142601175945,"11":-0.08029464452068463,"12":0.04256508087173531,"13":0.007982607016816782,"14":0.016692844848326914,"15":0.023111181203427714,"16":-0.0340307564862475,"17":0.009739003136579936,"18":0.042627713751849164,"19":0.060429257025518324,"20":0.04240705779239101,"21":-0.011049374456453077,"22":-0.04048880968851486,"23":-0.03618301281581936,"24":-0.1259772751626316,"25":-0.08174251331498171,"26":0.14283017873031248,"27":0.04763480206307793,"28":-0.09828628114806338,"29":0.008756167249650297,"30":-0.19063269910407002,"31":0.019356224449156807,"32":-0.1619463657941143,"33":0.08695568994965315,"34":-0.06991560990182685,"35":-0.016005008788733573,"36":-0.015376344456622677,"37":0.017518535266664553,"38":-0.24319226199507069,"39":-0.08689015816784243,"40":-0.07053008563275294,"41":0.08509565645239302,"42":-0.003830992737099196,"43":-0.05044163670818656,"44":0.15260965906948132,"45":0.029769791878780264,"46":0.022757476064457095,"47":0.18661456389616252,"48":0.009290419042503,"49":0.07521512981432561,"50":0.03303031199194844,"51":-0.050881362462555785,"52":0.13600705434818186,"53":0.007362584665965609,"54":0.04442977515900411,"55":0.10252175158163297,"56":-0.041362300117240895,"57":0.1128467104022901,"58":-0.03755670313648419,"59":-0.021757140121396276,"60":0.021330985752027836,"61":0.03427984486607499,"62":-0.05253991093071636,"63":0.036713136769656846,"64":-0.10918720494380041,"65":0.01411392821571567,"66":-0.03086249848486487,"67":0.014465165757211544,"68":0.09347383175564677,"69":-0.11490808107588373,"70":-0.17011532118751288,"71":-0.009914825656632511,"72":-0.21692783328464604,"73":0.12741525754194702,"74":-0.07969038384642395,"75":-0.07686118290481865,"76":0.11957676365073583,"77":-0.03341002870141645,"78":-0.0716815832607104,"79":0.12358087638178739,"80":0.026244354588991162,"81":-0.06585922771497645,"82":-0.05198970527218697,"83":-0.02425194597358113,"84":-0.10357587204700545,"85":-0.007958871029337539,"86":0.10646341234127676,"87":-0.03329433975744683,"88":-0.03902936896514981,"89":-0.11521546936345763,"90":-0.14371055538114064,"91":-0.06567895174775909,"92":-0.00017734440108726522,"93":-0.04525351258485944,"94":-0.034032516399772776,"95":0.0026239717050876854,"96":-0.13608967307450298,"97":0.08321352732600279,"98":-0.1046674696544933,"99":0.07523782053377609,"100":0.016288525150399195,"101":0.08647030006797375,"102":-0.29974529535120176,"103":-0.09691818256293736,"104":-0.1765659290706831,"105":-0.021574580058399098,"106":0.004230998663545354,"107":0.058858999524357906,"108":-0.08514430420254289,"109":0.09771851327851483,"110":-0.05995633532577185,"111":0.11853145224913514,"112":-0.05984653012630762,"113":-0.1124051336792543,"114":-0.04699727916901837,"115":-0.09907211926834757,"116":-0.09499715497881049,"117":0.18394630782420446,"118":0.17942947323057273,"119":0.1606000775873274,"120":0.048577823745680045,"121":0.023318000724938143,"122":-0.1116604240855417,"123":-0.07234124836710819,"124":-0.03772655266521503,"125":-0.013802664441808022,"126":0.007670637312230657,"127":-0.04134578625940873,"128":-0.10525797941659955,"129":0.07117836989299256,"130":-0.10724275913318136,"131":-0.012787223145007468,"132":-0.052885529884801094,"133":-0.007932358137039637,"134":-0.04171964746831264,"135":-0.02564586381193274,"136":-0.1975833871215104,"137":-0.14593901085374753,"138":0.029451485839724293,"139":0.254399756701664,"140":-0.18195545551497028,"141":0.3859476562520409,"142":0.06929897897995084,"143":0.27166185342484434,"144":-0.1161510021092095,"145":-0.08582797587893642,"146":0.01486199592262547,"147":0.18240316352499297,"148":-0.03936026328973254,"149":0.2347505720386169,"150":0.1179481283613071,"151":0.11010404223653149,"152":0.04720453773163301,"153":-0.01735532168877575,"154":-0.23942830933883308,"155":0.059080372582145005,"156":0.10394636640735427,"157":0.10986172855637391,"158":-0.11309398182820311,"159":-0.01313122256506923,"160":-0.027265348512874772,"161":0.07700745263348914,"162":-0.02568778183789333,"163":-0.05523250335731062,"164":0.02308333149859604,"165":0.044709941623334075,"166":-0.12178734058359027,"167":0.06987722486306507,"168":-0.07031827616360631,"169":-0.049351775762757906,"170":-0.03398241919227757,"171":0.11945990411638335,"172":-0.11368734676395725,"173":0.1900973824935352,"174":0.07449125704506356,"175":0.177743627112521,"176":-0.22121533992508152,"177":-0.14026619438976343,"178":0.06553788708674808,"179":0.31803876211485277,"180":-0.09009468635313499,"181":0.42332417746390527,"182":0.04277629887263805,"183":0.06742103228679679,"184":-0.12198300977397353,"185":-0.01629855574659575,"186":-0.06335202596560714,"187":0.14741562320281454,"188":0.23867896550520276,"189":0.21342220492036817,"190":-0.1789741569800558,"191":-0.19331238695207095,"192":-0.16427538061832914,"193":0.06456667368041809,"194":-0.047256530746062356,"195":0.07356402194886953,"196":0.0947935596104301,"197":-0.01894046705634026,"198":-0.01979069523015672,"199":0.025677316667288216}},{"sx":5,"sy":5,"depth":8,"w":{"0":-0.048418181906302656,"1":-0.05043543406933167,"2":0.033316495109723315,"3":-0.0024040571568599025,"4":-0.05506516092108836,"5":-0.018366959499603028,"6":-0.06629104882704562,"7":-0.04644951859589868,"8":-0.041830155420535295,"9":-0.07095625155714212,"10":-0.036340384037710394,"11":0.007423051673220751,"12":-0.06676476168312447,"13":-0.030293448666499627,"14":-0.0389183338737364,"15":-0.07238743563487914,"16":-0.1377888718880556,"17":-0.062211416570879544,"18":-0.06385542191326142,"19":0.012524027000114209,"20":-0.06116502522093095,"21":0.08917726227334014,"22":-0.005441910113395064,"23":-0.028002466090254707,"24":-0.06686618732824892,"25":-0.11540906673150432,"26":-0.026825266946341974,"27":0.11351248084954946,"28":-0.06880332028387671,"29":0.20756656771484328,"30":0.08648015483398999,"31":0.05517006619023147,"32":0.02403814714711772,"33":-0.10355891835117792,"34":0.01775675854415146,"35":0.0481759979993471,"36":-0.09833643355582422,"37":0.08937580840446882,"38":0.15489620649814048,"39":-0.00998001146154475,"40":-0.04255473159363924,"41":-0.07222179542110153,"42":-0.0005785551623110637,"43":-0.005833319401467492,"44":-0.10016037073213215,"45":-0.0706062093481193,"46":-0.06933927464456922,"47":-0.055284231937919745,"48":0.04873612227195747,"49":-0.09815120797865445,"50":-0.014243464127537415,"51":-0.07554818150988067,"52":-0.15482659512535513,"53":-0.021504692800316968,"54":-0.002253367800245511,"55":-0.06541355911152169,"56":-0.057360173291496105,"57":-0.08865372037447312,"58":-0.04219046623465433,"59":0.04703865104521036,"60":-0.19134039714667495,"61":0.20843202933494667,"62":-0.0919743645498684,"63":-0.020805943780246312,"64":-0.09897043536764188,"65":0.028987595751791006,"66":0.04170937181908354,"67":0.1810659074443565,"68":-0.062282892265534844,"69":0.16897515192653378,"70":-0.10008279953993712,"71":-0.08299976221051628,"72":-0.04793978190945184,"73":-0.00853045529629537,"74":0.013600449171230973,"75":0.07056493349826226,"76":0.006690332543610282,"77":-0.0939215022491106,"78":-0.060015820530308836,"79":-0.09358908050264474,"80":0.007533806623278509,"81":-0.10098316636793823,"82":-0.009388723429026429,"83":-0.04044145182811156,"84":-0.12174980508842682,"85":-0.13715560129901236,"86":-0.12371803148683908,"87":-0.09202880352724388,"88":0.0181117376734528,"89":-0.12968985289345866,"90":-0.0027128662141214887,"91":-0.04508490571142644,"92":-0.1644744001464931,"93":-0.10820094715974744,"94":-0.05254729968371059,"95":-0.05517727505997726,"96":-0.05731505529243172,"97":-0.08031121163973692,"98":-0.05425370041036354,"99":0.285100082656672,"100":-0.04618273463390065,"101":0.29362064000907273,"102":0.05187878409852427,"103":-0.12160768393579334,"104":-0.09712412268197398,"105":0.060204360309751036,"106":0.10361217473830125,"107":0.20491574926834358,"108":0.07361524974092122,"109":0.1744564990662112,"110":0.01886446130041188,"111":-0.07943916943449521,"112":-0.06740594442202007,"113":0.010761919766516866,"114":0.03343850155068749,"115":-0.00963801744225034,"116":0.08434260270086456,"117":-0.025103666153794706,"118":0.09194157377166752,"119":-0.06577559013731055,"120":0.017879402493622958,"121":-0.13212122015878075,"122":-0.058497763016883086,"123":-0.07624571284882276,"124":-0.15755125058681616,"125":-0.12261899794992098,"126":-0.15934028746151008,"127":-0.0720655575391488,"128":-0.010268602516918614,"129":-0.10582766577653258,"130":-0.03563921504607008,"131":0.031458870539685414,"132":-0.18885107599058323,"133":0.11177254763824357,"134":-0.021609673535737013,"135":-0.010654471347538306,"136":-0.1093189500489742,"137":-0.08978594607960406,"138":-0.00688746538123687,"139":0.25778823955144065,"140":-0.04434333384055339,"141":0.39532381477861606,"142":-0.07931507440331458,"143":-0.08650856706094713,"144":-0.07611474966246352,"145":0.02456258743983844,"146":0.06907301341834549,"147":0.16858783895768834,"148":0.1401823183881471,"149":0.03134820828795066,"150":-0.09872438426566127,"151":-0.13212188551324244,"152":-0.03030945224110326,"153":-0.012325765414322726,"154":0.012686595998593122,"155":-0.11164309706591792,"156":0.039920025884446965,"157":-0.11251526955953939,"158":-0.14613812751427077,"159":-0.04551565708943168,"160":-0.08644528029757005,"161":0.0007732173079611493,"162":-0.05186338462331167,"163":-0.0677949157468758,"164":-0.06847024787763914,"165":0.005875953928114321,"166":-0.16402852586517183,"167":0.025139703648367463,"168":-0.013643549258192982,"169":-0.04323457126006725,"170":-0.02246392736874035,"171":0.11330870795791854,"172":-0.09047168879829036,"173":0.11321459968177605,"174":-0.08256211158703416,"175":0.06129746206427635,"176":-0.03800695709781869,"177":-0.03759635025368501,"178":0.0042060969799792795,"179":0.16780962990291562,"180":0.03312841390053364,"181":0.20318336658763628,"182":-0.020355670973954274,"183":-0.03968935987821691,"184":0.008763307612635387,"185":-0.06374528857750286,"186":0.0560293583618488,"187":0.056094899326392854,"188":0.03335875536056696,"189":-0.09979851389685745,"190":-0.09702922596648784,"191":-0.0992591720010127,"192":-0.12137547841439653,"193":-0.04073045673124306,"194":0.0023726559646530475,"195":-0.10112839661009035,"196":-0.023790042366299762,"197":-0.10062443296405751,"198":-0.04016599972066205,"199":-0.05565814183679101}},{"sx":5,"sy":5,"depth":8,"w":{"0":0.08989673661995223,"1":-0.008989731341795516,"2":-0.13273423706180973,"3":0.029318169959397625,"4":-0.03056802788846732,"5":-0.00797416695934437,"6":0.005282921989483351,"7":-0.019049024482954785,"8":0.02369818189203117,"9":0.015484594788515894,"10":-0.1232889115435664,"11":-0.06774113275106754,"12":-0.012925032239440328,"13":-0.037997902356033016,"14":-0.009160997081299744,"15":0.02159103570016113,"16":-0.11469532714627183,"17":0.13977697981094309,"18":-0.1842818526605787,"19":-0.10068801738757203,"20":0.11852845125038432,"21":-0.12588480152461812,"22":-0.11344824752077066,"23":-0.020266081766066795,"24":-0.15123547975838522,"25":0.07696305191928228,"26":-0.13258507977506767,"27":-0.12150438766091816,"28":-0.02387337158053731,"29":0.03263786287616558,"30":-0.04442278643363319,"31":0.2336489067901114,"32":-0.1766018308244104,"33":0.10353319270290846,"34":-0.2006899758983446,"35":-0.10038285743653214,"36":0.0035298615857782944,"37":0.19332135188477756,"38":0.23926303682555367,"39":0.3332458238636968,"40":0.01727611216470825,"41":-0.03636423491471296,"42":-0.13653845204681894,"43":-0.00565201986394839,"44":-0.04817040412971886,"45":-0.021369775352899172,"46":-0.0504395726870526,"47":-0.08385834857225066,"48":-0.049875329426764876,"49":-0.03768221582476683,"50":-0.15239265534062954,"51":-0.030644295709835463,"52":-0.03430153353369291,"53":0.018066668667651862,"54":-0.0798999751080747,"55":-0.08355166947376888,"56":-0.1889490750690198,"57":-0.0887125291169911,"58":-0.1762711330482208,"59":-0.0183411626552149,"60":-0.07987383398583872,"61":0.06985801669893543,"62":-0.03643872540001939,"63":0.14568533812057705,"64":-0.1367634556434334,"65":-0.16181416213460761,"66":-0.06698132677001023,"67":0.17182394313324378,"68":-0.09615232914474066,"69":0.3918209153724784,"70":0.10941477318724428,"71":0.14941990938895833,"72":0.03843031402609923,"73":-0.04533812025879709,"74":-0.23948552162355935,"75":-0.028563615283895352,"76":0.009520022323262099,"77":0.10071670275988283,"78":0.20824667844687436,"79":0.06405619450282722,"80":-0.12332201398904502,"81":-0.05578062081343624,"82":-0.05246211783052076,"83":-0.06482753370794464,"84":-0.05754892340549736,"85":-0.08217505482579059,"86":-0.06285830499587057,"87":0.031479381124884624,"88":-0.06495694884492241,"89":-0.21664748834137706,"90":-0.07457650861157739,"91":-0.06901666336406265,"92":-0.20506400850606404,"93":-0.06654350421057197,"94":-0.04820928050796005,"95":0.04990273586195726,"96":-0.1171057309626554,"97":-0.23300608526630084,"98":-0.14670046623362612,"99":0.15199801113528577,"100":-0.11927334587178617,"101":0.06763210809040443,"102":0.004248901028559333,"103":-0.044154887167227354,"104":-0.21558411237545222,"105":0.0662369743726508,"106":-0.23194662941532634,"107":0.24656526574631216,"108":0.2495089187427015,"109":0.26271767809105756,"110":-0.07691779687189187,"111":-0.3191844108711879,"112":-0.06313886057835363,"113":0.18699634610080984,"114":-0.1392546072756432,"115":0.0918724087823603,"116":0.3110636889848596,"117":0.015417523766118171,"118":0.05194362617591963,"119":-0.03403821959947961,"120":0.060285166620371235,"121":-0.04680559588700047,"122":-0.005370732326171302,"123":-0.011295622260416154,"124":-0.027528921317520893,"125":-0.025481854830938767,"126":0.04541093365697097,"127":0.002251442839839679,"128":0.18295616828858377,"129":-0.10350401647517266,"130":-0.030712773892525923,"131":0.0020520581366125557,"132":-0.04924802998076125,"133":0.06868098332083486,"134":0.17756588776739343,"135":-0.04488863969558628,"136":0.16424556332575918,"137":-0.06510367180856981,"138":-0.06340414430001444,"139":0.010478624194043062,"140":0.031448949545822044,"141":0.007557039395579974,"142":0.22531103702540445,"143":-0.18588667278825655,"144":0.09266702227593,"145":-0.0180228208905626,"146":-0.09132706798369684,"147":0.08619820760559058,"148":0.19276689847496553,"149":0.06888664385435432,"150":0.031003480152557293,"151":-0.14119070910857998,"152":-0.03741481471736771,"153":0.05019068586549897,"154":0.04511666378560352,"155":0.1408619723498431,"156":0.2323318451304884,"157":0.07414667679982989,"158":0.17845939708430084,"159":0.058449903733362896,"160":0.058483064681675793,"161":-0.07422561580030745,"162":-0.013648599607178728,"163":0.04622029888785551,"164":-0.053834556418773126,"165":0.06936351436261269,"166":0.03635436309632216,"167":0.01933162310947683,"168":0.1244210315494859,"169":-0.07838175458290482,"170":0.05239516536382707,"171":0.05723631342918418,"172":0.016628051666949757,"173":-0.04885982821607373,"174":0.010569738165940675,"175":-0.031961379566307895,"176":0.1357046164544416,"177":-0.0808518223899987,"178":-0.009924239809284897,"179":-0.10990221408831036,"180":-0.08975287907874992,"181":-0.1423479942844991,"182":0.03889999475482914,"183":-0.116750799074387,"184":0.08341430441624853,"185":-0.1707183229601984,"186":-0.1474742968421895,"187":-0.09725148812671428,"188":-0.17106089736895155,"189":-0.06417650353566051,"190":0.026372070847696518,"191":-0.13465028912088672,"192":0.032483638070139986,"193":-0.0922469661272553,"194":-0.07659010691758174,"195":0.03376010088585332,"196":-0.05362941423688217,"197":-0.10837893258312323,"198":-0.02615167160087481,"199":-0.10543208720394195}},{"sx":5,"sy":5,"depth":8,"w":{"0":-0.12281057744161078,"1":0.03690591702670629,"2":-0.06857528037873648,"3":-0.06611869276157317,"4":-0.01801015504658144,"5":-0.02757704840641662,"6":-0.104133804660093,"7":0.009252142511853027,"8":-0.15903548401020903,"9":-0.10149892034393647,"10":-0.05666562033591225,"11":0.04863716792630375,"12":-0.012478150187443953,"13":0.09710684197727891,"14":0.136091221509119,"15":0.18733691879717326,"16":-0.09761214998722041,"17":-0.017651197264404603,"18":-0.1239947625858623,"19":0.016281747416208782,"20":0.0738831694278798,"21":0.16513898469883942,"22":0.07042343413276791,"23":0.2143555628433556,"24":0.05529427941977191,"25":0.018382933953803735,"26":-0.12232624230538981,"27":-0.05106192278561032,"28":0.07400053737257149,"29":0.09915567492259689,"30":0.077080525850794,"31":0.10584903733609917,"32":0.05360601648927924,"33":0.015914648518598553,"34":0.038316272049004986,"35":-0.020565832345768403,"36":0.14173531513721044,"37":-0.04775429776592194,"38":0.0192019523752109,"39":-0.1097292108375268,"40":0.0146383267637327,"41":-0.2008175767790315,"42":-0.14376293399215762,"43":-0.03660223320642962,"44":-0.04942253184219967,"45":-0.019461985450690902,"46":0.11698159208291983,"47":-0.0471063719927696,"48":0.03416469246964451,"49":-0.0524687719131996,"50":-0.1393466773807192,"51":0.11403493805120886,"52":0.07367904496808121,"53":0.24033793835118608,"54":0.07573142007109088,"55":-0.043463466253591085,"56":-0.10050958061820255,"57":0.11675959681056283,"58":-0.19456048276758495,"59":0.13564456127615826,"60":0.3825541121182109,"61":0.1428089180188542,"62":0.016119523246086252,"63":-0.06753974070674111,"64":-0.18016743515848432,"65":0.27083413250447885,"66":-0.06160082009001762,"67":0.0864978202289286,"68":0.4592555712754068,"69":0.06754146904352584,"70":0.04628671481906376,"71":0.08128053347108409,"72":-0.08764120425323589,"73":0.21583243399348553,"74":0.04802918619555288,"75":0.032215747334000955,"76":0.33117646498160425,"77":-0.06610558632871313,"78":-0.0036833493866551942,"79":0.027907919591198933,"80":0.07373938274557568,"81":-0.04684284624987367,"82":-0.13121519961881659,"83":-0.09401964210982718,"84":0.00332447321068425,"85":-0.10109515629744859,"86":0.009778811390194998,"87":-0.18958042192893554,"88":0.14279265620714957,"89":0.03828817637237377,"90":-0.044108136146976895,"91":0.0029490002434282665,"92":0.037706624187695104,"93":-0.005503762810702171,"94":0.2908353641957466,"95":-0.08248721167561937,"96":0.1876874738437268,"97":0.06256369388609333,"98":-0.06171861441550146,"99":-0.170945617842374,"100":0.20727663780579209,"101":-0.06378112370781114,"102":0.47548991303703936,"103":0.021586773580418647,"104":0.06798274023497397,"105":0.013077282977968537,"106":-0.11133110592561844,"107":-0.0018019605269415098,"108":0.3196783786973381,"109":-0.023879146218696128,"110":0.28291944323604956,"111":-0.029515842876733315,"112":-0.13003707679939908,"113":0.12572806411790094,"114":-0.006338010663679323,"115":0.15101872708932976,"116":0.3855785145051973,"117":-0.009309280618748559,"118":0.10347851466982592,"119":-0.024958276898209838,"120":-0.012481691366079245,"121":0.0010899111417273873,"122":-0.027055718792375828,"123":-0.03693774391531825,"124":-0.03625225480595307,"125":-0.06472182819663173,"126":0.006278588594578855,"127":-0.007430159017436676,"128":0.22294414298403384,"129":-0.02646102654520834,"130":-0.07908320268208399,"131":0.007268156339879459,"132":0.019446089528101146,"133":-0.07743565374154086,"134":0.1717349066542227,"135":-0.08253885443924054,"136":0.33677431000647384,"137":-0.05482903119509854,"138":-0.08632438030171584,"139":-0.04550501497303727,"140":-0.04976586677739862,"141":-0.194642464941575,"142":0.1899445323418363,"143":-0.13052589745519402,"144":0.41571386162895346,"145":-0.06029983667486248,"146":-0.148107124055213,"147":-0.14235486039973974,"148":-0.12564869224647038,"149":-0.13689253653785688,"150":0.17629821060932838,"151":-0.1734092957996553,"152":0.32129663228954025,"153":-0.10160338705896294,"154":-0.02803750870950121,"155":0.18379921684985562,"156":-0.0042859293663049915,"157":-0.11571386113836196,"158":0.07093568180268518,"159":-0.12600178489816216,"160":0.004431191477394239,"161":-0.10556599881207047,"162":-0.13337320806317582,"163":-0.08128325828288725,"164":-0.13494348989675709,"165":-0.03744817827440315,"166":0.02806734638524426,"167":-0.051521295182317864,"168":-0.0334548046308372,"169":-0.0710149416251088,"170":-0.11873088068842585,"171":-0.023733906018195975,"172":-0.018038675708423435,"173":-0.016436734492594588,"174":-0.18570175947451675,"175":-0.060041580806317135,"176":-0.12031697495260513,"177":0.020241684895586847,"178":-0.05165274069898151,"179":-0.004913671137824228,"180":0.018336070876735378,"181":-0.1309345105803538,"182":-0.17780140457918764,"183":-0.057955568615878944,"184":-0.13146709949707083,"185":-0.028643991428084215,"186":-0.039076790891786804,"187":-0.10250995865168204,"188":-0.11101227915355559,"189":0.09521798749902469,"190":0.0037908455330975016,"191":0.07617041320490023,"192":-0.13450541636736824,"193":-0.08408025131390903,"194":0.01661019617103763,"195":0.15701267101414318,"196":-0.08692947475367646,"197":0.18952475453727952,"198":-0.06653105724733441,"199":0.10899342244252254}},{"sx":5,"sy":5,"depth":8,"w":{"0":-0.09895217213596251,"1":-0.031677781564157036,"2":-0.07624837752783031,"3":-0.009989081328872449,"4":-0.019807266676656932,"5":0.09145863565340273,"6":0.06821372689607233,"7":0.13159973610752065,"8":0.0008747869095613268,"9":-0.06648937929800766,"10":-0.025008837681244383,"11":-0.009469890075031734,"12":-0.10002732042060779,"13":0.1523336276362721,"14":0.15038361733505728,"15":0.052013636814626826,"16":-0.038245127459518885,"17":0.01597754139900669,"18":0.023169149537419092,"19":-0.044400475777941595,"20":-0.031126261812076044,"21":-0.06657450874116262,"22":0.1176258644548337,"23":-0.038983802167493135,"24":-0.025282800619416186,"25":-0.01762375741181476,"26":-0.005842247230029571,"27":-0.14408780489106024,"28":-0.06544729772055191,"29":-0.10078477390883446,"30":0.05702135031803033,"31":0.019329349520995683,"32":0.013793836293785017,"33":-0.06294417174639773,"34":-0.04043611091759567,"35":-0.08112099916352626,"36":-0.08293759729197127,"37":-0.02879340865044317,"38":0.07892144955910542,"39":0.03395963351722968,"40":-0.011667214915147541,"41":-0.04943070527737435,"42":-0.06737030047706612,"43":0.11833479301771825,"44":-0.09554434736734456,"45":0.07022038530352719,"46":0.023989770760787236,"47":-0.030751391556176316,"48":0.12115873426324163,"49":-0.07577152203959046,"50":-0.11528803565898801,"51":0.045816720740371235,"52":-0.15441656597068293,"53":-0.08737088363123821,"54":0.13417902179386257,"55":-0.04422475911751196,"56":0.14093714146419442,"57":-0.056435527718776454,"58":-0.12714609014781197,"59":-0.08397452351656948,"60":-0.11518084389968447,"61":-0.04790233158400323,"62":0.14423539523290224,"63":-0.020064252267805616,"64":0.105308697490671,"65":-0.05863944248881954,"66":-0.05210167596018801,"67":-0.08851779086137154,"68":-0.08652268384590873,"69":-0.041046319725209106,"70":0.03398649607824567,"71":-0.0483349835183956,"72":0.031327397249333054,"73":-0.08248175709321044,"74":-0.06600037610070159,"75":-0.0332144531478239,"76":-0.09500932304215066,"77":0.025797002190059436,"78":-0.009918806246345868,"79":-0.01218778197864086,"80":-0.12517469046617802,"81":-0.08911722498390891,"82":-0.03680093064132406,"83":0.14230983333814373,"84":-0.08070592079669678,"85":0.09379515299174401,"86":-0.04036858434781915,"87":-0.01157553123539084,"88":0.09450987745288775,"89":-0.09269491167933103,"90":-0.14041208528260554,"91":-0.031944281219536505,"92":-0.10312631889714508,"93":-0.0650170552240024,"94":-0.10858048124181591,"95":-0.0562739341649131,"96":0.05323730656768376,"97":-0.06489334963450309,"98":-0.13835149052898993,"99":-0.041865283088388695,"100":-0.09291594672592339,"101":-0.07131307881474781,"102":-0.08617522807230893,"103":-0.06651660287736054,"104":-0.0011858029360087715,"105":-0.05356126604613147,"106":-0.09025840468112277,"107":-0.0601911404337837,"108":-0.07552322508669297,"109":-0.025765886744817963,"110":-0.09670135688374511,"111":-0.017115253804470154,"112":-0.011874753274483557,"113":-0.06911019486945642,"114":-0.015802412611268333,"115":0.0031420413250329996,"116":-0.07021946946197723,"117":-0.008851943372621941,"118":-0.050162624554877015,"119":-0.035772410616885304,"120":0.14857282478184344,"121":-0.04213280673129906,"122":-0.06831106118851304,"123":0.061529600443028784,"124":-0.06090645893387006,"125":-0.02583444457767874,"126":0.017454799395235462,"127":-0.08375202591335207,"128":0.040019284009071544,"129":0.0173688318583317,"130":-0.08459071281850553,"131":-0.05601173862754737,"132":-0.04048740643852674,"133":-0.0529093799500799,"134":-0.1345435233469562,"135":-0.06718200505254333,"136":-0.08689460628196882,"137":-0.013235489667488914,"138":-0.06344026561445426,"139":-0.0182986657211357,"140":-0.06057918183292604,"141":-0.018092411527359895,"142":-0.082925453885894,"143":-0.030994698742199955,"144":-0.08411826732812269,"145":-0.028062451635235013,"146":-0.013785959660120709,"147":0.0076662136531556015,"148":-0.03575663723669975,"149":-0.012147429688361234,"150":-0.08623776228303341,"151":-0.04293982966743852,"152":-0.06719213181546464,"153":-0.03907469137234489,"154":0.05702382750791244,"155":-0.0030679022934481104,"156":-0.03283128005460334,"157":-0.06409378632959911,"158":-0.10223098652925734,"159":-0.018839009018236874,"160":-0.006541399718112459,"161":-0.04222675208266191,"162":-0.06289985549668087,"163":-0.03434321083066338,"164":-0.03223316294743638,"165":-0.0719181917898115,"166":-0.12686068524380037,"167":-0.031499402846966895,"168":-0.08583876394235967,"169":-0.016693451309159266,"170":-0.0958196483877091,"171":-0.02298357789724457,"172":-0.04933930290824115,"173":-0.007547968009140085,"174":-0.07212692898061535,"175":-0.01981543344603041,"176":-0.062220194670447225,"177":-0.0044826141441228935,"178":-0.1087000613843077,"179":-0.00024664109207127955,"180":-0.04531595485636945,"181":0.029796986491576825,"182":-0.05471427887429252,"183":-0.020428364449003786,"184":-0.04531054245077887,"185":-0.05534590635589515,"186":0.025453150380243546,"187":0.09267788623218427,"188":-0.012458992035770625,"189":0.04848210247595412,"190":-0.096673326806091,"191":0.006152338808977831,"192":-0.0806923703979028,"193":-0.07279425924597019,"194":0.07211755465257988,"195":0.04318851039868232,"196":-0.029466599039293218,"197":-0.03711600607702476,"198":-0.12273711729368031,"199":-0.06229893347541596}},{"sx":5,"sy":5,"depth":8,"w":{"0":0.19048068977313096,"1":-0.022852034185754072,"2":-0.0672854590845517,"3":0.05826387393439734,"4":-0.07945691199240155,"5":0.1664720961380071,"6":0.20697803907533302,"7":0.09136310009400371,"8":0.14835717217840397,"9":-0.08962175207584988,"10":-0.019273908828863644,"11":0.08099570914626956,"12":-0.06059571166410122,"13":-0.005370165879470035,"14":0.22606528617438282,"15":-0.019653666889532486,"16":0.10926418009024594,"17":-0.025592009892918086,"18":-0.026474123429945994,"19":-0.05617511202604095,"20":-0.037397937927569215,"21":-0.11084936351418735,"22":0.025071698276313194,"23":-0.04495058229834158,"24":0.06584773185342056,"25":-0.026907181774298045,"26":-0.013842240024980216,"27":-0.11990287849070863,"28":-0.0683001156949542,"29":-0.11104024472438348,"30":0.00032665238990847397,"31":-0.014786283643235483,"32":0.059207372834851564,"33":-0.06397045350260104,"34":-0.07285033234596346,"35":-0.06390320664620984,"36":-0.054980428673005836,"37":-0.05125609047482043,"38":-0.013183006953137039,"39":-0.033631463541294426,"40":0.1157992251520368,"41":-0.06109148402971112,"42":0.036937378093209336,"43":0.10573563486013576,"44":0.0006955939574528772,"45":0.06275376075379954,"46":0.0716034048636263,"47":0.05183773097528694,"48":0.16196330613441626,"49":-0.04334422723249881,"50":-0.05305074469302278,"51":-0.06759113095577594,"52":-0.14439812617628306,"53":-0.07381432494099996,"54":-0.02608046962389631,"55":-0.07369214050246381,"56":0.10100308654232855,"57":-0.08990451521664228,"58":-0.10866339136380293,"59":-0.05510140596489099,"60":-0.07719149476864476,"61":-0.09821285881608516,"62":-0.10664086096033756,"63":-0.06949542278328483,"64":0.006605113989102204,"65":-0.10344711560443108,"66":-0.05073634984310037,"67":-0.061176619778823896,"68":-0.06779734434646427,"69":-0.08359479761580303,"70":-0.08127429367908781,"71":-0.06529977308219016,"72":-0.037105605831240625,"73":-0.05091770721452038,"74":-0.06604886401358262,"75":-0.026323866890758985,"76":-0.0635664422562961,"77":-0.04739706895485093,"78":-0.07953016793025236,"79":-0.0606385952166598,"80":-0.047209995043920386,"81":0.010003733250016904,"82":0.13774074976593423,"83":0.26184650974548124,"84":0.19070483075843397,"85":0.042094387237403844,"86":-0.10482382078950184,"87":-0.13053475270386608,"88":-0.03885291359089191,"89":0.02043999698571413,"90":0.14953199970008738,"91":0.07459555117404604,"92":0.0418388695873181,"93":-0.09756760052671001,"94":-0.12183759392977941,"95":-0.07834473623220994,"96":-0.017930182492607076,"97":-0.06755751875119267,"98":-0.032380980814815934,"99":-0.053403562330205476,"100":-0.0868568421758958,"101":-0.11414632982350502,"102":-0.1035435178596613,"103":-0.13574012194149232,"104":-0.025489190826270602,"105":-0.05311026749636748,"106":-0.07246096848044817,"107":-0.06926150812700403,"108":-0.050391180053706,"109":-0.07826055246054903,"110":-0.08462798693094958,"111":-0.08537254659185309,"112":-0.054143884676350146,"113":-0.04282393418228881,"114":-0.053675423362414765,"115":-0.021404284381534102,"116":-0.018181070170560164,"117":-0.03759188719604798,"118":-0.07760072661664988,"119":-0.06895006255860131,"120":0.022121364230283932,"121":0.005199260432156173,"122":0.05763753248622562,"123":0.12357882460078627,"124":0.05596739268263696,"125":-0.09993647510685855,"126":0.008618895173929778,"127":-0.08801190104910062,"128":-0.0852054988568073,"129":0.050951587444249595,"130":0.15415952164400332,"131":0.1847167909712869,"132":0.10959695879884838,"133":-0.06261453127487462,"134":-0.15491364304533303,"135":-0.08515639978150569,"136":-0.08324299703603791,"137":-0.016358507598320814,"138":0.09296595805740443,"139":-0.05116284402535596,"140":0.0007992129205571627,"141":-0.14384463170672063,"142":-0.17509375982235661,"143":-0.08802522456354057,"144":-0.03536281092504676,"145":-0.0055533042486573415,"146":-0.02401563645171031,"147":-0.04728088632254659,"148":-0.023012194860102735,"149":-0.07256821159813812,"150":-0.10062151778154993,"151":-0.055174661820869886,"152":-0.06893837690733508,"153":-0.07246469722479505,"154":-0.014720705457116904,"155":-0.012062682468038821,"156":-0.04667909596019896,"157":-0.012925049636020387,"158":-0.091879548642545,"159":-0.05803025221079808,"160":-0.08572498405200252,"161":-0.06132646246448708,"162":-0.011326440663471587,"163":0.08513740807374258,"164":-0.03680605147805932,"165":0.051228388726144006,"166":-0.08149068526679079,"167":-0.00904430552715173,"168":-0.16534762985245094,"169":-0.021655186516557446,"170":0.05884564701795471,"171":0.2272023798578564,"172":0.04746437742240812,"173":0.10155625795877932,"174":-0.16726473917193288,"175":-0.06555695991228365,"176":-0.18120068453342741,"177":0.007902229702502789,"178":0.08281862136340892,"179":0.09300469802457535,"180":0.018820285524140633,"181":-0.008088747785805721,"182":-0.15608774921538904,"183":-0.010822165083128894,"184":-0.05131304469917646,"185":-0.025946200598387075,"186":-0.007737262084642902,"187":0.010149936855956552,"188":-0.011247766173711227,"189":-0.03219824512095793,"190":-0.06341606625267301,"191":-0.029613308337889707,"192":-0.04146245905327925,"193":-0.05398587466130057,"194":-0.0008011583567595925,"195":0.02254120483666262,"196":-0.0380997325059616,"197":0.012357665702018778,"198":-0.09042577639024985,"199":-0.056211982232894385}},{"sx":5,"sy":5,"depth":8,"w":{"0":0.03670914847299217,"1":0.10663261133814013,"2":0.030717073353739237,"3":0.14360101344352957,"4":0.14229747752664237,"5":0.010174693716505756,"6":0.015546405276470639,"7":0.02241215715719755,"8":-0.05210981073898896,"9":0.14889702609232722,"10":0.24239185419165066,"11":0.17630664054945255,"12":0.2572135385099508,"13":0.015464263265527172,"14":-0.17209240899886658,"15":-0.0740226542003338,"16":0.01652501129164897,"17":0.12451546333216462,"18":0.07472674773197889,"19":0.05592340669970014,"20":0.15927132157221088,"21":-0.03158472214740156,"22":-0.12210237947709768,"23":-0.11009380942336473,"24":0.00874058154853721,"25":0.025544958237213596,"26":-0.05757312810931734,"27":-0.036923049236319304,"28":-0.0789881682200989,"29":-0.08541241799561318,"30":-0.06039478942753203,"31":-0.11099039373265039,"32":0.020130440577523143,"33":-0.049496584136511,"34":-0.07400067505730118,"35":-0.012490926263206959,"36":-0.02043472859556237,"37":-0.05211467908638465,"38":-0.017512171222896868,"39":-0.07311328114326349,"40":0.08565760189210558,"41":-0.16066295638012307,"42":-0.053804087817926546,"43":0.0057277087011509045,"44":-0.051889136805823056,"45":-0.04301021074259728,"46":0.20781414976241203,"47":0.05659715439391816,"48":-0.1557800577207748,"49":-0.05006710437009352,"50":0.08149570459888479,"51":0.20847800160190572,"52":0.13896744353017995,"53":0.05084608838087158,"54":-0.15247256507829995,"55":-0.025452479517805004,"56":-0.19424185561159532,"57":0.056692770677127996,"58":0.11687771950845297,"59":0.1302758682674593,"60":0.2972743397050255,"61":-0.03848270819353823,"62":-0.16915815673767393,"63":-0.07615546628782649,"64":-0.09855770968168373,"65":0.09216482207326501,"66":0.06283883690855169,"67":-0.07898949338656956,"68":0.0548921490153097,"69":-0.10977855283026795,"70":-0.07842507735235543,"71":0.03012228329461967,"72":-0.07139782022558624,"73":-0.05771197831821179,"74":-0.04105047378412495,"75":-0.018738995133533925,"76":-0.08319862256478706,"77":-0.0571051237735547,"78":-0.06602543562587143,"79":-0.03346886764894931,"80":0.06449556533004253,"81":-0.10397970457439001,"82":-0.08470586454593465,"83":-0.0021299549526486565,"84":-0.0008580872167094964,"85":0.050613030828068596,"86":0.037338275953626536,"87":-0.005324617895312346,"88":-0.062291351643430415,"89":-0.07551760994770158,"90":-0.003267251405414183,"91":0.23536315722610263,"92":0.039376814795594545,"93":0.15892517284362298,"94":0.009298810279082425,"95":-0.15576909012605655,"96":-0.18211042758073745,"97":-0.039681489047012325,"98":0.06079879637424953,"99":0.32214102441571923,"100":0.09134710380103526,"101":0.04470491597844384,"102":-0.14013200746482618,"103":-0.20563656983183798,"104":-0.12190493815973602,"105":0.006128693228869182,"106":0.11271944943195997,"107":0.052644318513128584,"108":0.13460236674953008,"109":-0.03618810870988883,"110":-0.07080569260905785,"111":-0.030776042741853672,"112":-0.09352509451056766,"113":-0.03840486136510859,"114":-0.03599719092915345,"115":-0.05374094098249573,"116":-0.06544182953039716,"117":-0.06128320559596821,"118":-0.09854265548845381,"119":-0.018083355647333405,"120":-0.09192221155264871,"121":-0.00254901497656044,"122":-0.01335757026376304,"123":0.013983246229559636,"124":-0.004865070100486583,"125":0.000740316112163855,"126":0.048723795988382314,"127":0.02023271005576221,"128":-0.05506873224079889,"129":-0.006320437772737785,"130":-0.14475628571838733,"131":0.08369985006356707,"132":-0.056740354639619,"133":0.2490830720668767,"134":0.11877291553589645,"135":0.027764345248692566,"136":-0.0038012706856751,"137":-0.06440393485935594,"138":0.04509152768361728,"139":0.20175322119940153,"140":-0.002539190109483283,"141":0.11721650852112363,"142":0.002989481015293916,"143":-0.048182188887111295,"144":-0.02448507089987759,"145":-0.079128229407214,"146":0.054876484962374524,"147":0.10441436298427278,"148":0.06325956825189133,"149":-0.017722190523307473,"150":-0.06149519332209505,"151":-0.03287578641217548,"152":-0.034629341923421604,"153":-0.025881827637246883,"154":-0.02664110270545916,"155":-0.026788358376482888,"156":-0.060935062275430156,"157":-0.04966952709536024,"158":-0.05013725394713317,"159":-0.05831137703063681,"160":0.02142223860294683,"161":-0.01929336106103376,"162":-0.10844717962852114,"163":-0.05862364395587143,"164":-0.04435045825039806,"165":0.032358530441036114,"166":0.11107562095894445,"167":0.11006574389087542,"168":0.023617728764080432,"169":-0.02733353114296713,"170":-0.03330971949079572,"171":-0.011717808169603182,"172":-0.08036145543878517,"173":0.09631484088939743,"174":0.07298419778329568,"175":0.02794622105923938,"176":0.04481207421285609,"177":-0.0886030069602085,"178":-0.045199980455204694,"179":0.13231348204676932,"180":-0.0348885183862466,"181":0.10936964325072672,"182":0.02348895724221457,"183":0.015868292743124415,"184":0.011770990720587477,"185":-0.04953481407454525,"186":0.03493247818642697,"187":0.10340825820664813,"188":-0.004392238072999464,"189":0.0251523950660274,"190":-0.028984865313316052,"191":-0.0680234758771748,"192":-0.004322313878614331,"193":-0.045389767304388706,"194":-0.02804438308107234,"195":-0.03440952248227609,"196":-0.03150063664647262,"197":-0.07585133678094709,"198":0.018030934855104264,"199":-0.07365709994921026}}],"biases":{"sx":1,"sy":1,"depth":16,"w":{"0":-0.18947451734105206,"1":0.08808078823150466,"2":-0.21002904424259516,"3":-0.21655751856088523,"4":0.05754372027182824,"5":-0.2278458742011298,"6":0.05527259614310423,"7":0.0006912651904061203,"8":-0.12796985217936982,"9":-0.19806943982159933,"10":0.028415042637497907,"11":-0.2369619664236992,"12":-0.2988630404313778,"13":-0.20536699497832261,"14":-0.31609288052567475,"15":-0.28985420289219804}}},{"out_depth":16,"out_sx":12,"out_sy":12,"layer_type":"relu"},{"sx":3,"sy":3,"stride":3,"in_depth":16,"out_depth":16,"out_sx":4,"out_sy":4,"layer_type":"pool","pad":0},{"out_depth":10,"out_sx":1,"out_sy":1,"layer_type":"fc","num_inputs":256,"l1_decay_mul":0,"l2_decay_mul":1,"filters":[{"sx":1,"sy":1,"depth":256,"w":{"0":0.0006040590027434508,"1":-0.013188876142585126,"2":-0.21682570858728945,"3":0.0023387591488797095,"4":-0.02273908264641328,"5":-0.016547426719351936,"6":-0.00276696603036909,"7":-0.0000209022442132111,"8":-0.04054330421667418,"9":-0.0014918832506389528,"10":-0.007784341659499428,"11":-0.0026876477380145206,"12":-0.06260719232502594,"13":-0.04118557475589528,"14":-0.10585087265600428,"15":-0.011212546301085207,"16":-0.04246294092364179,"17":-0.16206809656968083,"18":-0.29399332972586484,"19":-0.10140449752103133,"20":-0.2837884121952171,"21":-0.02946725554385956,"22":-0.010414211212256042,"23":-0.000022517605109561384,"24":-0.03405698316463079,"25":-0.11494708779487667,"26":-0.0377802886472774,"27":-0.04428049315928352,"28":-0.14544614656016552,"29":-0.04542024629567422,"30":-0.0482657586010015,"31":-0.004379213877224841,"32":-0.02742484660472556,"33":-0.11026445497857709,"34":-0.2913048779887594,"35":-0.21164869888422289,"36":-0.2266891366453704,"37":-0.019922612377074364,"38":-0.028223391593408316,"39":0.00002964980525297665,"40":-0.08307158663127055,"41":-0.22458190621629393,"42":-0.08181481884073069,"43":-0.033049510124962905,"44":-0.17250928433393772,"45":-0.02000610259542786,"46":-0.05560172117702194,"47":-0.09729513164361887,"48":-0.02941500579735333,"49":-0.014168893318529805,"50":-0.2570086403311218,"51":-0.12423241943774002,"52":-0.07385715899039627,"53":-0.009813498271658956,"54":-0.01992229292936906,"55":0.00003128026699181427,"56":-0.17707377868452567,"57":-0.1157390166036093,"58":-0.037982452887846324,"59":0.007179358798757759,"60":-0.0704558238039195,"61":-0.03400424000708712,"62":-0.19207206468277632,"63":-0.09845984693750268,"64":-0.044616913205707785,"65":-0.029609991464943593,"66":-0.034086542188242176,"67":0.011633992842226283,"68":-0.09136518435046458,"69":-0.04289243685590049,"70":-0.02788086455898349,"71":0.000016251157794895982,"72":-0.0028791812042597434,"73":-0.05987609379581436,"74":-0.00019568584827415445,"75":-0.048225829002869446,"76":-0.048974609967061135,"77":-0.0036656398832739497,"78":-0.0008818733249018443,"79":-0.004759985292822955,"80":-0.23563197591967305,"81":-0.15438636056828997,"82":-0.148688456723421,"83":-0.17562909640454052,"84":-0.2780295020797338,"85":-0.0942242899463702,"86":-0.0932541630466158,"87":0.00003132706032592959,"88":-0.131540483130045,"89":-0.2552235541399025,"90":-0.17211562460795365,"91":-0.4530551733211086,"92":-0.2959370557860392,"93":-0.01526891351196517,"94":-0.010622447020961717,"95":-0.06301287421304348,"96":-0.19762028086225011,"97":-0.13978160348601382,"98":-0.2484787756898742,"99":-0.47252892718344963,"100":-0.20524902952079474,"101":-0.04482443572862937,"102":-0.1102289933151753,"103":0.00003658046228320495,"104":-0.2627272893842425,"105":-0.5454517541338393,"106":-0.2554535596459433,"107":-0.15672937395608144,"108":-0.2679730664492545,"109":-0.03635697419481061,"110":-0.03245548345638436,"111":-0.2003250377265145,"112":-0.05729657810906751,"113":-0.03686375722137694,"114":-0.20023209677466788,"115":-0.3147760145402509,"116":-0.12954400905353944,"117":0.038933411967030096,"118":-0.13402029568733176,"119":0.000012937783113998592,"120":-0.24830752737365658,"121":-0.2262909876347586,"122":0.02567305112434946,"123":-0.024661200612153586,"124":-0.03706869837757837,"125":-0.07973888085623396,"126":-0.23411318921213653,"127":-0.25444885091543956,"128":-0.028750425200378314,"129":0.008909321614866475,"130":-0.09861526636918921,"131":0.005958584368772844,"132":-0.18726480871497864,"133":-0.046071277734492815,"134":0.0033778947967154247,"135":0.00003108594633987861,"136":-0.026256352952427304,"137":0.004710692715221664,"138":0.004857769080275198,"139":-0.09914394399063291,"140":-0.13363942072609322,"141":-0.008877875147388848,"142":-0.0068260143538539965,"143":-0.02156629115853913,"144":-0.16657607712721684,"145":-0.0926869228973057,"146":-0.17732896390320854,"147":-0.17514905940696393,"148":-0.3507530960066217,"149":-0.1290661081645077,"150":-0.07163294025004664,"151":0.0000354740877409875,"152":-0.08264647933757846,"153":-0.2820772967140401,"154":-0.13775924178245072,"155":-0.28971505715360013,"156":-0.5679165683456072,"157":-0.03467168260065882,"158":-0.003696675349841557,"159":-0.042264698493054226,"160":-0.23792324380095423,"161":-0.1351164280452523,"162":-0.24923204696138798,"163":-0.6857799269520662,"164":-0.26378094480254394,"165":0.0018192551169245886,"166":-0.12506619062316654,"167":0.000019577793416842262,"168":-0.39305433969547376,"169":-0.6174263088698352,"170":-0.29824135346156505,"171":-0.4618427109727894,"172":-0.49590480848932994,"173":-0.009675670779228058,"174":-0.06849331302444966,"175":-0.2812160285667717,"176":0.017241527930560045,"177":-0.019948047467512036,"178":-0.12535086675894505,"179":-0.2808823075834743,"180":-0.10723400143594464,"181":0.08423291340077353,"182":-0.04808505599041171,"183":0.00000750636272634178,"184":-0.3499231413160251,"185":-0.139186946668381,"186":0.06674925372788056,"187":-0.03658732590148422,"188":-0.1668143734499803,"189":-0.12572865737518565,"190":-0.3319864538722942,"191":-0.22782423470212462,"192":0.011833098803245989,"193":-0.06089616057783685,"194":-0.13523543341768232,"195":-0.07021746418173615,"196":-0.17466547399218252,"197":-0.11180306790088643,"198":-0.01833099322247154,"199":-0.000005402124893760391,"200":-0.025140639817877716,"201":-0.08599426872174289,"202":-0.015804234774510418,"203":-0.012381747067544155,"204":-0.10574774765642374,"205":-0.019308400568043945,"206":-0.02834772820326397,"207":-0.024526556691228857,"208":-0.20865962935015578,"209":-0.06336924560598946,"210":-0.1799052394833581,"211":-0.17530663193237964,"212":-0.12822031436962597,"213":-0.19093871791788466,"214":-0.11046029810437286,"215":0.000022511503778074143,"216":-0.2829573177909867,"217":-0.14842910430120954,"218":-0.1434098658712935,"219":-0.354087349359041,"220":-0.30152266586346227,"221":-0.15446043034014212,"222":-0.09832489914562292,"223":0.049782407644117226,"224":-0.17609573157931552,"225":-0.04059850616864208,"226":-0.05990809633841084,"227":-0.32127360180159087,"228":-0.12423228805350026,"229":-0.12040311741987508,"230":-0.018290634939373156,"231":0.000029230462394123177,"232":-0.29294640292612695,"233":-0.220523705006821,"234":-0.27171338803599276,"235":-0.34444992840740124,"236":-0.3616719449233226,"237":-0.24054928142265897,"238":-0.18668005699407758,"239":-0.2695875244738076,"240":-0.09383274691672162,"241":-0.020839795069363853,"242":-0.016771835738766998,"243":-0.27483820351483984,"244":-0.04217035740063732,"245":-0.017064005120869304,"246":-0.1279475687714459,"247":-0.000009557366677010978,"248":-0.2092161568755828,"249":-0.09120288075568783,"250":-0.025468670313586114,"251":-0.0030409146899826817,"252":-0.22001617708994228,"253":-0.20448146198229716,"254":-0.23342038795801473,"255":-0.31521038637752874}},{"sx":1,"sy":1,"depth":256,"w":{"0":-0.010088543913564169,"1":-0.03773612632560148,"2":-0.1348549379208774,"3":-0.0073350883301449964,"4":-0.034677648279180975,"5":-0.007979001330913492,"6":-0.00026024021503140703,"7":0.00003963302807570485,"8":-0.035821592151975404,"9":-0.00547163090825491,"10":-0.018882563586102193,"11":-0.011212093108508299,"12":-0.048279740116003764,"13":-0.05020258410757338,"14":-0.06841078629369113,"15":-0.0015793628757219914,"16":0.011444269993181082,"17":-0.13201289152811718,"18":-0.2949852383506266,"19":-0.04703150179507942,"20":-0.1984005541999778,"21":-0.014572237052423673,"22":-0.011422946017473621,"23":0.000016707415537905925,"24":-0.05100216887946474,"25":-0.055985975378044686,"26":-0.030092544129050252,"27":-0.03606460790330031,"28":-0.10249311494455043,"29":-0.04234422172245519,"30":-0.03202540047033124,"31":-0.017952495658613406,"32":0.045782263058769625,"33":0.06472375483222846,"34":-0.2919321068283559,"35":-0.0071034563155480835,"36":-0.2846084376934517,"37":-0.0028279727908115354,"38":-0.0017351366986447809,"39":-0.000002349610880643209,"40":-0.040869889227527545,