{"layers":[{"out_depth":1,"out_sx":24,"out_sy":24,"layer_type":"input"},{"sx":5,"sy":5,"stride":1,"in_depth":1,"out_depth":8,"out_sx":24,"out_sy":24,"layer_type":"conv","l1_decay_mul":0,"l2_decay_mul":1,"pad":2,"filters":[{"sx":5,"sy":5,"depth":1,"w":{"0":0.4625378713864512,"1":0.14943257247348316,"2":0.44721294699393743,"3":0.2892160047831827,"4":0.2988593284472868,"5":0.20469437900885287,"6":-0.07769070574853779,"7":0.24066799652383566,"8":0.15500982191301146,"9":0.42431907295756877,"10":-0.11402231119754784,"11":-0.07376244584712857,"12":-0.14456105391995155,"13":0.005402212086920711,"14":0.09264357902205772,"15":-0.3602075035468705,"16":-0.33851816550818775,"17":-0.3611035013271276,"18":-0.2794438123890658,"19":0.06060060893442314,"20":-0.07122217834415606,"21":-0.1633806433536379,"22":-0.2059392933931599,"23":-0.24810694930690483,"24":-0.30909126150690475}},{"sx":5,"sy":5,"depth":1,"w":{"0":-0.0500725777867274,"1":-0.0016518840810291373,"2":0.04233561795819896,"3":0.039740574412875866,"4":0.05888039208320531,"5":-0.16043333753766115,"6":-0.18510677526726282,"7":-0.22197084478308984,"8":-0.17832812196767256,"9":-0.2482742665005178,"10":-0.017246276566649527,"11":-0.2362960712593044,"12":-0.3686034993849203,"13":-0.3801750887152297,"14":-0.4235337045555245,"15":0.2431171340852502,"16":0.023702700075804804,"17":0.05773378178681984,"18":0.09173279471768901,"19":0.2925312663062216,"20":0.43581673684547617,"21":0.3386174898191499,"22":0.3447825855920687,"23":0.45605465730538186,"24":0.19675931319664108}},{"sx":5,"sy":5,"depth":1,"w":{"0":0.011717393746843574,"1":-0.18492735631462145,"2":-0.15508302143628186,"3":-0.18550637749697627,"4":-0.037840585279148624,"5":0.18379573774062868,"6":-0.05234401609028911,"7":-0.12887657314707937,"8":-0.03198833514300948,"9":-0.26293373343429083,"10":0.11678652863721398,"11":0.09746360654100653,"12":-0.15406639194724372,"13":-0.2587019159870454,"14":-0.2672779367758419,"15":0.32393138994612664,"16":0.3161016372767441,"17":0.00824654898972318,"18":-0.09459407958823106,"19":-0.24508900015946666,"20":0.4463361667188964,"21":0.2268876607180664,"22":0.162794199228571,"23":0.08143158390741145,"24":-0.16340002396095915}},{"sx":5,"sy":5,"depth":1,"w":{"0":0.10214943358602857,"1":0.47747675955722035,"2":0.2785836168701864,"3":-0.04464483304286122,"4":-0.20683461655925078,"5":-0.020457947396122698,"6":0.4243068134807883,"7":0.3591624953138168,"8":-0.26127891774853523,"9":-0.33906470878494566,"10":-0.05381567766282314,"11":0.4056231410729556,"12":0.38425855803345765,"13":-0.24377130259343774,"14":-0.18393980340039476,"15":-0.1805500385037167,"16":0.6296044321631644,"17":0.3603886575044726,"18":-0.23526724719720324,"19":-0.11787132864699172,"20":0.04391760398205429,"21":0.4597359340729255,"22":0.5154391615677738,"23":0.14196336386141464,"24":-0.017578819454579783}},{"sx":5,"sy":5,"depth":1,"w":{"0":0.06094731193103372,"1":0.04120137125501384,"2":-0.27618395377598,"3":-0.04825997299829086,"4":-0.04088713521347289,"5":0.3355910701629322,"6":-0.1842500196324139,"7":-0.1662703947285184,"8":-0.41318232742709937,"9":-0.32636643829795065,"10":0.40550600218205707,"11":0.08554980663013853,"12":-0.5328248410206662,"13":-0.35555349953447307,"14":-0.13740108073610877,"15":0.3928612569212602,"16":0.6555433370839818,"17":0.44366610942608037,"18":0.18713770667874527,"19":0.016577809944649677,"20":-0.06370276674300289,"21":0.34915211986562106,"22":0.5640231205803313,"23":0.6331987480396123,"24":0.1335023599942442}},{"sx":5,"sy":5,"depth":1,"w":{"0":-0.23074947637282853,"1":-0.3193860811406665,"2":0.4925980574435118,"3":0.4730192327656089,"4":0.3130740073982745,"5":-0.3424735982512098,"6":-0.031744895591856774,"7":0.662498764913374,"8":0.2843271348129228,"9":-0.1281192761322806,"10":-0.18481896039112086,"11":0.41328649867353967,"12":0.7107832870561553,"13":0.10729031164347717,"14":-0.18688712768969168,"15":-0.02331925666380541,"16":0.34561779573972934,"17":0.33248062599485884,"18":-0.03173325723380358,"19":-0.22208498419301975,"20":-0.0406454780342025,"21":0.4649676132828979,"22":0.24755952741788498,"23":0.30520871800038313,"24":-0.049483799177962175}},{"sx":5,"sy":5,"depth":1,"w":{"0":0.10069837209364786,"1":-0.02798272217043746,"2":-0.10001704300843413,"3":0.033329315832910676,"4":-0.02891672202954618,"5":-0.1701881216294399,"6":0.019643996873644442,"7":0.17869246956196036,"8":0.6912069098334017,"9":0.6158051940580282,"10":0.20742822514515352,"11":0.18352582584855404,"12":0.3479889845163625,"13":0.3349077947837589,"14":0.5350341482413751,"15":0.07981045933339359,"16":0.2558489063824725,"17":-0.1803312854059698,"18":-0.5084097647253886,"19":-0.06384462075941978,"20":-0.09130307608756898,"21":-0.467911684828749,"22":-0.5587595755643883,"23":-0.5449704894253887,"24":-0.30614176144205435}},{"sx":5,"sy":5,"depth":1,"w":{"0":-0.22343588629007213,"1":-0.3140719888800998,"2":-0.31338563972398026,"3":-0.18427089548892933,"4":0.03675598515557202,"5":-0.37675146018345185,"6":-0.24856937840593182,"7":-0.0934304166077734,"8":0.16653975533219406,"9":0.21028909514088856,"10":-0.2158280686686168,"11":0.0817357074208771,"12":0.47215160312932497,"13":0.3394291907898265,"14":0.07595640580113533,"15":0.2678872395159113,"16":0.515144238817342,"17":0.3364716174222832,"18":0.017231416101994,"19":-0.1443385220842973,"20":0.35736576431977796,"21":0.2707921798214512,"22":-0.12676465174781107,"23":-0.27892964159106504,"24":-0.0332857938498599}}],"biases":{"sx":1,"sy":1,"depth":8,"w":{"0":0.04647776987597773,"1":0.038468694999399373,"2":-0.012276353825053076,"3":0.048205053478761875,"4":0.20504535988884226,"5":0.293451969273618,"6":0.2934246530167162,"7":-0.0038854938697546874}}},{"out_depth":8,"out_sx":24,"out_sy":24,"layer_type":"relu"},{"sx":2,"sy":2,"stride":2,"in_depth":8,"out_depth":8,"out_sx":12,"out_sy":12,"layer_type":"pool","pad":0},{"sx":5,"sy":5,"stride":1,"in_depth":8,"out_depth":16,"out_sx":12,"out_sy":12,"layer_type":"conv","l1_decay_mul":0,"l2_decay_mul":1,"pad":2,"filters":[{"sx":5,"sy":5,"depth":8,"w":{"0":0.025415086279818165,"1":0.12480692096170233,"2":-0.035452025375406995,"3":-0.10441278334265537,"4":0.017452138584063866,"5":-0.1355897955360446,"6":-0.03375939296950576,"7":-0.021722474343736142,"8":0.03699248626585784,"9":0.03321541425143597,"10":-0.008442756774287867,"11":-0.07093272289158967,"12":-0.030771501050714488,"13":-0.08429736112565188,"14":-0.07917828038812026,"15":0.0830500084639609,"16":-0.042267531736488534,"17":-0.026421626275993426,"18":-0.031420827789123244,"19":-0.100891518156009,"20":-0.13323732574214395,"21":-0.0006338738848791476,"22":-0.05983120028451159,"23":-0.010128442911769635,"24":0.01729740657281292,"25":-0.01083430896171668,"26":-0.15125657026394052,"27":-0.016309777195545702,"28":-0.1390822823094803,"29":0.05342295513788927,"30":-0.06392465707791774,"31":-0.09431597505801201,"32":-0.025964126839829158,"33":0.08725881238962178,"34":-0.02095161484461547,"35":0.18034611510121532,"36":0.02788654056771451,"37":0.2325338410473249,"38":-0.11395167770481082,"39":-0.06488052295762832,"40":-0.06052159226217873,"41":0.034016416287679895,"42":-0.023608795998334025,"43":0.021655180383306036,"44":0.021801347549323558,"45":0.04571612548008711,"46":-0.02600338565524131,"47":0.1082975346603921,"48":0.011578979363919382,"49":0.05356778497728971,"50":0.0885421046072676,"51":0.08123720811427053,"52":0.028813322620736874,"53":0.026514503672478693,"54":-0.007378911021616838,"55":0.07904556440301638,"56":-0.014225541426623196,"57":-0.015273980535507032,"58":0.017689327049284023,"59":-0.0550301714477598,"60":-0.01915449748339076,"61":-0.05179373546376242,"62":-0.053549542696308954,"63":0.043525118918560805,"64":-0.046422579083719454,"65":-0.000016966432395520485,"66":-0.11545374555469468,"67":-0.13280049001727212,"68":-0.0982614251557599,"69":0.1576762793735013,"70":0.014227943179178873,"71":0.06302417253524185,"72":-0.15537388229996282,"73":-0.024578856908468814,"74":-0.05196579859074907,"75":0.18167851899184218,"76":-0.15176428030601424,"77":0.3116993792640825,"78":-0.014256559507544769,"79":0.05851210279482863,"80":0.01609877240618081,"81":-0.06881563787772686,"82":-0.020177859392472547,"83":0.15415570840855072,"84":-0.05299104879732818,"85":0.13974167288341988,"86":0.0179562190192009,"87":-0.006296763637386587,"88":0.037509535924050826,"89":-0.10613133224797645,"90":0.09938870535263324,"91":0.05874412876524862,"92":-0.07845418454841965,"93":-0.028151719364025125,"94":0.07296438084760168,"95":-0.055230523323940885,"96":0.08236835944670395,"97":-0.10137163195631765,"98":0.006487769376809408,"99":-0.11354758555753354,"100":-0.1520633718165115,"101":-0.12015804809577964,"102":0.08555741320892438,"103":-0.13389230463886453,"104":0.04752928174576134,"105":-0.20829931696080584,"106":-0.1819613247859896,"107":-0.053648724871386604,"108":-0.28365408583864143,"109":0.12280530804401303,"110":-0.06500185864866359,"111":-0.0963852864770915,"112":-0.04221825740383014,"113":-0.1252036441346295,"114":-0.07451961830589793,"115":0.2850973807098466,"116":0.0005300197353194946,"117":0.36430372468977995,"118":-0.026390295639281313,"119":-0.04032567443486917,"120":0.05620101302882477,"121":-0.03612475619739661,"122":0.043537443547123224,"123":0.11535785498608268,"124":-0.0326095986015987,"125":0.10516540333204688,"126":0.01462586849716401,"127":0.0989340649736669,"128":0.07507163941560441,"129":-0.04082331470794017,"130":0.004385114422944642,"131":-0.026256001115990055,"132":-0.019611920496835175,"133":-0.08709073832679783,"134":-0.13442100618211797,"135":-0.09436582083162173,"136":0.10507150943095368,"137":-0.08160661464523523,"138":0.046254969272772055,"139":-0.08185420002185162,"140":-0.0936551003767416,"141":-0.14857509561522686,"142":-0.1540504938427878,"143":-0.09285908208132598,"144":-0.016513967671243097,"145":-0.154879706188915,"146":-0.06090694920209693,"147":0.02647620631819269,"148":-0.21008622843258404,"149":0.15260838649846642,"150":-0.02059835931798454,"151":-0.08564070435319432,"152":-0.1808573773071788,"153":0.0017296315514850034,"154":0.07979347109840411,"155":0.36908960958775694,"156":0.20890449101476397,"157":0.27091867289098714,"158":-0.00827238875855073,"159":-0.15399648990768755,"160":0.1047469504262676,"161":-0.06494825926687796,"162":-0.08480895173079178,"163":-0.013295157447668396,"164":-0.07335219664819,"165":-0.030461575388695924,"166":0.05562224509533586,"167":-0.021374391195444445,"168":-0.038994189756565406,"169":-0.047183174826907495,"170":-0.11280788352415931,"171":-0.05959934109355666,"172":-0.045951243082072414,"173":-0.09443730878214054,"174":-0.2076354687990159,"175":-0.07278138758242642,"176":-0.11771662971004482,"177":-0.019984738684425685,"178":0.012094070179278871,"179":0.020261352805035843,"180":-0.05392542601977723,"181":-0.09853188527684187,"182":-0.12112461219713147,"183":0.013921487057069753,"184":0.05745311499511203,"185":-0.0810977049880684,"186":-0.013126678512198255,"187":0.10319749898640336,"188":-0.13575527966838383,"189":0.09811085392320032,"190":0.04628337338664296,"191":-0.02177828670029455,"192":0.013589589915109092,"193":-0.07843172608283629,"194":0.027088458853066207,"195":0.229824705609362,"196":0.01825036879439052,"197":0.11678867578383945,"198":0.1435973159887209,"199":-0.06017798433123856}},{"sx":5,"sy":5,"depth":8,"w":{"0":0.18487600597151518,"1":-0.0458350027435222,"2":0.08224388154823001,"3":0.040377783770119045,"4":-0.05207921687952254,"5":0.11202847275656687,"6":0.09881880896771844,"7":-0.007433081145340514,"8":0.13665599761612623,"9":-0.05388350516451716,"10":0.020062326191495488,"11":0.09209851753441077,"12":-0.09351851441648175,"13":0.03511403895784616,"14":0.017266871539687097,"15":-0.05871398354634068,"16":0.05765340461747867,"17":-0.036000346672353974,"18":0.030846712968466274,"19":-0.008428166975015607,"20":-0.142996860290579,"21":-0.015180316721681134,"22":-0.1294584855017068,"23":-0.0644202744073942,"24":-0.03577781453872984,"25":0.03339213618945004,"26":0.04192435101026607,"27":0.02638559071094216,"28":-0.09114829167574882,"29":-0.0059139890051086086,"30":-0.14698217020863782,"31":-0.08863105238718215,"32":-0.02822379125323845,"33":0.022293386992279885,"34":-0.0420407045545058,"35":-0.09189535198110424,"36":-0.02068096906419992,"37":-0.12187067240081632,"38":-0.10725191021713942,"39":-0.05476318215697557,"40":0.028271604193395347,"41":-0.05403950452624518,"42":0.059532827126183324,"43":0.033231355725167444,"44":-0.059183579887782216,"45":-0.010192964721012707,"46":-0.025490724020599414,"47":-0.07511104654230506,"48":-0.06195687136645806,"49":-0.09772137676725681,"50":-0.0030424722294942054,"51":-0.027192719362171124,"52":-0.13830294607044,"53":-0.04090881323205834,"54":-0.17851413183762604,"55":-0.07750291919077462,"56":-0.13882069784734585,"57":-0.014922899245488072,"58":-0.020212599184016238,"59":-0.03009259130239419,"60":-0.1573998588200886,"61":0.014470409880110707,"62":-0.176243552178512,"63":-0.06577895582717619,"64":-0.07061446312710432,"65":0.07156085904239902,"66":-0.0020160821248578725,"67":-0.03686086896884355,"68":-0.003311388982165486,"69":-0.028417920334047993,"70":-0.09569797306829891,"71":0.017078971509969173,"72":-0.06304633966192338,"73":0.19797131658876355,"74":0.041154093444138784,"75":-0.06255493400742841,"76":0.024097426720258244,"77":-0.0023020808984761457,"78":-0.041066581335567204,"79":0.09107055504291638,"80":-0.01687377682059512,"81":-0.04492682423476892,"82":0.0894832183750972,"83":-0.0064535536153374215,"84":-0.08184666561541391,"85":-0.033336192542312806,"86":-0.1408386515127018,"87":-0.03206107525258382,"88":-0.04488192020287111,"89":-0.13079989711142898,"90":0.0021363853782661426,"91":-0.0375796129778926,"92":-0.15937101094695813,"93":-0.07313179440080768,"94":-0.12434955368978345,"95":-0.09592948495795525,"96":-0.06358484308343876,"97":-0.05660317769938397,"98":-0.10233202821057726,"99":-0.03484540514855028,"100":-0.13665653901681188,"101":0.015384130986599758,"102":-0.14494364768703435,"103":-0.14797107017235908,"104":-0.09037867548111594,"105":0.03637396338378534,"106":-0.009959071127839487,"107":0.04804944212524899,"108":-0.01371606656743529,"109":0.14514710448387394,"110":-0.05499297048625508,"111":0.01811048832334573,"112":-0.019513265523189684,"113":0.06260401675123886,"114":0.1185636745780066,"115":0.06118815399527813,"116":0.04079314123664439,"117":0.03540449453079801,"118":0.014636966670345235,"119":0.1851410344263479,"120":-0.08856199254463051,"121":-0.04681371557704039,"122":-0.0082387318721007,"123":-0.027208578785679328,"124":-0.09263745209639929,"125":-0.06073648271773044,"126":-0.07630031504164166,"127":-0.06997169253706728,"128":-0.03098121986694101,"129":-0.07903309559506307,"130":-0.012900680850440294,"131":-0.025444642784076363,"132":-0.03474885277245884,"133":-0.1112223242724265,"134":-0.10605014366923854,"135":-0.10468994336954802,"136":-0.06799793303718989,"137":-0.10599542226887153,"138":-0.0416062829397437,"139":-0.08320668075275638,"140":-0.0778794195932566,"141":0.020618805149592172,"142":-0.10485350100902978,"143":-0.09233411177249223,"144":-0.1691058946387298,"145":-0.06846251116665204,"146":-0.06215505847161124,"147":0.22949626167991577,"148":0.013503249294837033,"149":0.2239444593337036,"150":-0.14577968391473684,"151":-0.06215396726156965,"152":-0.12883450589867998,"153":0.06812671188850421,"154":0.14775021267415867,"155":0.1958658476807599,"156":0.13113788744247262,"157":0.09810508178776589,"158":-0.12368404697988693,"159":0.016955872841817685,"160":-0.10538761365771927,"161":-0.06686389582616109,"162":-0.08699235358285923,"163":-0.05310755539580568,"164":-0.10239130531405147,"165":-0.06247422422845066,"166":-0.09862730200953375,"167":-0.08773843581732874,"168":-0.11941753096414298,"169":-0.060130324491060365,"170":-0.062116532045372576,"171":-0.06683330543447698,"172":-0.06817013356382289,"173":-0.10275686429149523,"174":-0.07935822884125557,"175":-0.09179097745375028,"176":-0.06516386095155186,"177":-0.09205231516053117,"178":-0.0674090207814397,"179":-0.09276049109538237,"180":-0.15146614945255135,"181":-0.04276185520848339,"182":0.023673528010572747,"183":-0.08731335450636893,"184":-0.07796251682803455,"185":-0.166134904120019,"186":0.01039489696615909,"187":0.2647332702400473,"188":-0.05499682040709455,"189":0.2628722007959206,"190":-0.0942441586625414,"191":-0.14591122339457718,"192":-0.13450236711687852,"193":0.0622533685220332,"194":0.15204845812627565,"195":0.2913515782424701,"196":0.2768314832702295,"197":0.04117322514394337,"198":-0.08063200991775031,"199":-0.13405508639394437}},{"sx":5,"sy":5,"depth":8,"w":{"0":0.11069238597136774,"1":-0.16659634166526593,"2":0.001955602970330229,"3":0.0062554220630179356,"4":-0.14467434238888935,"5":0.008784485204112647,"6":0.06410257706811667,"7":-0.09949213477758838,"8":0.1606608428457937,"9":-0.08063551466795463,"10":-0.03676196602083985,"11":0.01780077408188129,"12":-0.039010545541358736,"13":-0.11779101108629704,"14":0.13911062044710648,"15":-0.0487876636283566,"16":0.13782176146782538,"17":-0.08539739356181501,"18":-0.08795560919756465,"19":-0.018670681679357915,"20":-0.07394106284328465,"21":-0.06239221795574357,"22":0.19200197476320482,"23":0.0014877077642335506,"24":0.05153934959802969,"25":-0.04986499578733075,"26":-0.05449005670273963,"27":-0.01842638340088147,"28":-0.0400836958581946,"29":0.036563675557845204,"30":0.2119214099626065,"31":0.016966411784421733,"32":0.0420612805614033,"33":-0.14665545440675803,"34":-0.09284220438039796,"35":-0.06993975751746921,"36":-0.15865337862151394,"37":0.01303184231731442,"38":0.1273598988175219,"39":0.03983530328274528,"40":-0.006579962613240701,"41":0.009810675881223578,"42":-0.0684358040699019,"43":-0.0973335380825015,"44":-0.027596251648936004,"45":-0.11058649396690133,"46":-0.13202321370518463,"47":-0.02315857616525463,"48":0.011011761746727659,"49":0.00387460585177197,"50":-0.08599046575909536,"51":-0.11494038246016602,"52":-0.027324655553340734,"53":-0.12196708047612272,"54":-0.09617084650062155,"55":-0.07441031898667128,"56":0.06991854856074627,"57":-0.0020051949248339374,"58":-0.14207902648993648,"59":-0.064298195640943,"60":-0.11128470741435018,"61":-0.14219108920934345,"62":-0.1118176073457583,"63":-0.05142149584567162,"64":0.07385179312511926,"65":0.027767131353552896,"66":-0.1244314706992053,"67":-0.06394018315359168,"68":-0.06140272995818512,"69":-0.09910821987408319,"70":-0.13919853655198286,"71":-0.08783044419824063,"72":0.01087035526864756,"73":0.11047487223655394,"74":-0.09358671235299032,"75":-0.06678758173546978,"76":-0.04429304211076513,"77":-0.022990398705623406,"78":-0.11942525384585934,"79":-0.09881780054718987,"80":-0.06891252785598727,"81":0.1983070861049548,"82":-0.04984194952132311,"83":-0.19061234754931808,"84":0.11235353488369236,"85":-0.03331259281941183,"86":-0.1434775799659269,"87":0.07289077689913921,"88":-0.05119071589963166,"89":0.246507712616216,"90":-0.05514247953773556,"91":-0.2547732872573221,"92":0.04939983751668921,"93":-0.2132660400309031,"94":-0.13623762878064585,"95":0.01212167241925462,"96":-0.0723654257601042,"97":0.16032711437578523,"98":0.03882687387560163,"99":-0.24849559376072464,"100":0.04186762440734156,"101":-0.20905541727468913,"102":-0.14254852548619687,"103":-0.03236073805780561,"104":-0.06545588698318557,"105":0.26160657940718535,"106":-0.0362448145537314,"107":-0.22281784465536705,"108":0.07006294356177575,"109":-0.175641382577149,"110":-0.1740062852237326,"111":0.01289669291609287,"112":-0.11454139941601758,"113":0.2646873573870408,"114":-0.10835579316347131,"115":-0.05254255826033954,"116":0.2309695227524127,"117":0.030883956959308064,"118":-0.27480727905943003,"119":0.14347004362015434,"120":-0.061918024603524,"121":0.22619088363381254,"122":0.15184792997736588,"123":0.0003207180717325843,"124":0.08866739215500163,"125":-0.11733390690000424,"126":-0.08742511351682124,"127":0.1646983693198438,"128":-0.10349146963733433,"129":0.024608756470944588,"130":0.08503139542551266,"131":-0.0899598630512697,"132":0.12937075592689787,"133":-0.11339162670792807,"134":-0.021302369730945896,"135":0.1416447162710928,"136":-0.08527501016782743,"137":0.10541404582105864,"138":0.0923188440496079,"139":-0.039321388614009474,"140":0.11258577077346607,"141":-0.15767225091470868,"142":-0.11308671763968545,"143":0.0017344426199365124,"144":-0.12435744394320311,"145":0.09744139199446508,"146":-0.01973812698210566,"147":0.016751924024970662,"148":0.1024649524376336,"149":0.0003741284050741985,"150":-0.08102445690985319,"151":0.03335107075670516,"152":-0.0996255728437716,"153":0.04148811450201375,"154":0.029535789692352314,"155":0.05366959430369283,"156":0.017538495350360624,"157":0.14367020848968362,"158":0.03432569542346248,"159":0.24165820477494895,"160":-0.11983136483811636,"161":-0.07805728791795981,"162":0.02006076518914847,"163":0.09013711280773666,"164":0.15051982547914844,"165":0.041673346620421235,"166":0.0231955449503037,"167":0.12385040958895238,"168":-0.0898783972300843,"169":-0.0703052428726236,"170":-0.049703863447994226,"171":-0.03825467612446802,"172":-0.029373129447224013,"173":0.06734861624453428,"174":-0.1064093933182592,"175":-0.012966263921751566,"176":-0.0723512736884157,"177":-0.07799933500124032,"178":-0.0912928827267991,"179":0.21441432956757933,"180":-0.027689570612625225,"181":-0.021482280438428973,"182":-0.15999037541297925,"183":-0.20423076845787447,"184":-0.12250707496460915,"185":-0.027107888315496657,"186":-0.012719770296361557,"187":0.2325013893890193,"188":0.11558208674450272,"189":0.10200941300736924,"190":-0.11202055062000744,"191":-0.07061561593997882,"192":-0.1977299231191069,"193":-0.15399932523282422,"194":0.024442262895460608,"195":0.16829450620794797,"196":-0.02937972493157198,"197":0.01764455782926608,"198":-0.07334621384237254,"199":0.000466093516581459}},{"sx":5,"sy":5,"depth":8,"w":{"0":-0.08036280090168674,"1":0.103381024528682,"2":-0.0015685574955386467,"3":-0.10253983269370787,"4":0.2816756232928375,"5":-0.10585832969529531,"6":-0.1595104498834988,"7":-0.0366015502902986,"8":-0.140574167509884,"9":0.31093291879353724,"10":0.06772597051776948,"11":-0.13275694047052583,"12":0.31083333659320095,"13":-0.12283882889468209,"14":-0.24118796438862247,"15":-0.05464716556820968,"16":-0.037768531790871314,"17":0.3679398940983148,"18":0.19310885500899863,"19":-0.22862672838259754,"20":0.3322074509165325,"21":-0.17631476937853957,"22":-0.11203593641838273,"23":0.033080695163958805,"24":0.012908340804903861,"25":0.1767225177516826,"26":0.07722964381872753,"27":-0.2611575102762959,"28":0.10774496344337822,"29":-0.24038721647751235,"30":0.013444493783200673,"31":-0.04165864799140015,"32":-0.026360016215959806,"33":-0.026871420367392127,"34":-0.1502974096995318,"35":-0.18063784669097976,"36":-0.1683804787843071,"37":-0.2172972360962677,"38":-0.10527927125180332,"39":-0.16156277150569032,"40":0.09700824392709481,"41":0.06446094425713196,"42":-0.21715034832453894,"43":-0.20042612636078205,"44":0.012623536363975873,"45":-0.18799024309449142,"46":0.20075824581845933,"47":-0.061563861188163704,"48":0.005990698726907272,"49":0.19470839783170682,"50":0.0011109336095634637,"51":-0.1661081043159672,"52":0.3221532702690791,"53":-0.2973687324161392,"54":0.16151537201210794,"55":0.13541394885435012,"56":-0.16329722958980417,"57":0.2651943844473441,"58":0.10617319383530587,"59":-0.0316973056074498,"60":0.5211277907216652,"61":-0.15427090493516513,"62":0.018428379873342803,"63":0.13652057624227798,"64":-0.1081435001831864,"65":0.19952177110322236,"66":0.18883660532048727,"67":-0.11130257811849295,"68":0.38680369672671383,"69":-0.2690459121981782,"70":-0.02182806654757979,"71":0.06947793889892834,"72":-0.14767516936126437,"73":0.09859970414807943,"74":0.08047958488524516,"75":-0.07506447617007361,"76":0.08619161897069638,"77":-0.03786036494926028,"78":-0.3348264903991121,"79":0.02364035894942419,"80":0.130883983574991,"81":-0.12082019945702452,"82":-0.1878414563038827,"83":-0.24149698255381272,"84":-0.044132782635296214,"85":-0.0013907899749865968,"86":0.29449249306858016,"87":0.1092793157896787,"88":0.2468338269526743,"89":-0.19877436169396423,"90":-0.19978919305211057,"91":-0.03246838741120918,"92":0.017639270625145632,"93":-0.04680917834078853,"94":0.3659527397492322,"95":0.16243776389723055,"96":0.09836102114324405,"97":-0.16049973867115847,"98":0.012736202098413398,"99":0.15675819405759292,"100":0.19519282592371953,"101":0.0819068935040498,"102":0.07055560759545433,"103":-0.047243002719859706,"104":-0.03857425685359295,"105":-0.08836121915178033,"106":0.1696331749394002,"107":0.17765380670060035,"108":0.2699512581594787,"109":-0.12882775164447113,"110":-0.024231077188650252,"111":-0.14606774002543832,"112":-0.19958392715038165,"113":-0.04912431692644327,"114":0.06504750720479457,"115":0.08851326256895516,"116":0.11473113571990105,"117":0.030343193958884625,"118":-0.25663252370345374,"119":-0.12315798471402292,"120":-0.012577077010984292,"121":-0.0329330586909255,"122":-0.10098548935940194,"123":-0.07251655072167222,"124":-0.002174662531762973,"125":0.05774670796662072,"126":-0.014074681697338482,"127":-0.005755914566808638,"128":0.03672763520948207,"129":0.0011686342931778362,"130":-0.17808255954327967,"131":-0.03961423353341155,"132":0.1323270039998215,"133":-0.027855469214260565,"134":0.09618798262100123,"135":-0.15793675850679464,"136":0.01044711996267893,"137":-0.03378407824849736,"138":-0.061095149356041295,"139":0.19643766188651768,"140":0.027321749913589682,"141":0.23586276789897,"142":0.02026410063324012,"143":-0.07998753394622021,"144":-0.0015134235707364384,"145":-0.045952094886013456,"146":0.06683139424418966,"147":0.30495026548013227,"148":0.023244933274032886,"149":0.2705649535896666,"150":-0.17553906963998764,"151":-0.08358037921257436,"152":-0.05012635134102392,"153":-0.09655411552510629,"154":0.022895461222701807,"155":0.15561470437925912,"156":-0.0065473574036515455,"157":-0.010559245238128605,"158":-0.04930994233720231,"159":-0.11888838557013713,"160":-0.11601182754601155,"161":0.03581367121779255,"162":-0.1951852168657379,"163":-0.10908016143480279,"164":0.08033484414299308,"165":-0.04580531269528118,"166":0.026836069732562976,"167":0.024993220491453225,"168":-0.126791636664232,"169":-0.022442461012438082,"170":-0.1447898431423585,"171":-0.12591534280386016,"172":0.044122947043335685,"173":0.03826048601229458,"174":-0.032739877556904176,"175":0.13497196203838702,"176":-0.2808018448978867,"177":0.036656700140144896,"178":-0.141435074082014,"179":0.007282651024630553,"180":-0.14099947579984154,"181":0.2537807243457906,"182":-0.15546964665328486,"183":0.2618224538107432,"184":-0.14368419427568463,"185":-0.11478748399424302,"186":0.10930025963164011,"187":0.462242793510451,"188":-0.06864675086451591,"189":0.2780869978631091,"190":-0.16574130403126877,"191":0.03747115658275307,"192":-0.10779198966013281,"193":-0.08138602590505208,"194":0.12106669368507683,"195":0.1789159709001684,"196":-0.031467458865328896,"197":0.07205382028147839,"198":-0.06942365939562983,"199":-0.003395722134564098}},{"sx":5,"sy":5,"depth":8,"w":{"0":0.0212582227652781,"1":-0.044157162548999186,"2":0.04533995206835682,"3":0.022307967567954713,"4":-0.07642676342418633,"5":0.02333922268003706,"6":-0.07335775028243963,"7":-0.04667857047219943,"8":-0.04755052636348257,"9":-0.016772035130546138,"10":0.0030959367106008803,"11":0.010739959647287835,"12":0.0003141536678851337,"13":-0.12146894507570238,"14":-0.14569266877581172,"15":-0.10254875692018597,"16":-0.055063953460899956,"17":-0.018172517345095066,"18":-0.10806761639599095,"19":-0.05615792781957038,"20":-0.06796809349034492,"21":-0.03913654976640935,"22":-0.13051299887704748,"23":0.004327161410398354,"24":-0.08404915487710109,"25":-0.043066402369512195,"26":0.04033462221751894,"27":-0.021865235016469142,"28":-0.060049986493021665,"29":-0.16494389805951987,"30":-0.06257852070807145,"31":-0.067018375948701,"32":0.022427946744989994,"33":-0.14262263598424424,"34":0.004133267543456358,"35":-0.030238222931970597,"36":-0.05839975684532845,"37":-0.0309653561482135,"38":-0.010467050465839076,"39":-0.13423826720185297,"40":-0.07731731262786483,"41":-0.03027210187957642,"42":0.020592787850297282,"43":0.00569532488869685,"44":-0.05481943227713932,"45":0.019422653820342833,"46":-0.17378428411528715,"47":0.01477812323450544,"48":-0.04306685998106739,"49":0.03794799321628953,"50":-0.039553141879199234,"51":-0.08384070980138089,"52":-0.06625438061275941,"53":-0.03818208802739652,"54":-0.1705997415006025,"55":0.0352307730027467,"56":-0.10321013394734932,"57":0.00012526792139226154,"58":-0.08681875109111203,"59":-0.011927375546270918,"60":0.047184183203561936,"61":-0.011303913066989973,"62":-0.16452335462420759,"63":0.0786661459642567,"64":-0.023157743389717947,"65":0.07529278578831156,"66":0.04309889797169219,"67":0.02867913212109473,"68":0.02234999407951162,"69":-0.027532611110519443,"70":-0.0788290078528152,"71":0.014361307612421477,"72":-0.04923542013645331,"73":0.049269627537337345,"74":0.10516893402001098,"75":-0.06334448533400318,"76":0.05488616804001591,"77":-0.07177894843090038,"78":-0.18733995369556042,"79":-0.12217734991248644,"80":-0.1449470883549899,"81":0.01766531127815275,"82":0.033644994526304754,"83":-0.006363584544657187,"84":0.028560832427967118,"85":-0.018314742506618378,"86":-0.06775713608701368,"87":-0.005115143196012823,"88":-0.15005824162856984,"89":0.051869417140942085,"90":-0.07706775895892609,"91":-0.06801691239290342,"92":-0.042133725469447686,"93":0.03648670724899249,"94":-0.03891974837584526,"95":0.10483668018975865,"96":-0.14884006163057792,"97":0.13182728341476177,"98":-0.07942840122739134,"99":0.03010613010199328,"100":0.1165416086935323,"101":0.12739015232231088,"102":0.07577738829675534,"103":0.059244937626896546,"104":-0.09054084369116272,"105":0.33508295669911903,"106":-0.021489448433650627,"107":-0.1328238317805274,"108":0.2542792083102486,"109":-0.1772858817967378,"110":-0.028992582147518316,"111":0.04944251164052491,"112":-0.20300909412454243,"113":0.2933291448064753,"114":0.08642918441950845,"115":-0.0737124389664818,"116":0.40370873657110073,"117":-0.059018873298051326,"118":-0.1026322755706153,"119":0.1261340080123697,"120":-0.03620749808770709,"121":-0.03635386829823326,"122":-0.15121724991656693,"123":0.008864152947752963,"124":0.04575662879919363,"125":0.04544529847431784,"126":0.033194300418841076,"127":0.057883825587853,"128":-0.054108731101050356,"129":0.008420572663796934,"130":-0.13199634489745823,"131":0.012049540652399202,"132":-0.09646991207913504,"133":0.08694641199448891,"134":0.03787856950515959,"135":0.08144982367346688,"136":0.07873876951344588,"137":0.0297060301467751,"138":-0.07849999983125891,"139":0.01826070125801408,"140":-0.12286411722870798,"141":0.003272837439201176,"142":0.1366258141135629,"143":0.16051006113117694,"144":0.13990988224798423,"145":0.01058922099304498,"146":-0.1342888638836492,"147":-0.23908144256143202,"148":-0.06368105051546777,"149":-0.16546075646554378,"150":0.2556357528334631,"151":0.11310164089729652,"152":0.043637516769475644,"153":-0.06953090673087006,"154":-0.12661932116793276,"155":-0.09435008578070282,"156":0.039275641161361216,"157":-0.15092049475892652,"158":0.14506521342226683,"159":-0.05433107476716135,"160":-0.02637102575896813,"161":-0.04790979295222093,"162":-0.12187018699788574,"163":0.07725577162641778,"164":-0.0744592964504883,"165":0.06539849972142499,"166":-0.037425996417211095,"167":-0.024652314496929017,"168":-0.051767520973922725,"169":-0.03710073255197179,"170":-0.02955566747012966,"171":0.09560355608075709,"172":-0.051612810691688306,"173":0.015005460767056257,"174":0.01590757697296017,"175":0.006370687665731239,"176":-0.07650130365067255,"177":-0.12174422431468158,"178":-0.05428320053655139,"179":0.12995507252769678,"180":-0.11123132978950656,"181":0.07691436678856994,"182":-0.034684568233257364,"183":0.03026827133319358,"184":0.023026093293076654,"185":-0.01667116702401288,"186":-0.145598413316289,"187":-0.12881867987326093,"188":-0.0433167445280206,"189":-0.11312376228251406,"190":-0.020085189842313705,"191":-0.04564289178998674,"192":-0.06002491480467291,"193":-0.057373315736632007,"194":-0.21265757464721913,"195":-0.21396099716921532,"196":-0.13594056541730506,"197":-0.10144712429595014,"198":-0.012265314208773508,"199":-0.04161763495020184}},{"sx":5,"sy":5,"depth":8,"w":{"0":-0.12745820901464672,"1":-0.0726493374517355,"2":0.003309256821412808,"3":0.05511245895466844,"4":-0.002265843323288535,"5":0.007516922743951978,"6":-0.12167432512760604,"7":-0.046830800084864704,"8":0.005667174111021416,"9":-0.07331013590345851,"10":-0.013284929438587199,"11":0.0553922391803516,"12":-0.06254788802153469,"13":-0.05948944588579807,"14":0.0761730541202813,"15":-0.08918345715053161,"16":0.10435581804271808,"17":-0.11255118886276035,"18":-0.07310503235714637,"19":0.06748218680073378,"20":0.05543873723417702,"21":-0.030954935205467434,"22":0.2380119560394948,"23":-0.18312376579852305,"24":-0.16750960362498657,"25":0.028359046037732216,"26":-0.05757563764799985,"27":0.140572106244438,"28":0.2654944086695213,"29":0.028011147139021263,"30":-0.0009353636473414521,"31":-0.21110120096638205,"32":-0.14683565724399592,"33":0.3057929308877781,"34":0.07810723260912432,"35":0.15526223387770868,"36":0.5551978660258895,"37":-0.11684115858875387,"38":-0.1578471373574505,"39":-0.08015994906799376,"40":-0.1395902338914386,"41":-0.0024008619144807453,"42":0.01944724989799301,"43":0.041842931866921604,"44":0.05530827121204215,"45":0.02293526624027237,"46":-0.12290966708925359,"47":-0.022058907688571213,"48":0.018169106150862143,"49":-0.04001649523830136,"50":-0.03305508839092236,"51":-0.004692274355856209,"52":-0.06951288070190066,"53":-0.07178036389481676,"54":-0.00591431001835511,"55":-0.05590039497552306,"56":0.142980005763705,"57":-0.08788192321488006,"58":-0.07229038704611238,"59":-0.04088849324246175,"60":-0.02988750044789587,"61":-0.17521175375478182,"62":0.13417792840387552,"63":-0.16065398321577873,"64":0.1157301523962722,"65":-0.10415192543829065,"66":-0.07573624729754606,"67":-0.15847751815589817,"68":-0.042163108453280716,"69":-0.20485974535304283,"70":0.28014882380263534,"71":-0.2166516398150519,"72":-0.05904388452887201,"73":-0.08180922926782166,"74":-0.03933657962340083,"75":0.060208670423887556,"76":0.19213595972435618,"77":-0.09174121366638852,"78":0.1089150166418794,"79":-0.1333222463489337,"80":-0.06036591228884898,"81":-0.03555367513583458,"82":-0.013836906629166819,"83":0.01354824938963345,"84":-0.019336038517846012,"85":0.015448398758494233,"86":0.0036146436284051602,"87":-0.019948093202706525,"88":-0.027450892894179214,"89":-0.04657700192328416,"90":-0.12193998249682365,"91":-0.05539364576664232,"92":-0.08889592388008541,"93":-0.06360928012852621,"94":-0.024479217731132277,"95":-0.04535517068936512,"96":0.046905207596839193,"97":-0.017621380840429055,"98":-0.08017317503620125,"99":-0.05799767368847702,"100":-0.052257073460450235,"101":-0.0592376212577597,"102":-0.10489833704901921,"103":-0.04013242750914122,"104":0.13877386416747092,"105":-0.05529780007670087,"106":-0.12541937520270396,"107":-0.11302590425321661,"108":-0.08465082668126664,"109":-0.10341219353641877,"110":0.008200820301541319,"111":-0.13537719496216585,"112":0.18743401494100284,"113":-0.05644112402455992,"114":-0.15760217757109923,"115":0.04262458211829321,"116":-0.04988926427746177,"117":0.007831921398390533,"118":0.11260719118661867,"119":-0.09969807460179161,"120":0.006058370515005127,"121":-0.02132495825639084,"122":0.027112443627748884,"123":0.020057625640552447,"124":-0.04150683285802077,"125":-0.0278832449758787,"126":-0.06798408482881022,"127":-0.04135935121969993,"128":-0.033719321584192,"129":0.0001437109541048302,"130":-0.04078824874571406,"131":-0.0563700754206261,"132":-0.04793977654250823,"133":-0.050324599782104844,"134":-0.13837822568472397,"135":-0.01509563293438037,"136":-0.1239479632442573,"137":-0.02262996683235008,"138":-0.030400101078741453,"139":-0.055293636806106744,"140":-0.05863919298251394,"141":-0.06887888185760423,"142":-0.08945763786779189,"143":0.011475709168139602,"144":-0.04004158247094872,"145":-0.10567897763939167,"146":-0.06883965360851886,"147":-0.05160865465368574,"148":-0.09727725333111985,"149":0.012489735975031226,"150":0.003299931149396941,"151":0.07064987098634803,"152":0.042612048761671614,"153":-0.08507686420149284,"154":-0.08727963542393109,"155":-0.014373489708938342,"156":-0.12735277226990402,"157":0.06744332003629283,"158":0.04139820462082455,"159":0.032004978867270266,"160":-0.06571014125338277,"161":-0.019763985125630254,"162":-0.05255008747506474,"163":-0.03224291365858843,"164":-0.06413170242902916,"165":-0.032488451211635606,"166":-0.07069626237685941,"167":-0.01669430039404705,"168":-0.0529160826872913,"169":-0.07400723547519733,"170":-0.02563023436347481,"171":-0.02500868621599309,"172":-0.0670014605551932,"173":-0.004815528370792322,"174":-0.031486159561188456,"175":-0.015141171780413607,"176":-0.07733692179974225,"177":-0.07521338087551249,"178":-0.007336108482528868,"179":-0.015180140695766002,"180":-0.11065774048443212,"181":0.012934735471621153,"182":-0.06434079520914145,"183":0.03316288713222045,"184":0.03916185054201355,"185":0.007758400812914126,"186":-0.11019390412070404,"187":-0.022233644482643557,"188":-0.039343060986653675,"189":0.09850426228533044,"190":0.016978851520068075,"191":-0.032219873519865716,"192":-0.021010067204145784,"193":0.0542423135193842,"194":-0.0498877762538418,"195":0.02637752599564508,"196":0.009281022170115515,"197":0.021525899509970612,"198":-0.10700312566275202,"199":-0.10193202872470321}},{"sx":5,"sy":5,"depth":8,"w":{"0":-0.06995618335212446,"1":0.030656912280676577,"2":0.061208638568163984,"3":0.1363657606625049,"4":0.05120245208249795,"5":0.006408198841052244,"6":-0.05949320403719716,"7":0.009959702734857578,"8":-0.0781494052048179,"9":0.016552161844679662,"10":0.07497236779298994,"11":-0.020962784369635248,"12":-0.08116677116023789,"13":0.0021059394526170496,"14":-0.07966247484842295,"15":-0.03725477136496204,"16":-0.07968880935493183,"17":-0.028615688392378276,"18":-0.04254197707310285,"19":-0.01920042367087614,"20":-0.047844888806681286,"21":-0.031612837981013,"22":-0.13075467429064483,"23":-0.048716786441964734,"24":-0.10018487423685479,"25":0.05180671406675102,"26":-0.0029052238636966096,"27":-0.02691401166776379,"28":-0.066616457802224,"29":-0.08322262854994748,"30":-0.16766409403249846,"31":-0.02019095961369202,"32":-0.07994551541910055,"33":-0.03983692664826715,"34":-0.08656132331741151,"35":-0.08041567864942806,"36":-0.12161209646311967,"37":0.03283719610159176,"38":-0.04881544046026447,"39":0.13723653777487685,"40":-0.047623270411561815,"41":0.03096794674756218,"42":0.0663036530893252,"43":0.23460638734212366,"44":-0.020845408068679145,"45":0.12186462971072756,"46":-0.06792338219609817,"47":0.06701710439334244,"48":-0.041239449657006495,"49":-0.012950729039192269,"50":0.04200571663462392,"51":-0.006359065569952716,"52":-0.06419455856892843,"53":-0.03661691770922806,"54":-0.12316179632854311,"55":-0.03508500844754464,"56":-0.10316229986975785,"57":-0.006327189203247223,"58":-0.07394196043958305,"59":-0.001728496623363566,"60":-0.048690096001100226,"61":-0.007938911991431171,"62":-0.15298983449025974,"63":-0.03733570012166466,"64":-0.13959591881777111,"65":0.004607815664480917,"66":0.018299091726816336,"67":-0.022043714851782106,"68":-0.08478516677745696,"69":0.03695839763208904,"70":-0.12776033539786605,"71":0.06954143991915653,"72":-0.11089285436864706,"73":-0.05864111510631216,"74":0.06067933997858495,"75":0.06135415996217921,"76":-0.150735232025132,"77":0.21347992511510647,"78":0.048202368577444935,"79":0.11306192206986779,"80":-0.07412514450216139,"81":-0.04361844837289989,"82":0.041572076821381206,"83":0.18108227793930812,"84":-0.07006615089235231,"85":0.06322875246001065,"86":-0.025864767199786552,"87":-0.012561753193183147,"88":-0.07518447739671577,"89":0.012711757343278125,"90":0.024629041757449094,"91":-0.03921021491091065,"92":-0.051383373180439264,"93":-0.013855057254100002,"94":-0.12057454206019526,"95":-0.06739221303381808,"96":-0.17692848954662335,"97":-0.028028541016645186,"98":-0.13635748310766685,"99":-0.03261853043410714,"100":-0.1080495417838733,"101":0.016314520021221343,"102":-0.13850051212007541,"103":0.018358954525236598,"104":-0.12722666494162221,"105":-0.07068816450461429,"106":0.05109762108516404,"107":0.051020827633957024,"108":-0.14409659115637174,"109":0.13089501677738763,"110":-0.09757803570916491,"111":0.08111762744577347,"112":-0.06758789925868001,"113":-0.08384394273179456,"114":0.05542706779594735,"115":0.09330056060370949,"116":-0.1103625421479801,"117":0.14800571713734742,"118":-0.04575406409696263,"119":0.05330891701054236,"120":0.016550958441847785,"121":-0.05032958999169694,"122":-0.04935669996894704,"123":0.06256241297852497,"124":-0.058398614464617825,"125":0.019974930438989992,"126":-0.0918736597488666,"127":-0.04536028324831236,"128":-0.15573253385421457,"129":0.024884008757180116,"130":-0.04229966924976813,"131":0.0033246062894753668,"132":-0.023849470800486182,"133":-0.008904393461229083,"134":-0.12774621850935672,"135":-0.06778232083548683,"136":-0.12835249135374624,"137":-0.007575663471058074,"138":-0.029884013489695115,"139":0.008071005191268242,"140":-0.09362378075939476,"141":0.17416283302069438,"142":-0.05336801215130148,"143":0.0874288471962663,"144":-0.07160154932407306,"145":-0.05182723618717926,"146":0.06483104585392115,"147":0.08050142496047955,"148":-0.10645328911824882,"149":0.23353472141513928,"150":-0.05250221313303623,"151":0.02140903850270087,"152":-0.09630681542797903,"153":0.01308042077557243,"154":-0.0021965880226607806,"155":0.11340482687924494,"156":0.04296403964721461,"157":0.07308215440286459,"158":-0.09404677161279097,"159":-0.09241604974892652,"160":-0.10806524801872304,"161":-0.0035941342934520796,"162":-0.13609074534581836,"163":-0.005274253602257631,"164":-0.05711085931007824,"165":0.020229771828631733,"166":-0.1148765133468556,"167":-0.0559030207820372,"168":-0.16645466228907016,"169":0.023813391158221325,"170":0.008879586962828055,"171":0.02631354663028957,"172":-0.01362668074862563,"173":0.06313109890292476,"174":-0.10652529404352755,"175":0.0014895267619071512,"176":-0.10303299929053548,"177":-0.06109198591518253,"178":0.09376900927598066,"179":0.10675783263872544,"180":-0.13165107309808555,"181":0.169135177640896,"182":-0.07251967135292807,"183":0.06953174440772376,"184":-0.026628668597564038,"185":-0.07095350146396857,"186":0.062380700565249005,"187":0.06881983005999384,"188":-0.08459991483789435,"189":0.08774029174269195,"190":0.07750112801888122,"191":-0.03820580714080288,"192":-0.016268096210035735,"193":-0.10934517949064265,"194":-0.06611176472419054,"195":-0.08607756330789246,"196":-0.12682425968570493,"197":-0.10231274898926579,"198":-0.031158379804025273,"199":-0.1380013237650524}},{"sx":5,"sy":5,"depth":8,"w":{"0":-0.000002800648203325002,"1":-0.00003895914540740218,"2":-0.00004134894705434585,"3":-0.00004776459493200294,"4":-0.000057118449903425886,"5":-0.00003304916268493138,"6":-0.00002756646963736758,"7":-0.00004281563081349204,"8":-0.00002497631718719025,"9":-0.00002738094487526358,"10":-0.00003292604737718485,"11":-0.00001747158779802445,"12":-0.00002112562462586897,"13":-0.00004784224240162199,"14":-0.000048769932612337807,"15":-0.00004858084404794727,"16":-0.00003071699847872932,"17":-0.00002119649188503988,"18":-0.000036424093628308674,"19":-0.000034341444080563645,"20":-0.000028313313192879185,"21":-0.00005519081839150242,"22":-0.000036338890095542346,"23":-0.000044880057521545446,"24":-0.000031078056140364326,"25":-0.000018656719199792608,"26":-0.00005338838643536405,"27":-0.0000615601000196671,"28":-0.00003866805616219489,"29":-0.00008135324928528575,"30":-0.00003339318740452229,"31":-0.00005718264870009735,"32":-0.000025365005758631387,"33":-0.000013410267813679493,"34":-0.00007788479465230448,"35":-0.00006490054423165739,"36":-0.0000369993187975151,"37":-0.0000648744931186914,"38":-0.00003972092331343196,"39":-0.00004866608801838768,"40":-0.000022281289872418582,"41":-0.000034776900972562074,"42":-0.00005819109759879934,"43":-0.000065589907197031,"44":-0.00006755662561213321,"45":-0.00005299666708563591,"46":-0.00004603083788452477,"47":-0.00004189111076162984,"48":-0.000040837952640566335,"49":-0.00003536892446972835,"50":-0.000038711981995823025,"51":-0.000019121548928416884,"52":-0.000030431492628361556,"53":-0.0000483046774855591,"54":-0.0000502275392251827,"55":-0.000058980886530230744,"56":-0.00005015953829473429,"57":-0.000015880637867715116,"58":-0.00003708944525083706,"59":-0.00003181706651451699,"60":-0.000023056083197805044,"61":-0.00006310303732457372,"62":-0.0000553670409671076,"63":-0.000051890085434679926,"64":-0.00005881455416452032,"65":-0.000004534407304963485,"66":-0.00006148011943508091,"67":-0.00007786451711851557,"68":-0.00003174916624537538,"69":-0.00008470172163973952,"70":-0.0000526036406188077,"71":-0.000035582972615201444,"72":-0.00006452132584674184,"73":-0.0000014001110241022647,"74":-0.00008998620111717335,"75":-0.00006143152749219725,"76":-0.00002944591091829256,"77":-0.00004032738584907018,"78":-0.000048487917074189075,"79":-0.00001774626719414231,"80":-0.000020833538391710234,"81":-0.00002256532126189514,"82":-0.00004837874575118891,"83":-0.00007577189715240914,"84":-0.00005830387375815704,"85":-0.00007253652480161884,"86":-0.00003698566692439584,"87":-0.00004881302073590795,"88":-0.000025640992374256475,"89":-0.00003101755205364374,"90":-0.000047971521529664444,"91":-0.00001859450084890147,"92":-0.00004306011279737961,"93":-0.00004670553156985992,"94":-0.000054703578427795036,"95":-0.00005172070103800181,"96":-0.000041445750842055896,"97":-0.0000098025822352047,"98":-0.00005043143494698399,"99":-0.000023316461019580836,"100":-0.000020171130825940115,"101":-0.00005971531535211554,"102":-0.00006533049410039334,"103":-0.00004536693434168524,"104":-0.00002971807440402141,"105":-0.00000870575221966977,"106":-0.00007209296212868232,"107":-0.00006233212003539877,"108":-0.00001937479250417341,"109":-0.00006072888514968712,"110":-0.00004272808269788616,"111":-0.00002895654462668768,"112":-0.000025723957216082942,"113":-0.0000296650273382455,"114":-0.00009370261924090228,"115":-0.000040057235736019666,"116":-0.00003900828321729623,"117":-0.000020871552902926897,"118":-0.000008966428343143378,"119":0.000004669262706001598,"120":-0.00002257153837199341,"121":-0.000018143404928383944,"122":-0.00006140508228712095,"123":-0.00009240620110350331,"124":-0.000052150400724913884,"125":-0.00009565758884938768,"126":-0.00002760686717838415,"127":-0.000037990248113515295,"128":-0.000023599253962192102,"129":-0.00003391051925305856,"130":-0.0000697484184871465,"131":-0.000041218260215754974,"132":-0.00005433594360853902,"133":-0.00006117464486703575,"134":-0.00005349913945753354,"135":-0.00005340678903475682,"136":-0.00003762780304021276,"137":-0.00003533162225437178,"138":-0.000055972317944016505,"139":-0.000025055770742282673,"140":-0.000022386412480611545,"141":-0.00006973394629781995,"142":-0.00005527526037630447,"143":-0.00005373980181405404,"144":-0.000032215517134472637,"145":-0.00003470889911712872,"146":-0.0000505934028942044,"147":-0.000034358382045587595,"148":-0.00003241765774969449,"149":-0.00005437617250060702,"150":-0.000029293688286716307,"151":-0.000031880778132070585,"152":-0.000020574618799291948,"153":-0.0000316409159001702,"154":-0.00007639502323327978,"155":-0.000036446434926206984,"156":-0.00004355857950428502,"157":-0.00003407453562031658,"158":-0.000015070727909074155,"159":-0.00005560258574792996,"160":-0.0000280743212565088,"161":-0.000020675419868238374,"162":-0.00005283722739861307,"163":-0.0000800270051416473,"164":-0.00004361216427597006,"165":-0.00009765961218105884,"166":-0.0000456290787327505,"167":-0.000031893864953933646,"168":-0.000024517115286003396,"169":-0.00004221282330798728,"170":-0.00006921979766575196,"171":-0.000052762786594271076,"172":-0.00006986850577027937,"173":-0.00006429409879829026,"174":-0.00006453539267378596,"175":-0.000051354571487118956,"176":-0.00002506814050736743,"177":-0.00003907445714564749,"178":-0.000053798645441180526,"179":-0.000030759986188392425,"180":-0.00003832084696389325,"181":-0.00004826053303480579,"182":-0.00006661373505140133,"183":-0.00005493513341189108,"184":-0.00002856715221124983,"185":-0.000025544955806465663,"186":-0.00004297960019578555,"187":-0.000028142353000526653,"188":-0.00001891238480815003,"189":-0.00007653497901255379,"190":-0.000039746732919975966,"191":-0.000056339469832557676,"192":-0.0000194829925910959,"193":-0.00003264320547074093,"194":-0.00007346579964922184,"195":-0.00006243442879298599,"196":-0.00003663729733298335,"197":-0.00007120774312864136,"198":-0.00003802092704649504,"199":-0.00005494298955918362}},{"sx":5,"sy":5,"depth":8,"w":{"0":0.12342078845836622,"1":0.021191016959087414,"2":-0.08670146506062466,"3":0.04467874769562206,"4":0.23768224985012593,"5":0.14187397446374672,"6":0.1886812193797419,"7":0.2573088731719061,"8":-0.030356692515311454,"9":0.03912728078930987,"10":-0.0759985336640313,"11":-0.010996276256941464,"12":0.054093182449724705,"13":0.12799969913162768,"14":0.02789485832065281,"15":0.15573193670589505,"16":-0.1622534888203675,"17":0.007532915695772049,"18":-0.04950121803583435,"19":-0.01902282333229395,"20":0.10820626981872936,"21":-0.12335901500558263,"22":-0.17527634487948762,"23":0.0001476880125798132,"24":-0.13673841995209482,"25":0.002124013135296564,"26":0.0525463653807973,"27":-0.0018191087723437448,"28":0.060961736051722795,"29":0.09208670685057237,"30":0.10395300774158978,"31":0.04789961108275402,"32":-0.05415415760793425,"33":-0.05964784513822047,"34":0.02403991125357705,"35":0.052090309698236956,"36":-0.025402391304366462,"37":0.02418536634716332,"38":-0.05386996078777237,"39":-0.05303967854487376,"40":-0.10154997847806996,"41":0.2896214367241004,"42":-0.07229001803588885,"43":0.22934408071229762,"44":0.29264642950802344,"45":0.15879986222675793,"46":-0.13836256511241857,"47":0.04128087582195718,"48":-0.08895854215390687,"49":0.16667687273800155,"50":0.009186361676094575,"51":0.06930579124278284,"52":0.23222050515942047,"53":0.12616399498413483,"54":-0.16681904407372958,"55":0.08689918548540465,"56":-0.015034503568552245,"57":0.007477273432428779,"58":0.06429567650117951,"59":-0.07972236743809943,"60":-0.08918261124676145,"61":0.19389658850187735,"62":0.22033271310118843,"63":0.3232738310533244,"64":0.12420155432618477,"65":-0.10920991319132048,"66":0.03241838444414846,"67":-0.07628272809632196,"68":-0.17784849653986678,"69":0.11670164514266915,"70":0.17530968739656172,"71":0.1613358041648619,"72":0.10742220978968882,"73":-0.09809893929895835,"74":-0.11476380455841784,"75":-0.0133869837201522,"76":-0.16500463728743253,"77":-0.08606889321308021,"78":0.016864539380756216,"79":-0.15419867945166302,"80":-0.041704651499859594,"81":0.1786034919575851,"82":-0.13323822900492324,"83":0.02941077893987086,"84":0.2173550741542951,"85":-0.058127540853033385,"86":0.45326979503701403,"87":0.16687704032863265,"88":0.06067566939823516,"89":0.04078675166870132,"90":0.0022823981930204054,"91":-0.16066323404943786,"92":0.09420328506628092,"93":0.12697954464148573,"94":0.521542490550197,"95":0.35909666998577683,"96":0.07960053091340029,"97":-0.05672931068690368,"98":-0.08721534306664007,"99":-0.09249783501093202,"100":-0.13326564956664042,"101":0.08794597821412649,"102":0.3254008934453722,"103":0.24552520258765154,"104":-0.013103425502159653,"105":-0.035753760196956794,"106":-0.01491375203954747,"107":-0.13274732333935813,"108":-0.05357434096723627,"109":-0.11385453633603233,"110":-0.033076806490528896,"111":0.039511453167719375,"112":-0.15314126574405137,"113":-0.014087472553291883,"114":-0.007164119879205386,"115":-0.0269815807266067,"116":-0.01736881808455874,"117":-0.1454904864226633,"118":-0.28054728565000103,"119":-0.08736579207564639,"120":0.4150102459703613,"121":-0.043470407184328055,"122":-0.0864509741400432,"123":-0.13651875905715463,"124":-0.08236154756366318,"125":-0.26042727375530733,"126":0.2938538124403618,"127":-0.20071687117039055,"128":0.3708809369596892,"129":-0.05758429605464062,"130":-0.20575861546574,"131":-0.1881902880195962,"132":0.004355236056910947,"133":-0.18257729901164652,"134":0.1712229456315245,"135":-0.1026572359307624,"136":0.212207390058488,"137":-0.09010250064485219,"138":-0.09624169014713883,"139":-0.1637764202259073,"140":-0.07151381240675984,"141":-0.23596926926089581,"142":-0.16890034170146928,"143":-0.0065441577421799235,"144":0.026641715882468605,"145":-0.08991767624849312,"146":-0.03120384330301072,"147":-0.13901262634634623,"148":-0.16605515698813497,"149":-0.12869779329723402,"150":-0.18460104371197103,"151":-0.00682744701235218,"152":-0.23882824463018898,"153":-0.11539977233190232,"154":-0.056899767020796146,"155":-0.01763492441946777,"156":-0.0897858050711946,"157":-0.10250784454016883,"158":-0.29343513358635814,"159":-0.09056888971385708,"160":-0.19786710077943306,"161":0.15609627808834473,"162":0.07079696497085729,"163":-0.10072732664894159,"164":0.22955040241279862,"165":-0.1836603079611901,"166":-0.3502746086258888,"167":-0.11987404594782934,"168":-0.1649739864386058,"169":0.0268879845561217,"170":-0.024299291304342337,"171":-0.03328341669861961,"172":-0.0667019532567954,"173":-0.04401182968327925,"174":-0.2444117197814135,"175":-0.04007771765287349,"176":-0.164137103256743,"177":-0.08277756206145508,"178":0.057789286406229476,"179":-0.009982954361317554,"180":-0.0894675684865494,"181":-0.015314445072897283,"182":-0.18061803743957336,"183":0.056786705508435516,"184":-0.09807309905746292,"185":-0.026082589458411184,"186":-0.009120844598912702,"187":-0.0864494553151084,"188":-0.05771310660617018,"189":-0.06767316068133372,"190":-0.1297009861735661,"191":-0.07635675923928906,"192":-0.18463684428819732,"193":-0.07842680670437127,"194":-0.14621454488265065,"195":-0.025876880348138048,"196":-0.050991524591364544,"197":-0.052611233879596604,"198":-0.2449930568062898,"199":-0.1201731351905423}},{"sx":5,"sy":5,"depth":8,"w":{"0":-0.14613836850274375,"1":0.1696417148579909,"2":0.07390542524156583,"3":-0.021440283808982018,"4":0.08424889437697201,"5":-0.1889605923437858,"6":-0.17835083367405755,"7":0.0452435831996697,"8":0.019528278847293634,"9":0.05699490781325498,"10":-0.007993864873512415,"11":-0.08681686614738954,"12":0.009628644401851504,"13":-0.004202123287341052,"14":-0.0227638471951773,"15":0.05794537490136885,"16":-0.0009300798242142236,"17":0.018883954070667595,"18":0.07943801455704794,"19":0.0690612753167566,"20":-0.0018745675308423247,"21":-0.044958578691228886,"22":0.008608779351646449,"23":-0.012345312933908089,"24":-0.018652347024995946,"25":-0.014435827639285257,"26":0.10294557089085939,"27":0.06880471135719672,"28":-0.13514753351565506,"29":0.026363793119642053,"30":-0.08502566463645933,"31":0.020720725603021767,"32":-0.08419663966787949,"33":0.14098164369439403,"34":-0.05552597008881149,"35":0.04551293712504404,"36":0.041728808145560216,"37":0.0475860823617651,"38":-0.1559178671185842,"39":-0.11022521949257029,"40":-0.06159644682974107,"41":0.11271217226496906,"42":0.051775969579927666,"43":-0.011534193597859042,"44":0.22955764780709434,"45":-0.006189273206582675,"46":-0.011901040872016886,"47":0.1266439960835044,"48":0.0059178825735285,"49":0.09013001079076505,"50":-0.01942067778524605,"51":-0.13662082346721535,"52":0.13121113943828927,"53":-0.07095320546736014,"54":0.012985526432219875,"55":0.11413031246213588,"56":-0.09997377502042211,"57":0.14222593284975082,"58":-0.05216942650495638,"59":0.010445032244523094,"60":0.041168924263950996,"61":0.02898911560881064,"62":-0.09050335410877498,"63":0.04496634701278143,"64":-0.1298640904728856,"65":0.048186524883139514,"66":-0.04282058704406868,"67":0.04702922866021801,"68":0.11698478945980081,"69":-0.10326455391751033,"70":-0.1435036083247501,"71":0.005073072493091031,"72":-0.13278170058749586,"73":0.12151935648272774,"74":-0.023090279192556084,"75":-0.034209865963569876,"76":0.10671768830636963,"77":-0.013630583800474983,"78":-0.01550477087580792,"79":0.1993850170675074,"80":-0.018773569157697723,"81":-0.012060698610250626,"82":0.008737466858113222,"83":-0.016200023767644674,"84":-0.009386363124881194,"85":-0.01921736515120595,"86":0.10371763280998675,"87":-0.05685589676210041,"88":-0.06724785156714952,"89":-0.05096061131922995,"90":-0.1372317946500523,"91":-0.10257013949332872,"92":0.04493706404551272,"93":-0.08430508281867652,"94":0.013659111473089848,"95":0.07040640665232228,"96":-0.10650198126814035,"97":0.07653033252571806,"98":-0.1621270953719976,"99":0.05036276894207794,"100":-0.07005162572220444,"101":0.0081615819731879,"102":-0.221519848674689,"103":-0.03989576953540704,"104":-0.16396317691193327,"105":-0.08090124628293392,"106":-0.030460520038843187,"107":0.06975424920248649,"108":-0.2002435315036632,"109":0.12788898618582042,"110":-0.05225502003085878,"111":0.23297596362966563,"112":-0.005791091035819589,"113":-0.09790394534113807,"114":-0.03791543766568977,"115":-0.0563617829801051,"116":-0.17743263502878534,"117":0.2538329199495703,"118":0.1799506336705578,"119":0.24646830023379673,"120":0.13816147441581994,"121":0.058336302617719334,"122":-0.005518037628537361,"123":-0.06531639663195,"124":-0.047829131838294466,"125":-0.03046138042261258,"126":0.055145671006152155,"127":-0.007228427383634876,"128":-0.05756534506079707,"129":0.11667709755016979,"130":-0.056051252809507256,"131":-0.04373514625975479,"132":-0.09257668468522591,"133":-0.05150092491632203,"134":-0.040220813277042466,"135":0.011938726109723756,"136":-0.1623670287402686,"137":-0.15194452280359758,"138":-0.012276773213916237,"139":0.24360975136569737,"140":-0.275120725175423,"141":0.36322139729534136,"142":0.04061983883230835,"143":0.32997162955797155,"144":-0.1677596777628679,"145":-0.09301443226250207,"146":-0.007524901013846444,"147":0.16340985396764063,"148":-0.1156178936355094,"149":0.29920426596201943,"150":0.06554536236583723,"151":0.14709554765225674,"152":0.024523870527773814,"153":-0.03175505295006451,"154":-0.20247404537485766,"155":0.1361917028328802,"156":0.07434705799788849,"157":0.18377156439217426,"158":-0.13433279418130364,"159":0.04135760936977163,"160":-0.07629570517141139,"161":0.053067092140843326,"162":-0.009894754222337585,"163":-0.088541251029123,"164":0.008882267156110495,"165":-0.03141963187168585,"166":-0.12298819837187704,"167":0.030814978482113158,"168":-0.13177812886370935,"169":-0.05208355216664612,"170":0.027871910548990804,"171":0.10990329770886495,"172":-0.13996603861040677,"173":0.13909214871275,"174":0.04837480369468162,"175":0.1442840639432476,"176":-0.2969220343883477,"177":-0.09170716144449989,"178":0.0814145704779385,"179":0.3357892165277795,"180":-0.07238987478237968,"181":0.45743872609402286,"182":-0.0033407584270361435,"183":0.09453163082867044,"184":-0.20800254313573624,"185":0.04575234978949054,"186":-0.017931904784399672,"187":0.1438024480081059,"188":0.2733072569655695,"189":0.2559125797776742,"190":-0.14028132693255613,"191":-0.1282100201298689,"192":-0.16120906174103378,"193":0.06428694532170202,"194":-0.006583029899716973,"195":0.06915441127800587,"196":0.04046616551033462,"197":-0.05992768420600857,"198":-0.010935350889171962,"199":0.030622652233487004}},{"sx":5,"sy":5,"depth":8,"w":{"0":-0.04024695221081502,"1":-0.003892470140594495,"2":0.08614546800598782,"3":-0.010371012274588129,"4":0.010856542743425197,"5":-0.019708939310698795,"6":-0.029310021707582446,"7":-0.015575694491509022,"8":-0.0018876538541201318,"9":-0.0961524686738633,"10":-0.07574174949151107,"11":-0.034030419914932754,"12":-0.07457083708670782,"13":-0.003462749255422195,"14":0.004711227594185949,"15":-0.029476816552052833,"16":-0.10272160585546018,"17":-0.0607314843078543,"18":-0.0785918284607915,"19":0.027429167478297288,"20":-0.05300081182530653,"21":0.09171947089457537,"22":-0.04599886438585822,"23":0.013538960868437654,"24":-0.11755170354904274,"25":-0.08044156753808716,"26":-0.027095557792529115,"27":0.14086626944913455,"28":-0.0518429777376149,"29":0.2684063677254895,"30":0.04244423367736948,"31":0.04444742826008929,"32":-0.0025032022795566217,"33":-0.015387050812643516,"34":0.03447254674617613,"35":0.08810281292297449,"36":-0.07641383488511223,"37":0.1586298515997018,"38":0.14313073481979685,"39":-0.05862548603126271,"40":-0.013090035547635015,"41":-0.022848600835838236,"42":0.0335531559025686,"43":-0.003022009540859595,"44":-0.035389590178812234,"45":-0.026511545163967847,"46":-0.07647875204223287,"47":-0.028185968874498264,"48":0.06779618741161633,"49":-0.11029514857840346,"50":0.010852102501898336,"51":-0.08629538823185808,"52":-0.18100105551421325,"53":0.0170595249200618,"54":-0.010091671086911232,"55":-0.09335438404438799,"56":0.04924389933804975,"57":-0.17941879556521012,"58":-0.10950674206119212,"59":0.05847761132318299,"60":-0.2801791177258648,"61":0.22475859812849433,"62":0.0034186525324653434,"63":-0.07555900440744877,"64":-0.08349231775122509,"65":-0.04538442158717548,"66":0.026621992879398957,"67":0.20509186768729018,"68":-0.10080314027905,"69":0.19606081752639157,"70":-0.05452949581483826,"71":-0.1059153754535966,"72":-0.05715006561553581,"73":-0.03759815725361415,"74":-0.005154345822000367,"75":0.004949731750449766,"76":-0.010269749255971974,"77":-0.06496395660365681,"78":-0.02123622455828328,"79":-0.098397371380778,"80":0.0863307499067054,"81":-0.1202116231301745,"82":0.006018427319018796,"83":-0.04942435837179898,"84":-0.09679342327113097,"85":-0.09253348919279215,"86":-0.08268838870503578,"87":-0.1391908462353362,"88":0.03903653677695742,"89":-0.19477787355536125,"90":0.024347135829352193,"91":-0.03605142461990964,"92":-0.17793201922547444,"93":-0.09363222426608842,"94":-0.08312359700791197,"95":-0.1124749242128949,"96":0.042801736682362417,"97":-0.13200227312897023,"98":-0.05664836417992211,"99":0.2718035889516042,"100":-0.08874634471234097,"101":0.2794138634884127,"102":0.07085162761260277,"103":-0.2218107264148522,"104":-0.06499844398329137,"105":0.06508495906925693,"106":0.1080834310993649,"107":0.22601126283361228,"108":0.1127626450897771,"109":0.13407500105768694,"110":0.0387375367202702,"111":-0.1898854482004493,"112":-0.013235340366406822,"113":0.07319482843646674,"114":0.03305009449085862,"115":-0.04695244399913206,"116":0.10343645078934957,"117":0.03992280453653467,"118":0.14616728359769873,"119":-0.05565312795886623,"120":0.03386577667076668,"121":-0.09263117166960184,"122":-0.035109029895872244,"123":-0.08423701652062764,"124":-0.10341019428180476,"125":-0.06345050063304963,"126":-0.20154065214420264,"127":-0.043666979905800596,"128":-0.004424490683007117,"129":-0.1227845922412856,"130":-0.01082739953526787,"131":0.06262678973577337,"132":-0.17559759343049056,"133":0.11673026504912044,"134":-0.04921776213558291,"135":-0.036853479411923774,"136":-0.1200820021871294,"137":-0.099110460685469,"138":-0.008628884555058069,"139":0.21643309265496383,"140":-0.08260949685000396,"141":0.3771627485582104,"142":-0.07103841898420547,"143":-0.13953778513146287,"144":-0.10459734727157469,"145":-0.026629655302329334,"146":0.08773491273359718,"147":0.14375409938624212,"148":0.12709014072005856,"149":0.040188658288893286,"150":-0.1520866273095917,"151":-0.1517120607860652,"152":-0.030314383950551846,"153":-0.047960783868367156,"154":0.0190843583296089,"155":-0.11809610048517556,"156":0.04072899646416486,"157":-0.08553922136682476,"158":-0.09235001688124252,"159":-0.0010523135666746428,"160":-0.05249666207149273,"161":-0.09434771796111492,"162":-0.07005068722632993,"163":-0.014194385356597871,"164":-0.0771370359845635,"165":0.022265411694254812,"166":-0.14178868556415092,"167":0.015327926209497005,"168":-0.015028174237467934,"169":-0.1161360286078474,"170":-0.029764617626265113,"171":0.15025818741810776,"172":-0.05853853728832692,"173":0.12502175015239347,"174":-0.10649077015742563,"175":0.003191593472718481,"176":-0.051765884446274356,"177":-0.062441608802488564,"178":0.04134593866085907,"179":0.17673053189281712,"180":0.06509298742197686,"181":0.19545382876263406,"182":-0.06216543327575851,"183":-0.07833410820281572,"184":-0.019223286716120117,"185":-0.06524016910417285,"186":0.016671407293711516,"187":0.020700305552445904,"188":0.04879463135600924,"189":-0.02169561308572249,"190":-0.10854136632105518,"191":-0.08754397205101476,"192":-0.0908546160573334,"193":-0.05537180977599486,"194":-0.009270315209828682,"195":-0.07497263848373106,"196":-0.023612140275973182,"197":-0.09498663860480548,"198":-0.0021450925423322506,"199":-0.05706042841849687}},{"sx":5,"sy":5,"depth":8,"w":{"0":0.0770199156430502,"1":0.02922604003673759,"2":-0.20049919645531208,"3":0.0382852917403924,"4":-0.041023481985586085,"5":0.047911197106790794,"6":0.01803381406477463,"7":-0.06547291825109386,"8":-0.01576434009508913,"9":0.06777077451752138,"10":-0.09896178757078596,"11":-0.018062799605043554,"12":0.08107100834548801,"13":0.009017050157430758,"14":-0.017169046700762778,"15":0.14239138996291478,"16":-0.16692649563401601,"17":0.19046484204467568,"18":-0.10852644316287013,"19":-0.10560917243604255,"20":0.12299071039436701,"21":-0.09079371156373647,"22":-0.08849874541257456,"23":0.11023365021896603,"24":-0.2158009811226112,"25":0.09877617731820898,"26":-0.18435708187287111,"27":-0.08047321591768734,"28":-0.05186836994592528,"29":0.03029769984737964,"30":-0.15471385053395323,"31":0.2730456742763296,"32":-0.1883895030299123,"33":0.07514423537777437,"34":-0.28287520384798137,"35":-0.13129318832769335,"36":0.038202784022777735,"37":0.2535598861592602,"38":0.24484497637191768,"39":0.38751107879785085,"40":0.10184187791316313,"41":-0.07682495509996651,"42":-0.24116614086653357,"43":-0.03654344066638968,"44":-0.13306912564814968,"45":0.043746408435063236,"46":0.08573480247113369,"47":-0.10762793979770471,"48":-0.022921607194380942,"49":-0.08515982743034611,"50":-0.17756587983628483,"51":0.006809419871287537,"52":-0.03763266492277834,"53":0.09198181984033237,"54":-0.12275241605508928,"55":-0.051215738625355035,"56":-0.20413172837567417,"57":-0.11665240151748221,"58":-0.19033925934866,"59":0.06615566798928296,"60":-0.10500243880071225,"61":0.059614891083899633,"62":0.004886499077711346,"63":0.18373634661984203,"64":-0.17147320663858162,"65":-0.20607311276236873,"66":-0.17914991268204872,"67":0.13222850686184498,"68":-0.1885954485973336,"69":0.4519107586356418,"70":0.16001401851559968,"71":0.21245932507528886,"72":0.01812299696975374,"73":-0.035442949603676874,"74":-0.3327752776476118,"75":-0.029171112640989354,"76":0.09727419981994379,"77":0.16705042741228815,"78":0.23589182931296676,"79":0.0992142842600348,"80":-0.08058591570235048,"81":-0.08074319155103331,"82":-0.06869220995192223,"83":-0.12650044087586923,"84":-0.08642173032528376,"85":-0.07056073325288684,"86":-0.026228757641218126,"87":0.05139873392643008,"88":-0.08435257075422353,"89":-0.2586055679953026,"90":-0.09484893707184813,"91":-0.02426768730621326,"92":-0.21468680954606784,"93":-0.0038256795566317856,"94":0.0027557619621988642,"95":-0.008111021062897334,"96":-0.10600304126971709,"97":-0.30524625749274986,"98":-0.13768167674752624,"99":0.2219343903637013,"100":-0.11763258612200311,"101":0.09381559772502243,"102":-0.024232140153553548,"103":-0.1191431991405758,"104":-0.20629601690943256,"105":0.04566881778054666,"106":-0.24561258480192397,"107":0.2820025609675129,"108":0.22025323851254425,"109":0.33651737801991155,"110":-0.09214640834596477,"111":-0.42028084570457536,"112":-0.06260812298781974,"113":0.12168216854441552,"114":-0.1558597314464033,"115":0.13673360403570106,"116":0.24218050898424573,"117":0.05228392271754851,"118":0.08638654208980186,"119":-0.05984411225775054,"120":0.08605167463304712,"121":-0.11845713179091395,"122":-0.0010891888016896596,"123":-0.07438793678479823,"124":-0.09036712449361242,"125":-0.008139894556773433,"126":0.04181229348172338,"127":0.014849713947468854,"128":0.22856167567910107,"129":-0.2392260773091162,"130":0.03371489655084603,"131":0.017464590246569357,"132":-0.05357568750305548,"133":0.09653563348232395,"134":0.1895722936829374,"135":-0.05264725098463664,"136":0.24162413353124446,"137":-0.1310829153488841,"138":-0.07432388224318165,"139":0.03153652545710848,"140":0.0847066328459442,"141":-0.04380313498403828,"142":0.22393684675970213,"143":-0.32714738954462613,"144":0.1330782782919202,"145":0.09662068834858203,"146":-0.08590247842071959,"147":0.1463112299596683,"148":0.3165235136759791,"149":0.1276936809983149,"150":0.06063997965904131,"151":-0.21330712287341339,"152":-0.04601086401677691,"153":0.13381289372282926,"154":0.17536591390234055,"155":0.18449619006348061,"156":0.30655428703515875,"157":0.015673560438455754,"158":0.15502734116219005,"159":0.009293567427880886,"160":0.022968739254999464,"161":-0.13403843147581057,"162":-0.032874454463692845,"163":0.0543399044613293,"164":-0.12102173450120256,"165":0.08488705318209294,"166":-0.01908641005913013,"167":0.020441645887711524,"168":0.18080101136174417,"169":-0.1678546742110231,"170":0.09524629474421312,"171":0.030965328496472627,"172":-0.04796106336916037,"173":-0.0729352380103092,"174":0.025079453358580018,"175":-0.09567615193453181,"176":0.23331204050926832,"177":-0.1843090019477474,"178":-0.05844200189265682,"179":-0.18352178930612206,"180":-0.15104525141532446,"181":-0.21857447304736646,"182":0.12862437043626293,"183":-0.267418237867776,"184":0.11026265955267368,"185":-0.26675634325892433,"186":-0.2097766871124407,"187":-0.09609179248172775,"188":-0.1491347865129396,"189":-0.10816449084990576,"190":0.05264626823236677,"191":-0.17412340563313547,"192":-0.029145828965421436,"193":-0.11035525134116447,"194":-0.0005684637287537295,"195":0.018166834652224947,"196":0.07010078733856435,"197":-0.14799152412380023,"198":-0.08562305460430811,"199":-0.1366673593795177}},{"sx":5,"sy":5,"depth":8,"w":{"0":-0.22109404748053332,"1":-0.08228796520133466,"2":-0.05630081125526949,"3":-0.09526117162873263,"4":-0.09084160684512173,"5":0.027588028354053468,"6":-0.15477182868918749,"7":-0.0014679294342341963,"8":-0.24862283720345799,"9":-0.15645465069588144,"10":-0.0660861258777741,"11":0.12073133349888482,"12":-0.06055949714573876,"13":0.08795669172529728,"14":0.06972485014264919,"15":0.15789865572372727,"16":-0.1676514977476052,"17":-0.028616427265089932,"18":-0.17932161664594476,"19":0.01720121907458266,"20":0.033208040417709854,"21":0.11300918894480308,"22":0.09077029517028795,"23":0.16488347195884542,"24":-0.02530588639562713,"25":-0.0012531377097844785,"26":-0.17912392594058255,"27":-0.10251514599916083,"28":0.006318157935262564,"29":0.0658917090994525,"30":-0.04507318913054521,"31":0.04592966902609969,"32":-0.02478848846626777,"33":-0.01743629185135021,"34":0.00893817961430187,"35":-0.05319970362583226,"36":0.1478643082929673,"37":-0.08983275947326308,"38":-0.09622735434363953,"39":-0.10719722823735978,"40":-0.06205434310340077,"41":-0.1755015994222702,"42":-0.133371521843064,"43":-0.0745616987859616,"44":-0.061185768396009095,"45":0.00007308133343785572,"46":0.027024299201493757,"47":-0.08326599667295005,"48":-0.06728705853783233,"49":-0.06407034837607378,"50":-0.11188774773051989,"51":0.1441447765352608,"52":0.0674256007529358,"53":0.2566528524657293,"54":-0.03614347377574266,"55":-0.02405049722902339,"56":-0.15409771897803717,"57":0.06590736007509339,"58":-0.16643286244090136,"59":0.14115264182350984,"60":0.3627071438292061,"61":0.00259483305138273,"62":-0.09068737587518098,"63":-0.051818589846280794,"64":-0.24341652188296473,"65":0.23574181894711174,"66":-0.10465737142693159,"67":0.042389409751320564,"68":0.35532397609894417,"69":-0.006173422647280909,"70":0.09017726235826647,"71":0.016286629703745736,"72":-0.08840716165784868,"73":0.1406931206134586,"74":0.04106262160583611,"75":0.047104461379301535,"76":0.18043043435609066,"77":-0.042397025348626535,"78":-0.03792064728195795,"79":-0.0434173045543293,"80":0.0700954362574351,"81":-0.09353995885101109,"82":-0.16181135240508962,"83":-0.08718869405705108,"84":-0.03439245970862269,"85":-0.07208744880559491,"86":0.05908442706530177,"87":-0.1962681971712326,"88":0.1135719529885834,"89":-0.004782256409917519,"90":-0.13681736586306806,"91":-0.05036071743236898,"92":-0.045547407620936564,"93":-0.07658249627552828,"94":0.21797701793308621,"95":-0.09118434241621078,"96":0.16246670881674993,"97":0.047655181067299386,"98":-0.08342517059042041,"99":-0.13763627829568875,"100":0.2121831229370059,"101":-0.0606525208452745,"102":0.32599546721089284,"103":0.03694586114193311,"104":0.0033058761706207637,"105":0.08763784149316854,"106":-0.05992392768800234,"107":-0.014094291905610366,"108":0.3884662826851321,"109":-0.05753733197078851,"110":0.1968407405616344,"111":-0.07556974122144502,"112":-0.14412801414470017,"113":0.12456750465162728,"114":0.009976512407382699,"115":0.19124699707825168,"116":0.3574482959390702,"117":-0.03220949866611597,"118":0.11586026278733634,"119":-0.01886770322125894,"120":0.036857748341992715,"121":0.015658722712361718,"122":-0.06892212421708493,"123":-0.011733742649815816,"124":-0.06324067331022655,"125":-0.11315251877864553,"126":-0.004767123087463348,"127":-0.10072949695263206,"128":0.2039897407631198,"129":-0.033959934439719654,"130":-0.1508029813040668,"131":-0.09334887961991455,"132":-0.054123649141569086,"133":-0.1298220113909799,"134":0.12986098889295722,"135":-0.09034721145473873,"136":0.23344499069655802,"137":-0.027924663528148142,"138":-0.09054118188958489,"139":-0.00841701587696789,"140":-0.11919933861902873,"141":-0.22060671633555212,"142":0.13273095860888068,"143":-0.17751003569304546,"144":0.2775045096554603,"145":-0.14482037491668912,"146":-0.09712165358871953,"147":-0.20063370611784453,"148":-0.1378487827757957,"149":-0.1338516272675825,"150":-0.009353732630759856,"151":-0.15223659549268612,"152":0.17349888677380487,"153":-0.09995221738010261,"154":0.0034792899434984577,"155":0.17431486326625217,"156":-0.01967160223010831,"157":-0.15828953343198898,"158":-0.038168436606148756,"159":-0.07708948720360917,"160":-0.008944256742854123,"161":-0.07678581109639948,"162":-0.20605472362843988,"163":-0.1024120570979889,"164":-0.09449810705161096,"165":-0.10968890182517432,"166":0.04006463105167465,"167":-0.044841928235999945,"168":-0.05237564658618324,"169":0.027444012385774243,"170":-0.14465746305855928,"171":-0.018443923757283327,"172":-0.035123110361014634,"173":0.03275164749541035,"174":-0.09363306000497122,"175":-0.030230282883611032,"176":-0.1551392066852426,"177":0.0827224379100067,"178":-0.06681298376280469,"179":0.010615195681398048,"180":0.025309968727893897,"181":-0.14766384133004679,"182":-0.24271712694990966,"183":-0.008840531747581173,"184":-0.19704569803662014,"185":-0.051711766793300785,"186":-0.11733733190968249,"187":-0.14238237756862104,"188":-0.16380280725018806,"189":0.14817316899699493,"190":-0.1270270764138706,"191":0.1694129402693905,"192":-0.19650716086492767,"193":-0.14350672344928045,"194":-0.016503239784706115,"195":0.15469179941704117,"196":-0.13460354659543927,"197":0.13958162466970256,"198":-0.13981881081884684,"199":0.10287750043992482}},{"sx":5,"sy":5,"depth":8,"w":{"0":-0.13685167314335564,"1":0.056790928796004225,"2":-0.09484198041552756,"3":0.032316067628581524,"4":0.03616681608166406,"5":0.07085107024200568,"6":0.10168438576572639,"7":0.15284770912072837,"8":-0.018693625445592436,"9":-0.09360707800597476,"10":-0.028270478453177792,"11":0.025660678980739777,"12":-0.11243151108171108,"13":0.09693413406818525,"14":0.19033699810023694,"15":0.14836650542035498,"16":-0.09095165151904425,"17":0.02207838444144089,"18":0.056914013673459246,"19":-0.02645721317460132,"20":-0.03322506660855691,"21":-0.09687146369097517,"22":0.17965581018488253,"23":0.035985625211578894,"24":-0.0269424422915113,"25":0.034980266060537814,"26":0.05982535749993448,"27":-0.1550897466136878,"28":-0.04371796824889762,"29":-0.06422497551252035,"30":0.07428336273538043,"31":0.06917594727310741,"32":-0.03895378004358299,"33":-0.051530426085940266,"34":-0.009409507452338008,"35":-0.05203001975000887,"36":-0.05404695916687612,"37":-0.008341958627375362,"38":0.02862891709696952,"39":0.023034477134128963,"40":0.041268450122919284,"41":-0.0985049840789062,"42":-0.13899096576277725,"43":0.10449932989316096,"44":-0.1470471508591627,"45":0.05829610297645628,"46":0.05463643563480046,"47":-0.03610881768485425,"48":0.12423960191889667,"49":-0.08644607715791594,"50":-0.1123324311988665,"51":0.08866451589364008,"52":-0.13113789639931156,"53":-0.03548399806133308,"54":0.14314885346698789,"55":-0.03392670240553752,"56":0.13775312584582272,"57":-0.033563260185398645,"58":-0.11597193547495312,"59":-0.06086460313874201,"60":-0.029363545146209716,"61":-0.09498149703588825,"62":0.10633609791680605,"63":-0.06544963588452138,"64":0.14510024281601142,"65":-0.032648803460546445,"66":-0.03394625828957788,"67":-0.055245536931536096,"68":-0.06525590077940625,"69":-0.04128594419090128,"70":0.04411698991191149,"71":-0.013091535410728564,"72":-0.03798791242296738,"73":-0.06414561954812348,"74":-0.04339019133646824,"75":-0.016753957328652425,"76":-0.06176903080562696,"77":0.02866992170475491,"78":-0.0185502593179358,"79":0.01114908057010004,"80":-0.05627477645995965,"81":-0.07679020362573419,"82":-0.10154030661737794,"83":0.12115307439911284,"84":-0.10293901946597007,"85":0.13016826139747703,"86":-0.03812969819287157,"87":-0.02793126436730583,"88":0.067950226914137,"89":-0.08629553927525488,"90":-0.13100106998344438,"91":0.04906665683577104,"92":-0.05100181489056803,"93":0.008468639093750827,"94":-0.09392176925366236,"95":-0.0408954709392267,"96":0.04926683099739477,"97":-0.09815253063788562,"98":-0.14700796351264703,"99":-0.026211151743275176,"100":-0.018510974636244466,"101":-0.04324898478790476,"102":-0.05051754747897614,"103":-0.03440559618513631,"104":0.008838309438971646,"105":-0.06553043973239187,"106":-0.04828493121424056,"107":-0.02863031125144968,"108":-0.026840943238109642,"109":-0.05837001268830902,"110":-0.06267511937465278,"111":-0.035585339566616477,"112":0.02149132010989004,"113":-0.07692645721496623,"114":-0.047530461728485365,"115":-0.011618244065893875,"116":-0.03474950026881172,"117":-0.0010955647966735716,"118":0.0026276380511428333,"119":-0.06113470750067015,"120":0.08818943692976008,"121":-0.056585751105405035,"122":-0.08872838185462828,"123":0.03996041702620686,"124":-0.06276435537832234,"125":0.037381666177517446,"126":0.003956937714112449,"127":-0.017293238104869383,"128":0.04021588871387738,"129":-0.046857107589347975,"130":-0.09565825758005118,"131":-0.022551425519054393,"132":-0.05866402817861084,"133":-0.0283282502377512,"134":-0.05138550629205275,"135":-0.05465134420832962,"136":-0.020187569158837047,"137":-0.0966590951375242,"138":-0.10858504606864201,"139":-0.018297828781058966,"140":-0.07245157097803842,"141":-0.02603172576365376,"142":-0.05124149288844548,"143":-0.06999985872467607,"144":-0.02994227608621456,"145":-0.07644201255851263,"146":-0.02756501188329757,"147":-0.005732242163988815,"148":-0.023747356636643187,"149":-0.0314600118287227,"150":-0.07046768022217505,"151":-0.09490930392617723,"152":-0.023785781397508397,"153":-0.07073748823814342,"154":-0.03294744376133477,"155":-0.009305774776621516,"156":-0.03778973803002888,"157":-0.0708805375746547,"158":-0.07427458489385767,"159":-0.08166148068543205,"160":-0.022847424513073773,"161":-0.09195280570007386,"162":-0.1293337404929925,"163":-0.02097405853299511,"164":-0.06664131378051032,"165":-0.0218206072777981,"166":-0.08616020841529232,"167":-0.029436602509463863,"168":-0.0646750845966203,"169":-0.07305999444491443,"170":-0.10491670519007193,"171":-0.04505593249482201,"172":-0.06660226067406709,"173":-0.034201243800208905,"174":-0.05270821858280711,"175":-0.04002987549667968,"176":-0.04715027556805042,"177":-0.06710657276208663,"178":-0.12037323820606427,"179":-0.014249663351226599,"180":-0.07869963963624937,"181":-0.02601004661981365,"182":-0.045277206017983164,"183":-0.07933334757590665,"184":-0.020034047670184605,"185":-0.07968486408910021,"186":-0.023878111949814124,"187":-0.00899773397575291,"188":-0.07218725564045604,"189":-0.02301086356534508,"190":-0.06420623473510048,"191":-0.08316861064434788,"192":-0.04017843203412141,"193":-0.09341144920056592,"194":-0.02122780312927594,"195":0.003706770441840521,"196":-0.06016344117875178,"197":-0.06221965603792171,"198":-0.08742131807860071,"199":-0.08279756390482126}},{"sx":5,"sy":5,"depth":8,"w":{"0":0.20587616648289614,"1":0.006263502330860051,"2":-0.11244031203243536,"3":-0.022884939520727277,"4":-0.11457359314005892,"5":0.06826239223168472,"6":0.23766631739403027,"7":0.006698310749908769,"8":0.2133971697368237,"9":-0.15174634643994242,"10":-0.10586630321317937,"11":0.019886857561116408,"12":-0.1627779994242912,"13":-0.018332913445080135,"14":0.26489826211806006,"15":0.06012994904711153,"16":0.16860410188846173,"17":-0.05241499358843463,"18":-0.05782486319223557,"19":-0.032037070606910155,"20":-0.050214094694435996,"21":-0.0398303096038863,"22":0.08695560949894415,"23":0.0015294934931222356,"24":0.0671977837401523,"25":-0.06287518547162606,"26":-0.044886432800881094,"27":-0.024358252615382606,"28":-0.03399684923438001,"29":-0.057104437148032275,"30":-0.001566113931138237,"31":-0.009941020384310544,"32":0.0005019443973273703,"33":-0.04466325529762236,"34":-0.01386945370705074,"35":0.023439510097068916,"36":0.02254636250955045,"37":0.012630243903496033,"38":-0.05529519022501012,"39":-0.016910850750409646,"40":0.16111311152187155,"41":-0.08028586381737784,"42":0.02658752486000439,"43":-0.004848771926316988,"44":0.00751110818645458,"45":-0.027437558154256504,"46":0.13591350221605714,"47":0.02721237536453224,"48":0.1657313328859874,"49":-0.044338409819053855,"50":-0.061168446406128334,"51":-0.13347616088430755,"52":-0.14409120078364362,"53":-0.07964917956144521,"54":0.02481126514811867,"55":-0.0416934696541365,"56":0.13725474506816418,"57":-0.017525860010452764,"58":-0.10141953600698465,"59":-0.07482573124658964,"60":-0.08839692310738347,"61":-0.08848423659733477,"62":-0.11277890973526586,"63":-0.04616482332338586,"64":0.014390933306948963,"65":-0.09302734848369444,"66":-0.08809788727820916,"67":0.02083308315831579,"68":-0.04791592787929935,"69":0.018110361794435544,"70":-0.06471823496946476,"71":-0.02256528166296584,"72":-0.07281639584160961,"73":-0.06016862730702742,"74":-0.028836596397503893,"75":0.010617839093016916,"76":0.022570066675997997,"77":-0.006203353305816417,"78":-0.06365056119744777,"79":-0.05094663734752628,"80":-0.019969422522073885,"81":0.05279369675411781,"82":0.1308080013859624,"83":0.1883960827239144,"84":0.21995595452656952,"85":-0.0022059725128764952,"86":-0.16688480429744051,"87":-0.15751914179239151,"88":-0.02147828937898362,"89":0.05319967498288539,"90":0.14234082714797586,"91":0.058383257449449645,"92":0.10698841528214881,"93":-0.05749289434228974,"94":-0.10123649886137057,"95":-0.010199878369052274,"96":-0.007664105217919798,"97":0.003262753438549724,"98":0.04147971824034998,"99":-0.0740188939612211,"100":0.0028229796170629834,"101":-0.10178990095177688,"102":-0.043996606893046845,"103":-0.07233891107654376,"104":0.002476026013087643,"105":-0.07796531570361243,"106":-0.10394928834004744,"107":0.006676991436351005,"108":-0.03845972018183312,"109":-0.03636102507147753,"110":-0.016677111069815245,"111":-0.07698505467743538,"112":-0.0025482562525994527,"113":-0.07116356914500871,"114":-0.046706475662357624,"115":0.01561069065434067,"116":-0.0010703252842402227,"117":-0.02013738137463466,"118":-0.029390506351873447,"119":-0.06902782085540378,"120":-0.02522723219177596,"121":-0.006655350204889807,"122":0.02466538107232932,"123":0.04774962353671396,"124":0.054185416625536734,"125":-0.12516133841967478,"126":-0.02468774547207136,"127":-0.054500837182660015,"128":-0.10691512931746398,"129":0.04960367192138764,"130":0.12869341402977705,"131":0.17024156975644258,"132":0.0853970406127787,"133":-0.031246989146873953,"134":-0.19262979642862918,"135":-0.10438874698896276,"136":-0.10180942973680596,"137":-0.030728957123823033,"138":0.11380262522941917,"139":0.015860220250334418,"140":0.0053870459538708565,"141":-0.06576647265665851,"142":-0.1703409767747183,"143":-0.10455382192042897,"144":-0.1061781385302888,"145":-0.06089204447240173,"146":-0.09420072168414574,"147":-0.009493257930991544,"148":-0.04168283051560751,"149":-0.05653426501552554,"150":-0.12370993034421543,"151":-0.0695981374729135,"152":-0.04669129954060778,"153":-0.12524590913818562,"154":-0.0651556924132853,"155":0.004639927045108299,"156":-0.04500203952686408,"157":-0.0330759829533091,"158":-0.06458905901507696,"159":-0.06531631683293745,"160":-0.12096066757011076,"161":-0.048625126169456336,"162":-0.008843449215650879,"163":0.06633413058437791,"164":-0.023347136179293234,"165":0.04243926957495449,"166":-0.07242418733821673,"167":-0.007077156390230656,"168":-0.10943017400099542,"169":-0.10697018427433745,"170":-0.011086207874804233,"171":0.1712410657439205,"172":-0.05705147593926981,"173":0.11324580888753544,"174":-0.11273664232295542,"175":-0.1206668264006319,"176":-0.10734859022549427,"177":-0.11179722682298873,"178":0.035656534840623706,"179":0.09424576421930855,"180":-0.01611485209275782,"181":-0.03607691577103573,"182":-0.1077303617632307,"183":-0.09759124467098948,"184":-0.057993819729159284,"185":-0.11639673618322402,"186":-0.08657928453340946,"187":-0.019537095845523284,"188":-0.047497575545745824,"189":-0.033393950507907125,"190":-0.10035944887422657,"191":-0.061546933199415454,"192":-0.03869882718163477,"193":-0.14088864641225304,"194":-0.024109240827734916,"195":0.012259011666227263,"196":-0.07044544384422971,"197":-0.010696314862202762,"198":-0.08764577511167639,"199":-0.11840243537875723}},{"sx":5,"sy":5,"depth":8,"w":{"0":-0.00557221258190933,"1":-0.02192387154447203,"2":0.04452880864171447,"3":0.21990810149754342,"4":0.16443464780204103,"5":0.017117655134860493,"6":-0.020176352438907905,"7":-0.12150611274205933,"8":-0.11025686526385645,"9":0.14008216030293213,"10":0.30525431015667254,"11":0.11199140065724791,"12":0.3399290433080676,"13":-0.07785686818318685,"14":-0.19127239096574392,"15":-0.12645070224378477,"16":0.04499100541073212,"17":0.13797037456749225,"18":0.05562164652208332,"19":0.008066276729301575,"20":0.11671447343762172,"21":-0.09447871208112325,"22":-0.07323238070525025,"23":-0.10091077332268047,"24":0.06344101721041392,"25":0.014085891695777219,"26":-0.04527641985118511,"27":-0.06795903551696475,"28":-0.1046187615158702,"29":-0.09919787457858907,"30":0.029099802201113776,"31":-0.1489467468912691,"32":-0.004499003939488042,"33":-0.026299177666865143,"34":-0.06341591316487188,"35":-0.0028918968785286293,"36":-0.014584617295673587,"37":-0.012718927949950786,"38":0.009491130104845341,"39":-0.012893894622166023,"40":0.11891970352629318,"41":-0.22765705071318307,"42":-0.06630032488092653,"43":0.05927200244572631,"44":-0.06401961340438239,"45":-0.04189179377127588,"46":0.2647242048405287,"47":-0.06367237797505329,"48":-0.18176039887508547,"49":-0.11800993676463928,"50":0.1267667337266377,"51":0.23264533679864186,"52":0.1858769595211136,"53":-0.03221088695533966,"54":-0.20117173180290396,"55":-0.14445785982091344,"56":-0.1716094369192505,"57":0.05426347860141188,"58":0.10462861028227734,"59":0.17487565604614522,"60":0.3233744466297896,"61":-0.04721589405236674,"62":-0.20873754458843222,"63":-0.13571897656018722,"64":-0.10507895287773193,"65":0.03623724255913264,"66":0.02443545633373343,"67":-0.1258236028081655,"68":-0.025968229149490506,"69":-0.046754490424078615,"70":-0.0786138500222883,"71":0.009744883175330451,"72":-0.013863738413818391,"73":-0.06865287195271759,"74":-0.06858612362965236,"75":-0.017241495807034615,"76":-0.0988918829554509,"77":0.04098758183533218,"78":0.024468290182899363,"79":0.06397798318150108,"80":-0.019712323513275787,"81":-0.056826018713154756,"82":-0.0394927943711872,"83":0.09238131972570297,"84":0.030954360131856862,"85":0.07913367292853764,"86":-0.07302286935963671,"87":-0.004328628684128423,"88":-0.15392352053311417,"89":-0.13560651431840012,"90":-0.013820169917702711,"91":0.2757005532581834,"92":0.02941508254770185,"93":0.19587832660982304,"94":-0.11208807108561541,"95":-0.10046648549015746,"96":-0.2801705201187772,"97":-0.13398470285358363,"98":0.07533365205074681,"99":0.38155334351412756,"100":0.12378314016257702,"101":0.06012076919649564,"102":-0.1892522775771445,"103":-0.20265670420811904,"104":-0.15382767249277318,"105":-0.05414789893264831,"106":0.09568519710687393,"107":-0.025314739217980935,"108":0.08553859134386901,"109":0.0004429262053611139,"110":-0.1215586708084753,"111":-0.001033803314785507,"112":-0.016203627114041604,"113":-0.05222269114588247,"114":-0.04663574368381324,"115":-0.011166335665254332,"116":-0.055579232156943645,"117":-0.0012793049563688196,"118":0.0194257785246165,"119":0.00403146142428386,"120":-0.06734685160712185,"121":-0.051152780484581745,"122":-0.09713903876359677,"123":0.04331386621507982,"124":0.04146543823900659,"125":0.03840646199722788,"126":0.12436063751603821,"127":0.09649370886696558,"128":-0.09680711557708456,"129":-0.06298136302567583,"130":-0.04044231468346955,"131":0.11227134913313194,"132":-0.05162386523126039,"133":0.26394800094849385,"134":0.11130787187775616,"135":-0.02092177366152575,"136":-0.015024339763026922,"137":-0.11239596203744427,"138":0.026031355245667458,"139":0.22740982422736444,"140":-0.088383218068925,"141":0.09682137802858135,"142":0.007296735018492654,"143":-0.06450287158329465,"144":0.005145607220009287,"145":-0.06650453473777485,"146":0.04984676709222455,"147":0.06185504202286899,"148":0.0651049127649385,"149":-0.02080131925287183,"150":-0.026618512573238946,"151":-0.06957093046721319,"152":0.0404620892469865,"153":0.006682188799911282,"154":-0.008911313561700824,"155":-0.042015961449740465,"156":-0.04234558507721142,"157":-0.09627315502059586,"158":-0.0001603727545229794,"159":-0.10521187090043232,"160":0.033753714719956945,"161":-0.06547271546633396,"162":-0.16827861586940493,"163":-0.04176166975282972,"164":-0.1580096746097746,"165":0.05122801920474174,"166":0.12532883693955965,"167":0.04785500725652815,"168":0.024372848598356162,"169":-0.06796287318518629,"170":-0.03333837022618279,"171":-0.0060338242478217155,"172":-0.05664211749556072,"173":0.09603850595821518,"174":0.09747104930662202,"175":-0.050167762602717984,"176":0.07224548819133274,"177":-0.12377281466221868,"178":-0.08254418457005573,"179":0.1015842245892728,"180":-0.011584613482919566,"181":0.013325489926620016,"182":-0.021094020881196798,"183":-0.13050414809966313,"184":0.03862335157162906,"185":-0.09786550448303878,"186":-0.06290239494199786,"187":0.07623756395779718,"188":-0.00615321778736733,"189":-0.01367326030946778,"190":-0.035014881858697236,"191":-0.10526481416788526,"192":0.04540244258728815,"193":-0.006013116956212875,"194":-0.05255189690494459,"195":-0.09863490407173324,"196":-0.026475722903356234,"197":-0.10225151192590572,"198":0.013779026888634137,"199":-0.06688359808134196}}],"biases":{"sx":1,"sy":1,"depth":16,"w":{"0":-0.2304777821416324,"1":0.12059131677482267,"2":-0.2956960548367587,"3":-0.25649400974286113,"4":0.05424088397525366,"5":-0.35965608141120603,"6":0.022425015873071188,"7":0.000024880895909196513,"8":-0.19799099136285644,"9":-0.2564899945721182,"10":0.03194919203211757,"11":-0.25539245523453535,"12":-0.4013633199539104,"13":-0.3277817404085337,"14":-0.4084616980654295,"15":-0.3383149665405353}}},{"out_depth":16,"out_sx":12,"out_sy":12,"layer_type":"relu"},{"sx":3,"sy":3,"stride":3,"in_depth":16,"out_depth":16,"out_sx":4,"out_sy":4,"layer_type":"pool","pad":0},{"out_depth":10,"out_sx":1,"out_sy":1,"layer_type":"fc","num_inputs":256,"l1_decay_mul":0,"l2_decay_mul":1,"filters":[{"sx":1,"sy":1,"depth":256,"w":{"0":-0.03224106887502484,"1":-0.07367001149980955,"2":-0.2646624045667091,"3":-0.01273097673609632,"4":-0.021317342835812925,"5":-0.008747181663076902,"6":-0.005197259817889665,"7":6.103622097299799e-7,"8":-0.05424905706706914,"9":-0.010128687315065537,"10":-0.013918227580982006,"11":-0.009681751965374751,"12":-0.011297723065333835,"13":-0.0024902079311101824,"14":-0.12592698336650895,"15":-0.005607764466016911,"16":-0.050951459653999505,"17":-0.22166838902152186,"18":-0.3732358629278538,"19":-0.14091464486534244,"20":-0.31447112661358295,"21":-0.02140963973815922,"22":-0.024708357991773337,"23":4.65647422801126e-7,"24":-0.03596422325564538,"25":-0.16948006568288593,"26":-0.028027344261883642,"27":-0.02929068980118599,"28":-0.10188626111777116,"29":-0.010401514478103332,"30":-0.06131882520618321,"31":-0.03175869025072297,"32":-0.044206795300159814,"33":-0.1834881414942401,"34":-0.4027198932044432,"35":-0.265627629831285,"36":-0.28708606517215784,"37":-0.013695013532813521,"38":-0.01589850300345304,"39":2.8298218608464855e-7,"40":-0.10261983535009965,"41":-0.281510759883502,"42":-0.03689431213300067,"43":-0.04331946448648342,"44":-0.1631924683606403,"45":-0.0029230715503279167,"46":-0.050086157592313114,"47":-0.12459359545196357,"48":-0.04633146106503829,"49":-0.03172292019702682,"50":-0.3541900399573631,"51":-0.17947944628081305,"52":-0.14852420921122939,"53":-0.00222756076068859,"54":-0.015317134555399846,"55":0.0000012446272292564844,"56":-0.26976787592346435,"57":-0.12966723402896396,"58":-0.02257402227060348,"59":0.0018328193718846527,"60":-0.07661332914513538,"61":-0.00890209863122083,"62":-0.22188292131594808,"63":-0.07928186132350162,"64":-0.09816537650754005,"65":-0.06188850546089914,"66":-0.05104707505604823,"67":-0.017143071718384195,"68":-0.07388933622290224,"69":-0.08065624736363095,"70":-0.04798604951656412,"71":6.009789965621281e-7,"72":-0.014146974311677305,"73":-0.0678049582048507,"74":-0.01879855401242676,"75":-0.10005311613266876,"76":-0.046189077369241056,"77":-0.006314992496526723,"78":-0.0021579397050509666,"79":-0.012061241858772772,"80":-0.2984536429846557,"81":-0.2714851750087922,"82":-0.14330883624856103,"83":-0.2607043331083464,"84":-0.3528632967303545,"85":-0.13961331365877214,"86":-0.13106184899887616,"87":3.557599108718719e-7,"88":-0.16891443083920024,"89":-0.3303815538145165,"90":-0.1859741677555279,"91":-0.537958654357481,"92":-0.37874029108925295,"93":-0.014892635805132,"94":-0.00535183001878464,"95":-0.0727856589907372,"96":-0.19735268465633043,"97":-0.24276627955612748,"98":-0.2668640468992734,"99":-0.6057693834176643,"100":-0.3140722436799272,"101":-0.010766087258880515,"102":-0.12387559316622608,"103":4.5163446242185805e-7,"104":-0.3677715098516586,"105":-0.6867861646895375,"106":-0.2786444051289728,"107":-0.24619179332768,"108":-0.3481562062408737,"109":0.004074669374763693,"110":-0.01480275608668614,"111":-0.2224847291037571,"112":-0.1076231090150733,"113":-0.012879057843824947,"114":-0.2830945781445237,"115":-0.38688998321414936,"116":-0.22970184247482323,"117":0.03537631355686958,"118":-0.0866603248570545,"119":-7.301620942724727e-8,"120":-0.39619307253089425,"121":-0.29584008189327166,"122":0.04873203866226151,"123":0.022523403285194393,"124":-0.02956048254362691,"125":-0.040966952052913536,"126":-0.22040095652248148,"127":-0.32837008140558355,"128":-0.0733236107435179,"129":-0.025071169157382955,"130":-0.10489201492228693,"131":0.025233133844113464,"132":-0.14687442464670847,"133":-0.06952382219045604,"134":-0.016391497396149667,"135":1.0922348572646802e-7,"136":-0.020975798457490334,"137":-0.02252488425752709,"138":0.0077398216528743605,"139":-0.13214675095771816,"140":-0.057475861258848494,"141":-0.005012418007492017,"142":-0.008602294237428887,"143":-0.022360820683204618,"144":-0.2166598860674132,"145":-0.17854470273596657,"146":-0.18457988035881703,"147":-0.20549075745306722,"148":-0.36271636979991784,"149":-0.19209115802907048,"150":-0.09897245199502841,"151":4.241609492192714e-7,"152":-0.12690389255510476,"153":-0.38307667982911425,"154":-0.1811586087010602,"155":-0.42388900686976727,"156":-0.589019843403667,"157":-0.016098265719873207,"158":0.004864040730935352,"159":-0.10531860484346078,"160":-0.2364632897767485,"161":-0.16547874260568454,"162":-0.2900375808680615,"163":-0.829710539149155,"164":-0.3008459958154567,"165":-0.00018530383169513458,"166":-0.11133971930473228,"167":3.0877393146444696e-7,"168":-0.5331469555072104,"169":-0.7243459613177267,"170":-0.39941094098250046,"171":-0.6186423896181593,"172":-0.5387187452884558,"173":-0.0025548602083286785,"174":-0.04239232958935424,"175":-0.37750730992309356,"176":-0.08585366341855682,"177":-0.004579640935678212,"178":-0.16100765292340447,"179":-0.3591022272443834,"180":-0.06483730364670412,"181":0.055254586359961624,"182":-0.04126118445378307,"183":-2.5262953196281383e-7,"184":-0.4782985898935457,"185":-0.150340836273997,"186":0.10756555640935497,"187":-0.05428968930652893,"188":-0.15872662087943143,"189":-0.10700405451493575,"190":-0.38090235504714226,"191":-0.2934507769008166,"192":0.025637679129514507,"193":-0.04401017189906027,"194":-0.09818087053115573,"195":-0.06027033381277116,"196":-0.12400201724747191,"197":-0.15745633924321026,"198":0.01738378918617724,"199":0.0000011473332362822005,"200":-0.07466065912601137,"201":-0.06201532569263021,"202":-0.04424446115872194,"203":-0.03421920386615694,"204":-0.08460824798820135,"205":0.0004999273941906605,"206":-0.012235061198975987,"207":-0.017188408816806784,"208":-0.2058460148274356,"209":-0.10834432636779777,"210":-0.1908239166901155,"211":-0.20757989971267668,"212":-0.12733505645130655,"213":-0.2488269125360946,"214":-0.0884790043591777,"215":2.782666476454428e-7,"216":-0.42284792767285745,"217":-0.13168946718779073,"218":-0.2057406244166809,"219":-0.4987889226943483,"220":-0.3962437936125429,"221":-0.18615652614643285,"222":-0.09152129450746764,"223":0.08224899688654436,"224":-0.24500710767030773,"225":-0.08951552308758816,"226":-0.055221914798705356,"227":-0.4520489474562228,"228":-0.07290170750026634,"229":-0.16266659495230754,"230":0.011489609336252487,"231":2.0644830873755217e-7,"232":-0.409462524183518,"233":-0.230832734474209,"234":-0.3854098756257452,"235":-0.4689999061367506,"236":-0.4750679440070436,"237":-0.25688449093787497,"238":-0.20966392159941488,"239":-0.30300945674282986,"240":-0.1290246239683632,"241":-0.010514612124264586,"242":-0.05796600167476678,"243":-0.38389611514885147,"244":-0.044861772477705876,"245":-0.032992955543041276,"246":-0.10377922969689635,"247":-0.000005468174171535652,"248":-0.27604162171809815,"249":-0.0900614974500788,"250":-0.05871336210877328,"251":-0.05086503728392193,"252":-0.24118728819991966,"253":-0.1924400567834052,"254":-0.27315215511053825,"255":-0.3942440605701551}},{"sx":1,"sy":1,"depth":256,"w":{"0":-0.008760661738143289,"1":-0.09231116845576165,"2":-0.19169873288547443,"3":-0.008047094166177696,"4":-0.034396095823493684,"5":-0.0035092427608898282,"6":-0.00012254508292583466,"7":-0.00040513399086495726,"8":-0.011712320167010012,"9":-0.007248382362720995,"10":-0.009121750805269833,"11":-0.0004153007197402658,"12":-0.00517661702791043,"13":-0.0034664787308291587,"14":-0.10266572097194085,"15":-0.004562783907536703,"16":0.01900674806859024,"17":-0.16409496248985878,"18":-0.38886242652913505,"19":-0.06177833517051028,"20":-0.2693841505109854,"21":-0.03562549795211389,"22":-0.019503754745819016,"23":-0.00033760890207241013,"24":-0.03540858743480355,"25":-0.09733002933888422,"26":-0.012960547190751279,"27":-0.0202318220028799,"28":-0.08809154824875307,"29":-0.006565037946488909,"30":-0.0365809744308218,"31":-0.0009551942480357496,"32":0.03515506389124043,"33":0.06533615795147595,"34":-0.39625714094654513,"35":-0.06550501016443912,"36":-0.3849947700710998,"37":-0.008191182770793327,"38":0.018551818419811114,"39":-0.00039599009239000334,"40":-0.06807996691491289,"41":-0.1666795713059821,"42":0.06973773570243472,"43":-0.06163532126686337,"44":-0.23481919847315483,"45":0.0044680767054612455,"46":0.07718513343388847,"47":-0.05411130048585026,"48":-0.009507425677093366,"49":0.036571132316662175,"50":-0.40893820860374447,"51":-0.08940167500151114,"52":-0.06314057013952282,